#ifndef WEIGHTS_H
#define WEIGHTS_H

static const float fc1_weight[] = {
  0.037513f,  0.029657f,  0.020201f,  0.012608f,  -0.018766f,  0.036838f,  -0.011090f,  0.037202f,
  0.033397f,  0.033622f,  0.023372f,  -0.004048f,  0.006385f,  -0.030048f,  0.015963f,  -0.028886f,
  -0.000682f,  0.023950f,  -0.000545f,  0.010800f,  0.035819f,  0.027755f,  -0.032040f,  -0.017721f,
  -0.006957f,  -0.017472f,  -0.002212f,  -0.032434f,  -0.023442f,  0.029068f,  0.013914f,  0.006580f,
  0.006269f,  -0.015997f,  -0.018039f,  -0.008517f,  -0.016652f,  -0.014787f,  -0.021474f,  -0.007281f,
  0.009083f,  0.000566f,  0.001879f,  -0.024510f,  -0.023997f,  0.025781f,  -0.022362f,  0.018945f,
  0.001483f,  -0.028228f,  -0.012505f,  -0.023026f,  0.010180f,  -0.025850f,  0.021799f,  0.022514f,
  0.034319f,  -0.011329f,  0.009907f,  -0.005797f,  0.024685f,  0.006989f,  0.011018f,  0.021809f,
  -0.018176f,  -0.036602f,  -0.004550f,  -0.030134f,  0.035629f,  0.011817f,  0.011323f,  0.055760f,
  0.084880f,  0.069939f,  0.037896f,  0.033022f,  0.017350f,  0.040270f,  0.012035f,  -0.005949f,
  -0.030429f,  -0.027045f,  0.027263f,  -0.028463f,  0.000145f,  -0.031277f,  0.030392f,  0.037187f,
  0.032724f,  0.032952f,  0.024095f,  -0.010578f,  0.022553f,  -0.010264f,  0.026509f,  -0.023375f,
  -0.016082f,  -0.004527f,  0.093919f,  0.105096f,  0.071671f,  0.054273f,  0.025928f,  -0.005359f,
  0.033975f,  0.040052f,  -0.025049f,  -0.003960f,  -0.003534f,  0.017944f,  -0.032187f,  -0.018508f,
  0.014475f,  -0.008380f,  -0.028747f,  0.011757f,  0.008609f,  0.000132f,  0.021835f,  0.024454f,
  0.065064f,  0.085766f,  0.036554f,  0.081160f,  0.018901f,  0.027075f,  0.048822f,  0.103111f,
  0.060813f,  -0.025198f,  0.097475f,  0.063218f,  0.034794f,  0.069214f,  0.066101f,  -0.014275f,
  0.046952f,  -0.000069f,  -0.029015f,  -0.021107f,  0.015995f,  0.007734f,  -0.026195f,  -0.004884f,
  0.030446f,  0.073955f,  0.028236f,  -0.001659f,  0.048663f,  0.050323f,  0.043800f,  0.053686f,
  -0.010761f,  0.083670f,  0.031530f,  0.072482f,  0.045727f,  0.022149f,  0.041511f,  0.050626f,
  0.036157f,  0.018885f,  0.049292f,  0.023089f,  0.049084f,  0.056441f,  -0.002106f,  0.014917f,
  0.032573f,  0.021927f,  -0.020867f,  -0.010501f,  0.039837f,  0.033463f,  -0.011756f,  -0.018392f,
  0.045263f,  0.003479f,  0.034373f,  0.060410f,  0.036422f,  0.023702f,  0.035854f,  0.021118f,
  0.024106f,  0.045650f,  0.080857f,  0.057466f,  0.089885f,  0.027175f,  -0.006228f,  0.005768f,
  0.039686f,  0.048263f,  -0.012882f,  -0.006193f,  -0.022864f,  0.021640f,  -0.018234f,  -0.011599f,
  -0.010136f,  0.032824f,  0.006957f,  -0.002086f,  0.042295f,  0.009291f,  0.055824f,  0.060510f,
  0.044202f,  0.013383f,  0.059372f,  -0.033758f,  0.054251f,  0.033433f,  0.019447f,  0.017875f,
  0.030049f,  -0.016467f,  -0.057360f,  -0.034511f,  -0.052808f,  0.052222f,  0.022280f,  0.033361f,
  0.021244f,  0.028156f,  -0.004800f,  0.008606f,  -0.024331f,  0.022293f,  -0.008526f,  -0.003973f,
  -0.033140f,  0.007830f,  -0.016918f,  0.020516f,  -0.024973f,  0.002822f,  0.048963f,  0.017780f,
  -0.089263f,  -0.065307f,  -0.058364f,  -0.048076f,  -0.052621f,  -0.037447f,  -0.064573f,  -0.086326f,
  -0.032297f,  -0.022018f,  0.017823f,  0.007405f,  0.034154f,  0.018950f,  0.030583f,  0.038606f,
  0.072231f,  0.052609f,  0.029787f,  0.089104f,  0.002443f,  0.008480f,  0.003659f,  -0.011520f,
  -0.000837f,  0.054474f,  0.047256f,  0.025262f,  -0.105555f,  -0.154419f,  -0.115463f,  -0.151353f,
  -0.069325f,  -0.094968f,  -0.033729f,  -0.083703f,  -0.041823f,  0.010485f,  0.011091f,  -0.019264f,
  0.014644f,  -0.005282f,  0.014088f,  0.028088f,  0.092510f,  0.075003f,  0.020993f,  0.025505f,
  0.044106f,  0.004151f,  -0.068744f,  -0.007555f,  0.015145f,  0.057516f,  -0.025673f,  -0.022828f,
  -0.016681f,  -0.007890f,  -0.087460f,  -0.064055f,  -0.133768f,  -0.084166f,  -0.124529f,  -0.103943f,
  -0.039635f,  -0.021503f,  0.033469f,  -0.001931f,  0.011068f,  -0.014063f,  0.038904f,  0.034069f,
  0.058201f,  0.012475f,  -0.002257f,  -0.069076f,  -0.042079f,  -0.081611f,  -0.023302f,  -0.048550f,
  0.026554f,  0.000759f,  0.011968f,  -0.019177f,  0.026410f,  0.065856f,  0.064792f,  0.006071f,
  -0.029012f,  -0.117204f,  -0.064838f,  -0.066385f,  -0.042474f,  -0.033011f,  0.011655f,  0.030481f,
  -0.008165f,  0.035407f,  0.019675f,  0.034092f,  0.023681f,  0.063423f,  -0.025413f,  -0.017024f,
  -0.019893f,  -0.034082f,  -0.031210f,  0.057087f,  0.054657f,  0.011583f,  0.008243f,  0.006637f,
  0.029932f,  0.055933f,  0.055562f,  0.029975f,  0.017826f,  0.031678f,  -0.028026f,  -0.036945f,
  -0.087118f,  -0.049242f,  0.032797f,  -0.026062f,  0.011305f,  0.028048f,  -0.015243f,  0.012292f,
  0.009704f,  0.041477f,  -0.025045f,  -0.014047f,  -0.019200f,  0.010273f,  0.037060f,  0.011523f,
  0.021559f,  -0.002042f,  0.060798f,  0.039243f,  0.042333f,  0.038873f,  -0.001744f,  0.008469f,
  -0.006802f,  0.079497f,  0.038851f,  0.027865f,  0.017714f,  -0.008075f,  -0.032732f,  0.029552f,
  0.003577f,  0.016511f,  -0.003494f,  -0.023192f,  -0.050283f,  -0.082283f,  -0.097180f,  -0.062331f,
  0.010491f,  0.061513f,  0.039792f,  -0.011872f,  0.040358f,  0.021046f,  0.089178f,  0.072228f,
  -0.017720f,  -0.050289f,  -0.046931f,  -0.021270f,  -0.004445f,  0.014640f,  0.078913f,  0.070926f,
  0.047276f,  -0.004400f,  0.011290f,  -0.010191f,  -0.030387f,  -0.007889f,  -0.014373f,  -0.023122f,
  0.002625f,  -0.077907f,  -0.150224f,  -0.184895f,  -0.179661f,  -0.026558f,  0.004109f,  0.016080f,
  0.049637f,  0.003202f,  0.017374f,  0.026596f,  -0.037896f,  0.010765f,  0.027413f,  -0.068063f,
  0.003505f,  0.069662f,  0.118041f,  0.135790f,  0.020677f,  -0.037449f,  0.033479f,  0.017370f,
  0.013261f,  0.010280f,  -0.002810f,  0.017675f,  -0.057140f,  -0.068332f,  -0.193030f,  -0.267970f,
  -0.290016f,  -0.234507f,  -0.153163f,  -0.014757f,  -0.006910f,  -0.039862f,  0.015681f,  0.042364f,
  0.000024f,  -0.006911f,  0.036172f,  0.020783f,  0.008617f,  0.053828f,  0.081478f,  0.029928f,
  0.090936f,  0.012576f,  -0.004334f,  0.031831f,  -0.027212f,  0.029379f,  0.032709f,  0.038648f,
  -0.024697f,  -0.090908f,  -0.170343f,  -0.257386f,  -0.289596f,  -0.340287f,  -0.374865f,  -0.327002f,
  -0.332141f,  -0.205889f,  -0.027636f,  0.056004f,  -0.034307f,  -0.003054f,  0.017190f,  -0.008937f,
  0.011770f,  0.046685f,  -0.020637f,  0.034029f,  0.030569f,  -0.025594f,  0.002403f,  -0.004629f,
  -0.027033f,  -0.019259f,  0.015345f,  0.080167f,  0.073024f,  -0.106712f,  -0.125922f,  -0.127265f,
  -0.147648f,  -0.219445f,  -0.289834f,  -0.399337f,  -0.400490f,  -0.276624f,  -0.004232f,  0.067251f,
  0.025962f,  0.012159f,  -0.025866f,  0.029974f,  0.052640f,  0.097224f,  0.006221f,  0.007972f,
  -0.005312f,  0.022936f,  -0.028437f,  0.037470f,  0.002081f,  -0.021830f,  0.038727f,  0.061230f,
  0.051313f,  -0.022617f,  0.002667f,  -0.032531f,  -0.030420f,  -0.038610f,  -0.078711f,  -0.074245f,
  -0.146091f,  -0.091430f,  0.015207f,  0.089499f,  0.076799f,  -0.017155f,  -0.027508f,  0.027890f,
  0.044899f,  0.019515f,  0.012096f,  0.016168f,  0.008265f,  -0.010840f,  0.004929f,  -0.017371f,
  -0.000703f,  -0.033542f,  -0.004375f,  0.096349f,  0.016188f,  0.007970f,  0.056256f,  0.079633f,
  0.064490f,  0.064631f,  0.051735f,  0.046244f,  0.014373f,  0.027647f,  0.044740f,  0.074434f,
  0.091987f,  0.062489f,  0.059197f,  -0.001278f,  0.004313f,  -0.049478f,  0.045544f,  0.012890f,
  0.033570f,  -0.012047f,  0.032324f,  0.001533f,  -0.024638f,  0.033355f,  -0.021694f,  0.063319f,
  0.068147f,  0.028976f,  0.074870f,  0.139600f,  0.145501f,  0.052474f,  0.111656f,  0.103406f,
  0.090880f,  0.043057f,  0.044235f,  0.130174f,  0.081139f,  0.015858f,  0.032432f,  0.043189f,
  0.064596f,  0.016970f,  -0.044266f,  0.006227f,  -0.011380f,  0.025094f,  0.013231f,  0.008828f,
  0.015331f,  -0.016779f,  -0.006537f,  -0.015298f,  0.066290f,  0.065471f,  -0.004763f,  0.037194f,
  0.096256f,  0.030127f,  0.094790f,  0.054451f,  0.058520f,  0.046563f,  0.057537f,  0.078202f,
  0.038457f,  0.029350f,  0.041786f,  0.044836f,  0.017719f,  -0.000716f,  -0.017077f,  0.040342f,
  -0.035365f,  -0.039896f,  0.016600f,  0.017563f,  0.004225f,  0.007632f,  -0.007607f,  0.029714f,
  0.108173f,  0.062714f,  0.031811f,  -0.011868f,  -0.022986f,  0.035248f,  0.087289f,  0.041335f,
  0.077794f,  0.068786f,  0.045391f,  0.109660f,  0.034662f,  0.041465f,  0.046132f,  -0.000454f,
  -0.035188f,  -0.091464f,  -0.070372f,  -0.058296f,  0.015840f,  0.012495f,  -0.006976f,  -0.010956f,
  -0.019126f,  0.010880f,  -0.003899f,  0.012360f,  0.075605f,  0.052161f,  0.064390f,  0.124931f,
  0.070924f,  0.078536f,  0.062995f,  0.008949f,  0.038029f,  0.047143f,  0.035163f,  -0.012068f,
  0.011215f,  0.050073f,  -0.056897f,  -0.122213f,  -0.046025f,  -0.021927f,  -0.006282f,  -0.005692f,
  -0.031956f,  0.015828f,  0.036241f,  -0.022811f,  -0.026013f,  0.021682f,  0.014898f,  0.020399f,
  0.001362f,  0.050778f,  0.061438f,  0.106137f,  0.088992f,  0.093129f,  0.029478f,  0.067322f,
  0.108246f,  0.071672f,  0.036864f,  0.004754f,  0.005819f,  -0.057995f,  -0.030151f,  -0.017228f,
  -0.046782f,  -0.003811f,  0.010680f,  -0.014385f,  -0.014113f,  -0.025796f,  -0.009144f,  0.020027f,
  -0.024473f,  0.030618f,  0.008218f,  0.028316f,  0.009906f,  0.016484f,  0.019986f,  -0.016834f,
  -0.029093f,  -0.016855f,  -0.006696f,  -0.006163f,  0.031821f,  -0.014108f,  0.001320f,  0.020217f,
  0.049552f,  0.001810f,  -0.011450f,  0.025180f,  0.033624f,  0.006549f,  -0.016925f,  -0.018293f,
  0.027829f,  0.011474f,  0.012885f,  0.002780f,  -0.001144f,  -0.033365f,  -0.010145f,  0.037418f,
  0.033647f,  -0.025752f,  -0.015069f,  0.007172f,  0.022807f,  -0.031303f,  0.017038f,  0.009010f,
  -0.000756f,  -0.029809f,  -0.001392f,  0.026935f,  0.041630f,  -0.009063f,  0.015402f,  0.014779f,
  0.005778f,  0.008736f,  0.028752f,  -0.028555f,  0.014807f,  0.031095f,  0.027414f,  0.018120f,
  0.012263f,  -0.039332f,  -0.007972f,  -0.040691f,  -0.022439f,  -0.002370f,  -0.001476f,  -0.007379f,
  -0.025308f,  -0.016146f,  -0.016126f,  -0.025875f,  -0.029178f,  -0.017153f,  -0.044818f,  -0.036308f,
  -0.011593f,  -0.019860f,  -0.025177f,  -0.017858f,  -0.025222f,  -0.002584f,  0.009246f,  0.010871f,
  -0.018994f,  -0.032810f,  -0.010215f,  -0.012316f,  0.011415f,  -0.024899f,  0.015779f,  -0.018768f,
  -0.029947f,  -0.006660f,  -0.005158f,  -0.027456f,  -0.023987f,  0.017943f,  0.019878f,  -0.017639f,
  0.019414f,  -0.011084f,  0.028277f,  -0.005133f,  -0.045727f,  -0.026200f,  -0.011500f,  0.024438f,
  -0.041975f,  0.010154f,  0.016665f,  -0.000788f,  -0.027870f,  -0.030572f,  -0.042478f,  -0.007277f,
  0.001522f,  -0.042005f,  0.005612f,  0.009252f,  -0.005149f,  0.012485f,  -0.013838f,  0.013792f,
  -0.039948f,  0.008850f,  0.006512f,  -0.048257f,  -0.053210f,  -0.010363f,  -0.005298f,  0.016318f,
  0.027599f,  -0.009314f,  -0.011246f,  -0.028317f,  -0.036313f,  -0.013180f,  -0.036576f,  0.013701f,
  0.012767f,  -0.023379f,  0.016021f,  -0.017439f,  -0.043723f,  -0.002904f,  -0.013270f,  0.024883f,
  -0.005913f,  -0.033240f,  0.003458f,  -0.036795f,  -0.040376f,  -0.028082f,  -0.018577f,  -0.010046f,
  -0.058520f,  -0.040307f,  -0.023524f,  -0.058578f,  -0.029415f,  0.024396f,  0.063809f,  0.031976f,
  0.038162f,  0.017169f,  0.040009f,  -0.024354f,  0.016146f,  -0.004283f,  -0.013857f,  -0.009326f,
  0.022651f,  -0.034106f,  -0.007236f,  0.011629f,  0.022514f,  -0.043713f,  -0.027831f,  -0.045631f,
  -0.032688f,  -0.089296f,  -0.056523f,  -0.033381f,  -0.073050f,  -0.079515f,  -0.051838f,  0.005418f,
  -0.032910f,  -0.011214f,  0.029784f,  0.001032f,  0.036057f,  0.059839f,  0.039013f,  0.021173f,
  -0.006947f,  -0.011923f,  -0.016006f,  0.011098f,  -0.007108f,  -0.029384f,  -0.008176f,  -0.028037f,
  -0.007560f,  -0.044727f,  -0.019553f,  0.001290f,  -0.049419f,  -0.037355f,  -0.032655f,  -0.032148f,
  -0.039947f,  0.023458f,  -0.016255f,  -0.062846f,  0.013023f,  -0.030341f,  -0.073504f,  -0.065852f,
  -0.024236f,  -0.027572f,  -0.019652f,  0.013100f,  -0.001094f,  -0.020394f,  -0.001033f,  -0.007248f,
  -0.033686f,  -0.010404f,  -0.036758f,  0.020708f,  -0.047301f,  -0.019433f,  -0.086578f,  -0.038705f,
  -0.057535f,  -0.007148f,  0.017423f,  0.004261f,  0.049031f,  0.038997f,  0.073970f,  0.048431f,
  0.011776f,  0.049730f,  0.000394f,  -0.031581f,  -0.020468f,  0.026162f,  0.008440f,  -0.012131f,
  -0.021540f,  0.001678f,  -0.027936f,  -0.014177f,  -0.016027f,  -0.021077f,  -0.030996f,  -0.018326f,
  -0.004542f,  -0.088974f,  -0.022021f,  -0.025057f,  -0.056335f,  0.016753f,  0.001536f,  0.067704f,
  0.094738f,  0.114519f,  0.093962f,  0.015406f,  -0.002187f,  -0.024692f,  -0.052592f,  -0.063709f,
  -0.008794f,  -0.076533f,  -0.036067f,  -0.081198f,  -0.025108f,  -0.025306f,  -0.006681f,  -0.007165f,
  -0.009477f,  0.011317f,  0.009940f,  0.012304f,  -0.058312f,  -0.057127f,  -0.039754f,  0.012911f,
  0.043232f,  0.043503f,  0.017804f,  0.046729f,  0.063250f,  0.025195f,  0.049115f,  -0.034216f,
  -0.047498f,  -0.008648f,  -0.041112f,  -0.076100f,  -0.064531f,  -0.029381f,  -0.053205f,  -0.102178f,
  -0.034718f,  0.028022f,  0.014648f,  -0.010428f,  -0.029847f,  -0.037008f,  -0.037326f,  0.034325f,
  -0.019205f,  -0.067062f,  0.019100f,  0.032705f,  0.028785f,  0.063720f,  0.017363f,  0.041779f,
  0.037645f,  0.022924f,  -0.015270f,  -0.052374f,  -0.011278f,  0.000596f,  0.027941f,  -0.061059f,
  -0.019533f,  -0.070122f,  -0.065195f,  -0.075825f,  -0.031971f,  0.028186f,  -0.028065f,  -0.018641f,
  -0.011866f,  -0.017541f,  0.013882f,  0.018850f,  -0.026801f,  -0.005845f,  0.007065f,  -0.007160f,
  0.004025f,  0.065450f,  0.006924f,  -0.008462f,  -0.041150f,  0.001542f,  -0.011035f,  -0.017467f,
  -0.024121f,  -0.030869f,  0.075473f,  0.078047f,  0.053053f,  0.027456f,  -0.047188f,  -0.016487f,
  0.055808f,  0.024876f,  0.030753f,  -0.037313f,  0.001377f,  -0.018695f,  0.001111f,  0.016923f,
  0.035019f,  -0.015511f,  0.008544f,  -0.007169f,  0.003246f,  0.001548f,  -0.047003f,  -0.037154f,
  -0.008682f,  -0.004078f,  0.001812f,  0.051422f,  0.020891f,  0.101300f,  0.096998f,  0.055117f,
  0.053308f,  0.006899f,  0.077454f,  0.048053f,  -0.000236f,  -0.004093f,  0.005845f,  0.020572f,
  0.020625f,  -0.035377f,  0.021487f,  0.031579f,  0.093050f,  0.037518f,  0.032778f,  0.022756f,
  0.051339f,  -0.010902f,  -0.006498f,  -0.015082f,  -0.089785f,  -0.035549f,  -0.013452f,  0.016537f,
  0.026169f,  0.064771f,  0.081928f,  0.039738f,  0.028018f,  -0.009661f,  0.027212f,  -0.010382f,
  -0.010942f,  0.031688f,  -0.011508f,  0.002943f,  -0.032793f,  0.024871f,  -0.017477f,  0.009356f,
  0.058056f,  -0.001718f,  -0.021499f,  0.027732f,  0.001784f,  -0.017856f,  -0.006388f,  -0.056788f,
  -0.076503f,  -0.012623f,  -0.022665f,  -0.033834f,  0.011237f,  0.023962f,  -0.007938f,  -0.001419f,
  0.054419f,  0.018370f,  -0.025318f,  -0.064560f,  -0.066268f,  -0.051062f,  -0.040476f,  0.001962f,
  0.000599f,  -0.001952f,  -0.024527f,  0.047425f,  -0.019522f,  -0.046469f,  -0.058570f,  -0.023459f,
  -0.036979f,  0.004976f,  -0.041631f,  -0.083163f,  -0.132271f,  -0.039817f,  -0.037409f,  -0.039751f,
  -0.010250f,  -0.014795f,  0.012376f,  0.004665f,  0.054021f,  -0.013906f,  -0.006376f,  -0.061061f,
  -0.075796f,  -0.057345f,  -0.024153f,  -0.025483f,  -0.031054f,  -0.042141f,  0.023659f,  -0.024411f,
  -0.023699f,  -0.068460f,  0.004265f,  -0.031849f,  -0.040308f,  -0.041049f,  0.008892f,  -0.028057f,
  -0.079651f,  -0.082278f,  -0.054401f,  0.023314f,  -0.008623f,  0.001012f,  -0.026498f,  -0.047196f,
  0.022685f,  0.022773f,  -0.085306f,  -0.081837f,  -0.117670f,  -0.064640f,  -0.030896f,  -0.014506f,
  -0.009012f,  -0.037091f,  0.024965f,  -0.042722f,  -0.035456f,  -0.065625f,  -0.027087f,  -0.076960f,
  -0.067893f,  -0.062412f,  0.010456f,  0.009125f,  -0.001615f,  -0.020170f,  -0.085350f,  -0.030321f,
  -0.024384f,  -0.000764f,  0.005770f,  -0.059618f,  -0.012937f,  0.000963f,  -0.037471f,  -0.139055f,
  -0.062270f,  -0.032753f,  -0.020635f,  0.001111f,  -0.026344f,  0.024506f,  0.002780f,  -0.004618f,
  -0.069032f,  -0.067136f,  -0.038139f,  -0.050498f,  -0.016889f,  -0.081796f,  -0.013597f,  -0.020402f,
  -0.039072f,  -0.018859f,  -0.034297f,  -0.011118f,  -0.036769f,  0.024661f,  -0.012741f,  -0.036132f,
  -0.034232f,  -0.073477f,  -0.097748f,  -0.099435f,  -0.097775f,  -0.040592f,  0.001952f,  0.000662f,
  -0.004137f,  0.003657f,  0.003062f,  -0.029857f,  -0.017039f,  -0.026289f,  0.012022f,  0.000959f,
  -0.031607f,  -0.038600f,  -0.000708f,  -0.012508f,  -0.060402f,  -0.007991f,  -0.032162f,  -0.036346f,
  -0.017358f,  0.048039f,  -0.021445f,  0.001512f,  0.002224f,  -0.066016f,  -0.144814f,  -0.165012f,
  -0.100818f,  -0.028279f,  0.000506f,  -0.042724f,  0.017964f,  0.002128f,  0.018657f,  -0.001857f,
  0.014931f,  0.022552f,  -0.041277f,  0.014994f,  0.019620f,  -0.034335f,  0.026941f,  -0.027311f,
  -0.073108f,  -0.084245f,  -0.028930f,  -0.011050f,  -0.020211f,  0.002136f,  0.003989f,  0.068997f,
  -0.039170f,  -0.079078f,  -0.121526f,  -0.109988f,  -0.079453f,  -0.039554f,  -0.036740f,  -0.005697f,
  -0.024043f,  0.004489f,  0.017743f,  0.017201f,  0.025096f,  0.056563f,  0.026929f,  -0.014344f,
  0.013268f,  -0.014164f,  -0.061158f,  -0.086345f,  -0.130512f,  -0.111162f,  -0.096493f,  -0.054083f,
  0.005703f,  0.029775f,  -0.015047f,  0.035552f,  -0.039141f,  -0.105499f,  -0.079032f,  -0.013464f,
  0.009591f,  0.003538f,  -0.028845f,  0.014241f,  -0.042468f,  0.001235f,  -0.041116f,  -0.043940f,
  -0.011338f,  0.030515f,  -0.018014f,  -0.032228f,  -0.009887f,  -0.003217f,  -0.078059f,  -0.100989f,
  -0.103473f,  -0.087406f,  -0.103940f,  -0.045747f,  -0.012873f,  -0.015581f,  -0.016333f,  0.007230f,
  -0.071863f,  -0.059402f,  -0.026278f,  -0.022639f,  -0.007597f,  -0.039823f,  -0.027062f,  -0.037710f,
  0.016779f,  -0.018488f,  0.012778f,  -0.014970f,  0.015258f,  -0.049364f,  -0.086336f,  -0.073795f,
  -0.055026f,  -0.061907f,  -0.054771f,  -0.036902f,  -0.076326f,  -0.116925f,  -0.063939f,  -0.071064f,
  -0.029188f,  0.005088f,  -0.026679f,  -0.049798f,  -0.002824f,  -0.066349f,  -0.051616f,  -0.016030f,
  -0.001906f,  -0.037641f,  -0.005958f,  -0.019725f,  0.017491f,  -0.018272f,  -0.030770f,  -0.014668f,
  0.008223f,  0.010460f,  -0.007279f,  0.025161f,  -0.072212f,  -0.041258f,  -0.035411f,  -0.061137f,
  -0.094047f,  -0.116331f,  -0.011944f,  -0.014667f,  -0.045783f,  -0.030154f,  -0.017662f,  0.000991f,
  -0.014182f,  -0.030175f,  0.042958f,  0.050438f,  0.005422f,  -0.032869f,  -0.008865f,  -0.035269f,
  0.008903f,  -0.020932f,  -0.039174f,  0.031014f,  0.004447f,  0.071911f,  0.046111f,  0.066772f,
  -0.007606f,  -0.047945f,  0.005203f,  0.013479f,  -0.107412f,  -0.097827f,  -0.057331f,  0.016892f,
  -0.027566f,  -0.001922f,  0.029173f,  -0.017406f,  0.020768f,  -0.006045f,  0.032903f,  0.055164f,
  0.032278f,  -0.021748f,  0.019553f,  -0.005027f,  -0.017774f,  -0.038981f,  0.002292f,  -0.002331f,
  0.037494f,  0.057428f,  0.054466f,  0.078545f,  0.100965f,  0.096209f,  0.028796f,  0.081520f,
  0.021055f,  0.079890f,  0.065584f,  0.027248f,  0.052844f,  0.051888f,  0.127315f,  0.102587f,
  0.127790f,  0.053718f,  0.040473f,  -0.005661f,  0.027450f,  -0.001192f,  -0.006632f,  -0.043414f,
  0.021872f,  0.018946f,  0.011489f,  0.018687f,  0.028900f,  0.021279f,  0.035481f,  -0.004041f,
  0.073959f,  0.068638f,  0.098280f,  0.065939f,  0.106420f,  0.114663f,  0.160414f,  0.130036f,
  0.158944f,  0.151839f,  0.100864f,  0.099584f,  0.037788f,  0.082435f,  0.048869f,  -0.023357f,
  -0.022566f,  -0.006046f,  -0.037002f,  0.018471f,  -0.009215f,  0.007133f,  0.025372f,  -0.040542f,
  -0.034041f,  0.021317f,  -0.009127f,  -0.018092f,  -0.014655f,  0.014315f,  0.011611f,  -0.029096f,
  0.007668f,  0.028870f,  0.001100f,  0.022843f,  -0.005615f,  0.010718f,  0.036831f,  0.031437f,
  0.019262f,  -0.032018f,  0.008570f,  -0.002797f,  -0.034240f,  0.016273f,  -0.021119f,  0.015659f,
  0.057551f,  0.029516f,  0.023928f,  0.027783f,  0.027879f,  0.003588f,  -0.006443f,  -0.007269f,
  0.018209f,  0.042811f,  0.036383f,  0.037178f,  0.006649f,  0.057419f,  0.011124f,  0.038704f,
  0.017230f,  -0.003430f,  0.054962f,  0.022570f,  0.054570f,  0.016482f,  0.002060f,  0.011939f,
  -0.006141f,  0.056684f,  0.029916f,  0.030931f,  0.022325f,  -0.005841f,  0.032281f,  0.034034f,
  0.027514f,  -0.008035f,  0.020417f,  -0.001207f,  -0.003587f,  -0.010416f,  0.019467f,  0.013747f,
  0.021854f,  0.028687f,  0.011511f,  0.045674f,  -0.016623f,  0.029417f,  -0.004048f,  0.003544f,
  0.035485f,  0.001322f,  0.042576f,  0.008508f,  -0.003518f,  -0.006680f,  0.049554f,  0.010244f,
  0.011657f,  0.060100f,  0.055064f,  0.010633f,  0.030195f,  0.011676f,  0.036968f,  0.058629f,
  -0.006879f,  0.048926f,  0.007033f,  0.023740f,  0.007599f,  0.036840f,  -0.000191f,  0.007591f,
  0.038857f,  0.034994f,  0.002148f,  0.026027f,  0.034261f,  -0.009499f,  0.012976f,  0.021488f,
  -0.003122f,  0.056469f,  -0.010839f,  0.047755f,  0.027503f,  0.046689f,  0.001036f,  0.001706f,
  0.028384f,  0.003318f,  0.051726f,  0.001591f,  -0.025026f,  0.012245f,  0.012158f,  0.025562f,
  -0.021406f,  -0.040233f,  -0.116901f,  -0.108500f,  -0.056823f,  -0.015644f,  0.018306f,  -0.023063f,
  -0.089413f,  0.018962f,  -0.008085f,  0.014027f,  0.012408f,  0.044081f,  0.023667f,  0.035875f,
  0.039314f,  0.007033f,  0.000522f,  0.001892f,  0.052867f,  0.031938f,  0.044091f,  0.039006f,
  0.002851f,  -0.043223f,  -0.014171f,  -0.006207f,  -0.053129f,  -0.066565f,  -0.090763f,  -0.114911f,
  -0.077790f,  -0.038526f,  -0.027930f,  -0.022561f,  -0.036985f,  0.044116f,  0.017713f,  -0.037748f,
  -0.051777f,  -0.043204f,  0.041405f,  0.000129f,  0.030346f,  0.017687f,  0.030813f,  0.031939f,
  -0.018196f,  -0.008808f,  0.055892f,  0.018774f,  0.031739f,  -0.031409f,  -0.031835f,  -0.008661f,
  -0.049964f,  -0.078007f,  -0.048460f,  -0.030155f,  -0.037342f,  -0.068096f,  -0.035779f,  -0.036757f,
  -0.036690f,  0.004888f,  0.036038f,  -0.038760f,  -0.029278f,  -0.019033f,  -0.022702f,  0.018027f,
  0.028773f,  0.055982f,  -0.012387f,  0.016009f,  0.028601f,  0.047341f,  -0.022333f,  -0.021748f,
  -0.066488f,  -0.036848f,  -0.115788f,  -0.050463f,  0.018258f,  0.035470f,  0.027739f,  0.031065f,
  -0.005073f,  0.054699f,  0.043468f,  -0.001915f,  0.003027f,  0.078020f,  0.008469f,  -0.042648f,
  -0.069704f,  -0.024340f,  -0.031011f,  0.041063f,  0.034107f,  0.051093f,  0.026123f,  -0.005221f,
  -0.036756f,  -0.037793f,  -0.052109f,  -0.080256f,  -0.085686f,  -0.096192f,  -0.012341f,  0.033842f,
  0.028536f,  0.034473f,  0.010338f,  -0.032351f,  0.039555f,  0.011589f,  0.001848f,  0.023396f,
  0.016615f,  0.038622f,  0.063597f,  0.038474f,  -0.078414f,  -0.049001f,  0.015930f,  0.041630f,
  0.013794f,  0.003732f,  -0.014567f,  -0.001290f,  -0.004501f,  -0.057207f,  -0.056812f,  -0.029111f,
  -0.065606f,  0.004710f,  0.011625f,  -0.010841f,  0.030641f,  0.005295f,  0.022335f,  -0.002337f,
  -0.019290f,  -0.060006f,  0.003670f,  -0.013680f,  -0.043132f,  -0.038772f,  0.039206f,  0.016675f,
  -0.040380f,  0.025870f,  0.032030f,  0.031713f,  0.008840f,  0.045857f,  0.007652f,  -0.009278f,
  -0.006182f,  -0.088534f,  -0.080794f,  -0.128095f,  -0.024685f,  -0.055020f,  0.017350f,  0.007061f,
  0.074185f,  -0.002043f,  0.062246f,  0.032092f,  -0.048747f,  -0.096705f,  -0.000955f,  -0.021643f,
  -0.077742f,  -0.025002f,  0.018045f,  0.009843f,  -0.016177f,  -0.020202f,  0.029197f,  0.017025f,
  0.057526f,  0.040496f,  0.017101f,  0.029417f,  -0.087300f,  -0.131033f,  -0.145995f,  -0.148485f,
  -0.063797f,  -0.006322f,  -0.030494f,  0.022257f,  0.046162f,  0.025571f,  0.087252f,  0.065194f,
  0.045399f,  -0.051396f,  -0.024019f,  0.009943f,  -0.017042f,  -0.018402f,  -0.015560f,  -0.032981f,
  -0.032195f,  0.015366f,  -0.013545f,  0.029336f,  0.019340f,  0.010478f,  0.040584f,  0.021407f,
  -0.016484f,  -0.102617f,  -0.129383f,  -0.035397f,  0.027079f,  0.055175f,  0.077383f,  0.091685f,
  0.077265f,  0.019895f,  0.033370f,  0.111183f,  0.127748f,  0.071275f,  0.004457f,  -0.053674f,
  -0.074604f,  -0.012548f,  0.015484f,  -0.035820f,  -0.015459f,  -0.009563f,  -0.020686f,  -0.003829f,
  -0.001529f,  -0.004385f,  0.028559f,  0.047755f,  -0.006412f,  -0.079564f,  -0.024216f,  -0.042983f,
  0.004365f,  0.016815f,  0.065843f,  0.078830f,  0.042816f,  0.034669f,  0.067905f,  0.131539f,
  0.182035f,  0.081300f,  0.086721f,  -0.021443f,  -0.094422f,  -0.043100f,  -0.088446f,  -0.025972f,
  -0.043849f,  0.031125f,  0.035989f,  0.004012f,  0.029061f,  -0.009843f,  0.005002f,  -0.005511f,
  0.022419f,  -0.033827f,  -0.092985f,  -0.014595f,  -0.029939f,  0.022339f,  0.064970f,  0.015904f,
  -0.019381f,  -0.013200f,  0.088364f,  0.177454f,  0.141498f,  0.095589f,  0.014451f,  -0.097367f,
  -0.051219f,  -0.014077f,  0.006702f,  0.020664f,  -0.020783f,  0.054967f,  0.035983f,  0.020637f,
  -0.002139f,  0.003240f,  0.004999f,  -0.001811f,  0.027131f,  -0.001503f,  -0.106771f,  -0.014459f,
  0.012531f,  0.021483f,  0.010038f,  -0.054717f,  -0.035473f,  0.019571f,  0.100102f,  0.148564f,
  0.145455f,  0.097255f,  -0.048341f,  -0.125453f,  -0.070602f,  -0.009436f,  -0.007151f,  0.069261f,
  0.017371f,  0.029919f,  0.013965f,  0.001807f,  0.058456f,  0.009170f,  0.016048f,  0.002912f,
  0.064822f,  -0.048624f,  -0.069066f,  -0.031936f,  -0.003473f,  -0.018228f,  -0.025860f,  0.005464f,
  -0.016491f,  -0.014613f,  0.085526f,  0.157065f,  0.153892f,  0.070484f,  -0.140836f,  -0.193230f,
  -0.053274f,  0.028778f,  0.044620f,  0.040869f,  -0.019082f,  -0.020699f,  0.023373f,  0.056727f,
  0.037231f,  0.052208f,  0.011280f,  0.013866f,  0.048517f,  -0.027662f,  -0.016678f,  -0.030548f,
  0.042915f,  0.003733f,  -0.048495f,  -0.013378f,  -0.027125f,  0.047449f,  0.077244f,  0.111833f,
  0.133322f,  -0.054228f,  -0.216898f,  -0.206456f,  0.051086f,  0.058466f,  0.070442f,  0.101380f,
  -0.042794f,  0.014620f,  -0.014637f,  0.039851f,  0.011509f,  0.052769f,  0.048423f,  -0.018256f,
  0.019459f,  -0.078162f,  -0.041211f,  -0.035209f,  0.033188f,  0.010618f,  0.006169f,  -0.052683f,
  0.093079f,  0.032450f,  0.095254f,  0.084193f,  -0.060378f,  -0.204800f,  -0.204481f,  -0.116723f,
  0.049651f,  0.061256f,  0.097193f,  0.041576f,  0.036577f,  0.014572f,  0.026447f,  0.041233f,
  0.030624f,  0.029855f,  0.049163f,  -0.023573f,  -0.020593f,  -0.074126f,  -0.075422f,  -0.015866f,
  0.036142f,  0.001458f,  -0.032885f,  0.021842f,  0.024421f,  0.088718f,  0.048000f,  -0.063567f,
  -0.171293f,  -0.178163f,  -0.202144f,  -0.053414f,  0.045569f,  0.058976f,  0.050837f,  -0.017610f,
  -0.005712f,  0.038674f,  0.038894f,  0.017626f,  -0.004772f,  0.019817f,  0.048659f,  -0.015256f,
  -0.037763f,  -0.083502f,  -0.096312f,  -0.114797f,  -0.039950f,  -0.004591f,  0.014439f,  -0.015742f,
  0.023820f,  0.058853f,  -0.035567f,  -0.066276f,  -0.143366f,  -0.183116f,  -0.166200f,  -0.150027f,
  -0.033674f,  -0.017541f,  -0.060960f,  -0.019831f,  0.028638f,  0.047818f,  0.024460f,  0.013224f,
  0.024754f,  0.050778f,  0.004639f,  -0.022035f,  -0.021257f,  -0.090137f,  -0.064335f,  -0.067857f,
  -0.000790f,  0.010060f,  0.050699f,  -0.024349f,  0.015521f,  -0.039256f,  -0.025505f,  -0.047167f,
  -0.065189f,  -0.120435f,  -0.125345f,  -0.098877f,  -0.071749f,  -0.024410f,  -0.044368f,  -0.028364f,
  -0.016513f,  0.023773f,  0.027212f,  0.027313f,  0.054037f,  0.051695f,  -0.010527f,  -0.036817f,
  -0.039712f,  0.011967f,  -0.079756f,  -0.078832f,  -0.030228f,  0.048348f,  0.001469f,  -0.055285f,
  -0.077665f,  -0.083588f,  -0.063628f,  -0.017555f,  -0.027947f,  -0.094877f,  -0.129398f,  -0.081425f,
  -0.033537f,  0.001071f,  -0.071269f,  -0.016037f,  0.033849f,  0.033104f,  0.048886f,  0.006360f,
  0.034354f,  0.055393f,  -0.015067f,  0.002537f,  -0.002412f,  0.007565f,  0.005026f,  -0.033975f,
  0.001560f,  -0.032453f,  -0.008726f,  -0.091022f,  -0.080626f,  -0.059298f,  -0.030406f,  -0.042859f,
  -0.000377f,  -0.046104f,  -0.033738f,  -0.092939f,  -0.089754f,  -0.033606f,  -0.007692f,  -0.047859f,
  0.012120f,  0.048685f,  0.022018f,  0.024787f,  0.047937f,  0.034587f,  -0.005154f,  -0.035068f,
  -0.075175f,  -0.035544f,  -0.006689f,  -0.010838f,  -0.004712f,  -0.014311f,  0.046699f,  -0.028690f,
  0.012481f,  0.027308f,  0.005091f,  0.008132f,  -0.004645f,  0.028014f,  -0.025775f,  -0.066273f,
  -0.095061f,  -0.035197f,  -0.037047f,  0.031235f,  0.046974f,  0.040300f,  0.000670f,  0.050992f,
  0.019612f,  0.010981f,  -0.009422f,  0.023793f,  0.024128f,  0.007791f,  0.018375f,  0.044131f,
  -0.009890f,  -0.021147f,  -0.039880f,  -0.074479f,  -0.057140f,  -0.061635f,  -0.049594f,  -0.081385f,
  -0.088877f,  -0.023332f,  -0.016665f,  -0.052147f,  -0.048045f,  0.020954f,  0.057136f,  0.005581f,
  0.057221f,  0.059708f,  0.013995f,  0.014102f,  0.005027f,  0.059795f,  0.040594f,  0.049711f,
  0.009619f,  0.024663f,  0.044831f,  0.063861f,  -0.004100f,  -0.053093f,  -0.046093f,  -0.057843f,
  -0.084110f,  -0.098016f,  0.034880f,  -0.009345f,  0.027871f,  -0.057527f,  -0.042821f,  -0.084828f,
  -0.037055f,  -0.008937f,  -0.018021f,  0.051302f,  0.043649f,  0.011426f,  0.026183f,  0.056468f,
  -0.008009f,  -0.010144f,  0.032462f,  0.019551f,  0.056276f,  0.045356f,  0.053270f,  0.084411f,
  0.061425f,  0.067068f,  0.038077f,  0.002162f,  -0.006430f,  -0.010754f,  0.074779f,  0.033114f,
  0.062299f,  0.031374f,  0.027810f,  0.039049f,  0.017194f,  -0.022034f,  -0.010717f,  0.048987f,
  -0.009969f,  0.036939f,  0.007934f,  0.036850f,  0.031940f,  0.037510f,  0.049119f,  0.044289f,
  -0.003116f,  0.036804f,  0.038389f,  0.056426f,  0.026494f,  0.011479f,  0.014734f,  0.042398f,
  0.058540f,  0.006265f,  0.062537f,  0.035622f,  0.032585f,  0.051356f,  0.045372f,  0.048006f,
  0.048619f,  0.049888f,  0.052449f,  -0.006513f,  0.030914f,  0.024125f,  0.047342f,  0.016915f,
  -0.029970f,  0.007200f,  0.000072f,  -0.006709f,  -0.017909f,  -0.009702f,  -0.035732f,  -0.024669f,
  0.011098f,  0.014110f,  0.025723f,  0.010891f,  0.021719f,  0.016803f,  -0.027258f,  -0.023695f,
  0.001749f,  -0.040128f,  0.008516f,  0.023621f,  0.023195f,  -0.031828f,  0.003238f,  0.019177f,
  0.026721f,  0.024825f,  -0.006332f,  -0.019450f,  0.022400f,  -0.020688f,  -0.040953f,  0.016118f,
  -0.022858f,  0.005929f,  -0.033795f,  0.012294f,  -0.029246f,  -0.025202f,  -0.008489f,  -0.008292f,
  -0.009480f,  -0.027195f,  0.008831f,  0.024165f,  0.005756f,  0.025326f,  0.035103f,  0.006376f,
  0.030282f,  -0.002212f,  0.023601f,  0.026824f,  -0.009815f,  -0.035235f,  -0.011644f,  -0.041125f,
  0.013355f,  -0.004654f,  -0.025616f,  -0.007683f,  -0.035864f,  -0.014407f,  -0.037622f,  -0.011404f,
  -0.020450f,  -0.014561f,  -0.022794f,  -0.024407f,  -0.031293f,  0.051788f,  0.034756f,  0.057425f,
  0.006235f,  0.029998f,  0.075136f,  0.024995f,  0.023230f,  0.008178f,  -0.004525f,  0.020750f,
  -0.010895f,  0.018023f,  -0.041896f,  -0.021475f,  0.016277f,  0.001817f,  -0.035496f,  0.016759f,
  0.009716f,  0.013888f,  0.017406f,  0.005912f,  -0.007437f,  0.033092f,  0.026486f,  -0.046950f,
  -0.032775f,  -0.050612f,  -0.088474f,  -0.039469f,  0.019969f,  0.022942f,  0.047030f,  0.081304f,
  -0.006349f,  0.088103f,  0.076272f,  0.006918f,  0.014365f,  -0.017408f,  0.016006f,  -0.042879f,
  0.004826f,  -0.034590f,  -0.029070f,  -0.014234f,  -0.045847f,  -0.032040f,  -0.014435f,  -0.041170f,
  -0.067244f,  -0.017171f,  0.001931f,  -0.056845f,  -0.047534f,  -0.061649f,  -0.056036f,  -0.041720f,
  0.042707f,  0.038848f,  0.032376f,  0.084350f,  0.045947f,  0.056610f,  0.010943f,  0.056525f,
  -0.010808f,  0.011062f,  -0.009942f,  -0.007050f,  0.016661f,  -0.005570f,  -0.030820f,  -0.043247f,
  -0.025943f,  -0.051586f,  0.006300f,  0.013877f,  0.044331f,  -0.028220f,  0.002294f,  -0.063487f,
  -0.022311f,  -0.073368f,  -0.052484f,  -0.027491f,  -0.021055f,  -0.020395f,  -0.017536f,  -0.023881f,
  0.022958f,  0.033419f,  0.021602f,  0.030101f,  -0.021783f,  -0.029492f,  -0.010756f,  -0.032152f,
  -0.042128f,  -0.042505f,  0.010506f,  -0.009047f,  -0.054433f,  -0.031106f,  -0.046907f,  -0.060707f,
  -0.021965f,  -0.004237f,  -0.058915f,  -0.034785f,  -0.027256f,  -0.070712f,  -0.045540f,  -0.098692f,
  -0.072520f,  -0.068269f,  -0.028049f,  -0.035371f,  0.009494f,  -0.049893f,  -0.004524f,  0.050817f,
  0.036900f,  0.024002f,  -0.024702f,  -0.000764f,  -0.039293f,  0.021711f,  -0.020144f,  -0.050002f,
  -0.078806f,  -0.070185f,  -0.044922f,  0.004378f,  0.026071f,  0.050442f,  0.023050f,  -0.028665f,
  -0.083619f,  -0.072885f,  -0.107503f,  -0.104898f,  -0.059460f,  -0.044217f,  -0.005619f,  -0.013077f,
  -0.026461f,  -0.036121f,  -0.043805f,  0.042807f,  0.080241f,  0.074125f,  -0.002738f,  -0.021844f,
  0.001434f,  0.029569f,  -0.005831f,  -0.008312f,  -0.021663f,  -0.014891f,  -0.001538f,  0.014383f,
  0.037990f,  0.085024f,  0.016377f,  0.019672f,  -0.048922f,  -0.031309f,  -0.067145f,  -0.120196f,
  -0.140914f,  -0.057865f,  -0.019756f,  -0.025784f,  -0.046014f,  -0.065086f,  -0.021663f,  0.029745f,
  0.047480f,  0.065010f,  -0.017073f,  -0.005768f,  0.004404f,  -0.018639f,  0.008025f,  0.012691f,
  -0.040209f,  -0.039028f,  -0.027214f,  0.019086f,  0.110667f,  0.036465f,  0.009001f,  -0.030015f,
  -0.059925f,  -0.066952f,  -0.096913f,  -0.089818f,  -0.109945f,  -0.083215f,  -0.082556f,  -0.079337f,
  -0.073538f,  -0.045393f,  -0.049423f,  0.029973f,  0.072587f,  0.047362f,  -0.030448f,  -0.043338f,
  0.008278f,  -0.014467f,  0.028091f,  -0.032470f,  -0.026737f,  -0.014277f,  -0.027468f,  0.058740f,
  0.054062f,  0.046027f,  0.041601f,  0.005115f,  -0.001182f,  -0.042578f,  -0.053945f,  -0.065491f,
  -0.092711f,  -0.099783f,  -0.070487f,  -0.057440f,  -0.039005f,  -0.011787f,  -0.027865f,  0.023942f,
  0.108433f,  0.017573f,  0.023499f,  -0.036476f,  0.006281f,  0.010336f,  -0.019692f,  -0.033712f,
  0.000602f,  -0.060107f,  0.016068f,  0.014093f,  0.030004f,  0.053212f,  0.059577f,  0.006727f,
  0.013469f,  0.062406f,  0.059070f,  -0.013612f,  0.031641f,  -0.034477f,  -0.070932f,  -0.060883f,
  -0.031619f,  0.029423f,  -0.031891f,  0.025202f,  0.028225f,  0.031328f,  0.016386f,  0.018350f,
  -0.004636f,  0.007955f,  0.035360f,  -0.043760f,  -0.056505f,  -0.018411f,  -0.029212f,  0.035420f,
  0.059154f,  0.046925f,  0.006402f,  0.062154f,  0.019201f,  0.012161f,  -0.074055f,  -0.009838f,
  -0.022549f,  -0.043426f,  -0.063585f,  -0.060960f,  -0.004015f,  0.071863f,  0.013420f,  -0.030279f,
  0.012065f,  -0.002393f,  -0.018778f,  -0.024169f,  0.025044f,  0.016446f,  0.027329f,  -0.045742f,
  -0.024122f,  0.011439f,  0.006108f,  0.054910f,  0.026348f,  0.027683f,  0.033409f,  0.030596f,
  0.017487f,  -0.102334f,  -0.036576f,  -0.018123f,  -0.021300f,  -0.050430f,  -0.021543f,  -0.014829f,
  0.109399f,  0.082847f,  0.110393f,  0.056491f,  -0.024524f,  -0.025948f,  0.006802f,  -0.036738f,
  0.014849f,  0.012857f,  -0.025776f,  -0.003622f,  0.020018f,  0.016396f,  0.018811f,  0.023272f,
  0.026410f,  0.000175f,  0.018614f,  -0.001923f,  -0.054541f,  -0.032047f,  0.006633f,  -0.049516f,
  -0.036508f,  -0.023192f,  0.008829f,  -0.005089f,  0.056365f,  0.096094f,  0.105111f,  0.011245f,
  -0.076737f,  0.005255f,  -0.042017f,  -0.021476f,  -0.039327f,  0.025098f,  -0.034739f,  0.048409f,
  -0.025574f,  -0.026974f,  0.012609f,  -0.016685f,  0.071569f,  0.064409f,  0.067463f,  0.007508f,
  -0.044731f,  -0.045771f,  -0.005762f,  0.011253f,  -0.036895f,  -0.003807f,  -0.007679f,  0.024624f,
  0.031026f,  0.035603f,  0.077169f,  0.011729f,  -0.091952f,  -0.018382f,  -0.013861f,  -0.039760f,
  -0.028293f,  -0.032634f,  -0.036303f,  0.033943f,  -0.046289f,  -0.012314f,  -0.033303f,  -0.022459f,
  0.049182f,  -0.022485f,  -0.035522f,  -0.020669f,  -0.070081f,  -0.013463f,  0.069432f,  0.070100f,
  0.048834f,  0.028710f,  0.011748f,  0.009177f,  -0.037095f,  0.006637f,  -0.039344f,  -0.044668f,
  -0.068687f,  -0.010406f,  -0.022145f,  0.020741f,  -0.028253f,  0.009770f,  -0.006435f,  -0.035750f,
  -0.052469f,  -0.024514f,  0.011735f,  -0.025461f,  0.037145f,  -0.044062f,  -0.059629f,  -0.064022f,
  -0.077805f,  0.018231f,  0.085327f,  0.075199f,  0.017195f,  0.057446f,  0.031669f,  -0.012515f,
  -0.025200f,  -0.027063f,  -0.076742f,  -0.060400f,  0.007370f,  -0.053822f,  -0.037989f,  -0.037134f,
  0.008617f,  -0.003880f,  0.018524f,  -0.040672f,  -0.016076f,  -0.039136f,  -0.008955f,  -0.072442f,
  -0.005468f,  -0.007176f,  -0.073264f,  -0.134007f,  -0.059346f,  0.053108f,  0.086836f,  0.066477f,
  0.038198f,  0.031209f,  0.007861f,  -0.026426f,  -0.076951f,  -0.060248f,  -0.156936f,  -0.118335f,
  -0.011048f,  -0.030627f,  0.012643f,  -0.003704f,  -0.039652f,  -0.035626f,  -0.021323f,  -0.029461f,
  -0.070720f,  -0.061664f,  -0.042225f,  -0.073843f,  -0.030894f,  -0.002040f,  -0.048883f,  -0.037974f,
  0.020106f,  0.035973f,  0.075125f,  0.056169f,  -0.005616f,  -0.021359f,  -0.024386f,  -0.091608f,
  -0.084628f,  -0.124084f,  -0.143353f,  -0.029460f,  0.007106f,  0.009822f,  -0.025804f,  0.018463f,
  -0.022576f,  -0.008148f,  -0.034015f,  -0.004182f,  -0.069814f,  -0.051874f,  -0.055582f,  -0.037819f,
  0.015227f,  -0.000878f,  0.018126f,  0.057202f,  0.034410f,  0.047602f,  0.037185f,  0.062341f,
  0.003277f,  -0.010381f,  0.023859f,  -0.018645f,  -0.038521f,  -0.048942f,  -0.096521f,  -0.054156f,
  -0.003686f,  -0.009172f,  0.012592f,  -0.036644f,  0.025218f,  -0.006639f,  -0.041131f,  -0.012566f,
  -0.013466f,  -0.088955f,  -0.063874f,  -0.021771f,  -0.025738f,  0.007569f,  -0.007729f,  0.044203f,
  0.047709f,  0.107080f,  0.083203f,  0.042406f,  0.020526f,  0.030267f,  -0.002044f,  0.027145f,
  0.020290f,  0.002935f,  -0.009672f,  -0.012584f,  0.015117f,  -0.009973f,  0.003217f,  0.023032f,
  -0.028306f,  -0.016012f,  -0.041537f,  -0.060582f,  -0.005804f,  -0.043757f,  -0.073769f,  -0.036805f,
  0.011608f,  -0.008641f,  -0.006050f,  -0.019374f,  0.038986f,  0.055303f,  0.032944f,  -0.003225f,
  0.016809f,  -0.008862f,  0.000211f,  0.018026f,  0.006631f,  0.015240f,  -0.009116f,  -0.019253f,
  -0.015153f,  -0.004405f,  0.006978f,  -0.002586f,  0.002585f,  -0.013577f,  -0.038666f,  0.002597f,
  -0.052456f,  -0.051450f,  -0.045217f,  -0.083988f,  -0.051166f,  -0.064123f,  -0.074132f,  -0.054455f,
  -0.041481f,  -0.020924f,  0.019230f,  -0.001347f,  0.012385f,  0.008064f,  0.016401f,  0.052025f,
  0.023607f,  0.001918f,  0.012119f,  -0.056200f,  -0.054944f,  -0.014703f,  -0.037681f,  0.022967f,
  -0.013730f,  -0.031325f,  -0.033405f,  -0.037890f,  -0.005964f,  -0.042856f,  -0.047909f,  -0.062103f,
  -0.040162f,  -0.045258f,  -0.067051f,  -0.048917f,  -0.048008f,  0.005028f,  -0.042194f,  -0.020705f,
  -0.031316f,  -0.005660f,  0.025445f,  0.034075f,  0.015015f,  -0.024755f,  -0.016599f,  -0.029821f,
  -0.009927f,  -0.015447f,  0.012713f,  -0.013235f,  0.015664f,  -0.015174f,  -0.011229f,  0.004068f,
  -0.016737f,  -0.058082f,  -0.030853f,  -0.029569f,  -0.083366f,  -0.081172f,  -0.064672f,  -0.051596f,
  0.024530f,  -0.040459f,  -0.025464f,  0.010165f,  -0.014285f,  0.043208f,  0.035519f,  -0.015685f,
  -0.029371f,  0.012834f,  0.020294f,  -0.013212f,  0.010673f,  0.023815f,  0.003037f,  -0.010650f,
  -0.023334f,  0.022610f,  0.017460f,  0.002326f,  -0.019890f,  -0.048499f,  -0.066819f,  0.005318f,
  -0.047172f,  -0.016554f,  -0.032893f,  -0.041273f,  -0.051221f,  -0.045567f,  -0.079717f,  -0.075133f,
  -0.097793f,  -0.027313f,  -0.026718f,  -0.062854f,  -0.065872f,  -0.041401f,  0.010124f,  0.004381f,
  -0.029710f,  -0.021018f,  -0.040500f,  0.026204f,  0.024743f,  0.015324f,  -0.008534f,  0.021837f,
  -0.027662f,  0.018484f,  -0.015007f,  -0.036100f,  0.019340f,  0.006493f,  -0.036612f,  -0.012064f,
  0.000575f,  -0.007092f,  -0.006923f,  0.022068f,  -0.025675f,  0.012403f,  -0.016041f,  0.021194f,
  -0.034862f,  -0.014451f,  -0.037227f,  0.013669f,  -0.031562f,  0.019567f,  -0.022793f,  0.004640f,
  -0.022674f,  -0.007359f,  0.034390f,  0.006097f,  0.018716f,  -0.010247f,  0.022143f,  -0.021320f,
  0.000927f,  0.029014f,  -0.005296f,  -0.020710f,  0.033642f,  -0.010534f,  -0.013979f,  0.022542f,
  -0.002008f,  -0.000270f,  0.014062f,  0.025054f,  -0.004305f,  0.022646f,  0.031157f,  0.024542f,
  0.031947f,  -0.000789f,  -0.030531f,  0.024037f,  0.017516f,  -0.029502f,  -0.017923f,  0.010028f,
  -0.022825f,  0.004136f,  0.037895f,  0.009208f,  0.032476f,  -0.011639f,  -0.001215f,  0.001066f,
  0.014116f,  -0.005044f,  0.011074f,  -0.031758f,  0.016463f,  0.039214f,  0.033527f,  -0.003537f,
  0.013639f,  0.035376f,  -0.018660f,  0.017603f,  -0.020986f,  -0.001406f,  0.015953f,  -0.027975f,
  0.037061f,  0.000688f,  -0.013775f,  0.006462f,  -0.007769f,  -0.019465f,  -0.004116f,  0.013999f,
  0.059105f,  0.017121f,  0.026029f,  0.064330f,  0.078996f,  0.095258f,  0.139809f,  0.052707f,
  0.040697f,  -0.004551f,  0.021956f,  -0.009016f,  -0.018244f,  0.018977f,  0.051351f,  -0.008182f,
  -0.011705f,  -0.023910f,  0.018752f,  0.026567f,  -0.011049f,  -0.003885f,  -0.012101f,  -0.026370f,
  0.015662f,  0.012811f,  0.033613f,  0.092097f,  0.052628f,  0.078890f,  0.036292f,  0.125508f,
  0.126293f,  0.098053f,  0.057774f,  0.035703f,  0.045513f,  0.012022f,  -0.053385f,  -0.030359f,
  -0.019368f,  0.027367f,  -0.004854f,  0.017662f,  -0.012426f,  -0.011925f,  0.008906f,  0.030365f,
  -0.007755f,  -0.019926f,  -0.002438f,  0.021816f,  0.008262f,  0.026781f,  0.026980f,  0.041525f,
  0.021711f,  0.093694f,  0.144812f,  0.096471f,  0.109281f,  0.126423f,  0.131070f,  0.093981f,
  0.100994f,  0.009247f,  -0.075393f,  -0.025763f,  -0.031624f,  -0.021517f,  -0.034525f,  -0.012416f,
  0.011598f,  -0.013498f,  -0.017054f,  -0.013720f,  -0.017156f,  -0.009870f,  -0.005882f,  -0.002227f,
  -0.029045f,  -0.055891f,  -0.035833f,  0.031588f,  0.038567f,  0.078190f,  0.079285f,  0.073227f,
  0.041735f,  -0.004883f,  0.070982f,  -0.034605f,  -0.064179f,  -0.108444f,  -0.104738f,  -0.059569f,
  -0.072297f,  -0.048376f,  -0.076626f,  -0.044569f,  -0.021560f,  -0.009497f,  0.006545f,  0.006125f,
  0.028534f,  0.004512f,  -0.026675f,  -0.025586f,  -0.055033f,  -0.059635f,  -0.047444f,  -0.009896f,
  0.041176f,  0.071905f,  0.062828f,  0.121772f,  0.062022f,  0.015191f,  -0.050503f,  -0.064748f,
  -0.169032f,  -0.118533f,  -0.143053f,  -0.116016f,  -0.078183f,  -0.034057f,  -0.082651f,  -0.050022f,
  0.024651f,  -0.027664f,  -0.028820f,  -0.009620f,  0.031507f,  -0.026294f,  -0.006982f,  -0.080396f,
  -0.050144f,  -0.068763f,  -0.053701f,  0.069626f,  0.126825f,  0.100176f,  0.043611f,  0.080547f,
  0.019055f,  -0.041560f,  -0.069641f,  -0.106849f,  -0.089683f,  -0.114792f,  -0.096317f,  -0.080541f,
  -0.117180f,  -0.006692f,  -0.038199f,  -0.026759f,  -0.053964f,  0.006096f,  -0.022956f,  -0.009335f,
  0.002493f,  0.022369f,  -0.039203f,  0.002578f,  -0.040246f,  -0.015750f,  0.094854f,  0.080449f,
  0.139567f,  0.136924f,  0.066680f,  -0.033947f,  -0.074191f,  -0.058810f,  -0.101900f,  -0.045902f,
  -0.096849f,  -0.076338f,  -0.114269f,  -0.047837f,  -0.068911f,  -0.047574f,  -0.060635f,  -0.137869f,
  -0.121349f,  -0.013382f,  -0.041116f,  0.028096f,  -0.015199f,  -0.011682f,  -0.018806f,  -0.021844f,
  -0.077810f,  0.002612f,  0.101448f,  0.062157f,  0.138335f,  0.096364f,  0.005897f,  -0.061464f,
  -0.266728f,  -0.270984f,  -0.140967f,  -0.041105f,  -0.058036f,  -0.052825f,  -0.016100f,  -0.001733f,
  -0.008590f,  0.016483f,  -0.016760f,  -0.069934f,  -0.028184f,  -0.055513f,  0.001881f,  -0.027735f,
  -0.008620f,  -0.038278f,  -0.014836f,  -0.016711f,  -0.010371f,  0.040579f,  0.111641f,  0.072755f,
  0.174418f,  0.128412f,  0.037353f,  -0.190202f,  -0.302198f,  -0.253491f,  -0.171914f,  -0.037950f,
  0.014313f,  -0.004484f,  0.005631f,  0.027900f,  0.045908f,  -0.014316f,  -0.060616f,  -0.000771f,
  0.058439f,  -0.018242f,  0.010439f,  -0.023835f,  0.010678f,  0.033252f,  -0.056284f,  -0.068707f,
  -0.063702f,  -0.000728f,  0.031637f,  0.069276f,  0.129626f,  0.122127f,  0.054891f,  -0.029781f,
  -0.099604f,  -0.121296f,  -0.046353f,  -0.026909f,  0.026449f,  0.056992f,  0.049165f,  0.092956f,
  0.009640f,  0.013839f,  0.002401f,  0.069111f,  0.081442f,  -0.052169f,  0.007665f,  0.029670f,
  0.025414f,  0.030565f,  0.013592f,  -0.026040f,  -0.016341f,  -0.030277f,  0.057449f,  0.054725f,
  0.097216f,  0.165880f,  0.111412f,  0.014583f,  -0.041600f,  -0.151258f,  -0.076849f,  -0.027939f,
  0.038972f,  -0.013963f,  0.031375f,  0.066026f,  -0.007412f,  0.072974f,  0.031436f,  0.126826f,
  0.095619f,  -0.022274f,  -0.055574f,  -0.031269f,  -0.029677f,  -0.027682f,  0.015200f,  -0.055159f,
  -0.032181f,  0.058528f,  0.068057f,  0.121522f,  0.117674f,  0.105781f,  0.090432f,  0.070104f,
  -0.009648f,  -0.081775f,  -0.061210f,  0.011910f,  0.013112f,  -0.020053f,  -0.049316f,  0.059614f,
  0.026027f,  0.075375f,  0.070606f,  0.121533f,  0.056048f,  -0.060478f,  -0.048669f,  -0.020540f,
  -0.011775f,  0.037038f,  0.004098f,  0.009243f,  -0.062268f,  0.011070f,  0.078713f,  0.060036f,
  0.111489f,  0.089147f,  0.038325f,  0.051735f,  0.007029f,  0.000634f,  0.006201f,  -0.018626f,
  -0.028422f,  -0.008318f,  -0.015135f,  -0.064905f,  -0.025130f,  0.008058f,  0.050519f,  0.065441f,
  0.009523f,  -0.021057f,  -0.023076f,  -0.028471f,  -0.012680f,  -0.030967f,  0.010805f,  -0.034315f,
  -0.061490f,  -0.029887f,  0.048258f,  0.085767f,  0.032847f,  0.000841f,  0.012852f,  0.047472f,
  0.073571f,  0.113975f,  0.030369f,  -0.045493f,  -0.017738f,  -0.030969f,  -0.112514f,  -0.113802f,
  -0.074688f,  -0.094552f,  0.014491f,  0.049211f,  -0.019487f,  0.073532f,  0.005179f,  -0.026200f,
  0.035235f,  0.008774f,  0.036045f,  -0.039335f,  -0.073795f,  -0.096708f,  -0.017125f,  0.019412f,
  0.065913f,  -0.041168f,  -0.049153f,  0.062516f,  0.086205f,  0.108737f,  0.037890f,  -0.031354f,
  0.038410f,  0.007515f,  -0.065149f,  -0.034952f,  -0.054004f,  -0.031871f,  -0.045276f,  0.078856f,
  0.027314f,  0.051056f,  -0.001698f,  -0.039925f,  0.025716f,  -0.028356f,  0.014529f,  -0.002086f,
  -0.079197f,  -0.101080f,  -0.052536f,  -0.058583f,  0.002596f,  -0.036388f,  -0.025110f,  0.075538f,
  0.126048f,  0.114096f,  0.083287f,  -0.022572f,  0.057972f,  -0.020585f,  0.012373f,  -0.038782f,
  0.011114f,  -0.035207f,  -0.039141f,  0.019652f,  0.039356f,  0.007246f,  -0.033727f,  -0.029381f,
  0.032493f,  0.001213f,  0.010170f,  -0.009348f,  -0.097748f,  -0.063772f,  0.021722f,  -0.105243f,
  -0.081684f,  -0.106472f,  -0.010201f,  -0.007049f,  0.094930f,  0.162809f,  0.061791f,  -0.050138f,
  -0.031791f,  -0.019485f,  -0.024013f,  -0.006660f,  -0.001207f,  -0.037995f,  -0.006698f,  0.085108f,
  0.042517f,  0.020497f,  0.003494f,  -0.000416f,  -0.001862f,  -0.004966f,  0.009470f,  -0.034921f,
  -0.019437f,  -0.006952f,  -0.022803f,  -0.038049f,  -0.083033f,  -0.156165f,  -0.071992f,  0.010057f,
  0.103466f,  0.095860f,  0.075874f,  0.046192f,  -0.047659f,  -0.045847f,  0.028870f,  -0.006765f,
  -0.013801f,  0.022801f,  0.064846f,  0.067617f,  0.006760f,  -0.042787f,  -0.038229f,  -0.018339f,
  0.016547f,  0.021194f,  -0.023142f,  -0.042017f,  0.001534f,  -0.062995f,  -0.075756f,  -0.051055f,
  -0.088019f,  -0.136174f,  -0.099848f,  -0.012993f,  0.092661f,  0.044950f,  0.085886f,  0.085427f,
  -0.027468f,  0.021402f,  0.043233f,  0.051304f,  -0.008131f,  -0.025100f,  0.040467f,  0.092330f,
  0.015753f,  -0.013110f,  0.010639f,  -0.032035f,  -0.014860f,  -0.006794f,  0.035367f,  -0.003451f,
  -0.010376f,  -0.012670f,  -0.052933f,  -0.027951f,  -0.005394f,  -0.030057f,  -0.070619f,  -0.043593f,
  -0.034389f,  0.033540f,  0.088610f,  0.033049f,  0.005323f,  0.094025f,  0.085944f,  0.027746f,
  0.000824f,  -0.007764f,  0.006552f,  0.014806f,  -0.038331f,  -0.039902f,  0.011629f,  0.009341f,
  -0.001128f,  0.002392f,  0.028015f,  0.008793f,  0.035762f,  -0.004675f,  0.018972f,  -0.000866f,
  0.000671f,  -0.054960f,  -0.105396f,  -0.082388f,  -0.034121f,  -0.033036f,  -0.007891f,  0.000338f,
  0.051137f,  0.102546f,  0.063249f,  0.027973f,  0.015470f,  0.013960f,  0.025024f,  -0.052966f,
  -0.028089f,  -0.019130f,  -0.002020f,  -0.011787f,  0.011915f,  -0.011143f,  -0.021346f,  -0.035558f,
  -0.009991f,  0.000642f,  -0.007669f,  -0.048541f,  -0.065830f,  -0.033736f,  -0.097868f,  -0.142866f,
  -0.098889f,  -0.047791f,  -0.014011f,  0.002865f,  0.087330f,  0.063944f,  0.054073f,  -0.014171f,
  0.004171f,  0.079051f,  0.092841f,  0.002846f,  0.001017f,  0.011940f,  -0.014218f,  -0.011399f,
  -0.017052f,  0.026716f,  -0.021221f,  0.017770f,  -0.022913f,  -0.017315f,  -0.032112f,  -0.019961f,
  -0.029557f,  -0.036953f,  -0.011057f,  -0.019979f,  -0.023190f,  -0.034708f,  -0.049479f,  -0.015564f,
  0.025678f,  -0.006933f,  0.043583f,  0.082258f,  0.098662f,  0.057465f,  0.057695f,  0.040796f,
  -0.001382f,  0.037354f,  0.033753f,  -0.011697f,  0.007804f,  0.005811f,  -0.027808f,  -0.003466f,
  -0.011825f,  -0.010539f,  -0.033463f,  -0.031220f,  -0.002787f,  0.008682f,  0.033486f,  0.063308f,
  0.013152f,  0.014730f,  0.000558f,  0.010536f,  0.031517f,  0.052054f,  0.052694f,  0.010647f,
  0.007308f,  0.039128f,  0.035422f,  0.020169f,  0.007952f,  -0.012161f,  -0.025668f,  0.010456f,
  0.026723f,  0.016936f,  -0.014970f,  0.002558f,  0.002507f,  -0.020238f,  -0.015723f,  -0.014566f,
  -0.014618f,  -0.023740f,  -0.017217f,  0.005366f,  0.071575f,  0.095659f,  0.012373f,  -0.025671f,
  0.001874f,  0.031102f,  0.023617f,  -0.036196f,  0.017420f,  0.016015f,  0.027559f,  -0.008184f,
  0.012089f,  0.031251f,  0.034235f,  0.021412f,  0.019829f,  0.018093f,  -0.013862f,  -0.012346f,
  0.012199f,  0.026030f,  -0.008339f,  0.033366f,  0.000924f,  0.020747f,  -0.041542f,  -0.018049f,
  0.000778f,  -0.021338f,  0.001348f,  0.030959f,  -0.033422f,  -0.000957f,  0.002785f,  0.021767f,
  -0.023399f,  0.014232f,  0.011919f,  -0.024508f,  -0.018117f,  0.010289f,  -0.005608f,  -0.014811f,
  -0.041829f,  0.003354f,  -0.024357f,  0.013895f,  -0.027961f,  -0.001143f,  -0.029318f,  -0.017678f,
  -0.006356f,  0.021586f,  -0.017549f,  0.026854f,  -0.006735f,  0.001479f,  -0.015485f,  -0.019958f,
  -0.033072f,  -0.043754f,  -0.026868f,  -0.005994f,  -0.024282f,  0.012571f,  -0.024921f,  -0.010388f,
  -0.043717f,  -0.025626f,  -0.017115f,  -0.041653f,  -0.042874f,  -0.015061f,  -0.025536f,  -0.018854f,
  0.022219f,  0.021132f,  -0.035200f,  -0.028128f,  0.010448f,  0.014931f,  -0.012270f,  -0.022071f,
  -0.018526f,  -0.027652f,  0.013588f,  -0.032165f,  -0.021734f,  -0.010106f,  -0.025342f,  -0.007677f,
  -0.009089f,  -0.021029f,  0.005767f,  -0.032308f,  0.010406f,  -0.019363f,  0.022685f,  0.001242f,
  -0.004787f,  0.002392f,  0.022228f,  -0.016964f,  -0.042134f,  0.012015f,  -0.029228f,  -0.016386f,
  0.012653f,  0.002307f,  0.023525f,  0.000808f,  -0.031807f,  0.001862f,  -0.019704f,  0.020558f,
  -0.009568f,  -0.005935f,  0.025937f,  -0.008184f,  -0.012298f,  0.015223f,  0.004761f,  -0.033068f,
  0.014360f,  0.023034f,  0.007529f,  -0.020785f,  -0.027260f,  0.026451f,  0.006690f,  -0.002536f,
  -0.009591f,  -0.003501f,  -0.012388f,  0.008753f,  0.016744f,  0.016953f,  0.034702f,  0.021472f,
  0.068383f,  0.036896f,  0.112263f,  0.027512f,  0.016301f,  0.018114f,  0.009275f,  0.035888f,
  0.022483f,  0.042983f,  -0.017468f,  0.014346f,  0.027534f,  -0.042842f,  -0.015593f,  0.010751f,
  -0.002904f,  -0.022052f,  -0.029397f,  -0.015210f,  -0.000403f,  0.024330f,  -0.024532f,  0.043555f,
  0.048367f,  -0.017489f,  0.063428f,  0.057303f,  0.052100f,  -0.003171f,  0.046638f,  0.026830f,
  0.013306f,  0.067585f,  0.083823f,  0.019390f,  -0.023721f,  -0.074855f,  -0.078373f,  -0.072875f,
  -0.027434f,  -0.026251f,  -0.030323f,  0.004276f,  -0.036420f,  -0.035090f,  -0.002622f,  0.011866f,
  0.001430f,  0.026411f,  0.050454f,  0.052908f,  0.057538f,  0.046053f,  0.039031f,  0.035866f,
  0.049432f,  0.030828f,  0.022222f,  -0.005651f,  -0.003779f,  0.030042f,  0.013199f,  -0.010937f,
  -0.011711f,  -0.088820f,  -0.120009f,  -0.104436f,  -0.055236f,  0.016635f,  -0.043057f,  -0.032441f,
  0.006170f,  -0.042340f,  0.022029f,  0.033793f,  0.019023f,  0.012423f,  0.023376f,  0.056346f,
  0.058203f,  0.049693f,  0.035678f,  0.014731f,  0.012164f,  0.036055f,  0.067366f,  0.060526f,
  0.107027f,  0.036358f,  0.019078f,  0.007617f,  -0.080719f,  -0.019721f,  -0.093436f,  -0.151233f,
  -0.096526f,  -0.028777f,  -0.033649f,  0.023821f,  0.007004f,  0.020528f,  -0.021006f,  0.005623f,
  0.025183f,  -0.003033f,  0.051876f,  0.066683f,  0.059901f,  0.048731f,  0.047381f,  0.062246f,
  0.098018f,  0.085698f,  0.059321f,  0.110371f,  0.033056f,  -0.025891f,  0.066476f,  0.021244f,
  -0.095688f,  -0.048501f,  -0.144356f,  -0.168694f,  -0.086005f,  0.003183f,  -0.014672f,  -0.024649f,
  -0.024570f,  -0.039974f,  0.007887f,  0.024187f,  0.047243f,  -0.039713f,  0.020544f,  0.022869f,
  0.086730f,  0.067847f,  0.042802f,  0.019542f,  0.044546f,  0.037432f,  0.030428f,  0.043111f,
  -0.007149f,  -0.055767f,  0.039443f,  0.058242f,  -0.001979f,  -0.060217f,  -0.023106f,  -0.117034f,
  -0.113314f,  -0.061794f,  -0.007549f,  0.004921f,  -0.028115f,  0.019432f,  0.000396f,  0.083377f,
  0.048039f,  -0.012911f,  0.058696f,  0.058270f,  0.053108f,  0.009607f,  0.010164f,  0.008849f,
  0.023564f,  -0.046975f,  -0.037051f,  -0.019818f,  0.021707f,  0.049259f,  0.032439f,  0.047230f,
  0.025241f,  -0.001838f,  -0.024824f,  -0.034712f,  -0.090068f,  -0.028079f,  0.009332f,  -0.027069f,
  0.000567f,  -0.018584f,  -0.019456f,  0.070859f,  0.069106f,  -0.026977f,  0.098477f,  -0.017282f,
  -0.069388f,  -0.034764f,  -0.055894f,  -0.035241f,  -0.039437f,  -0.062704f,  -0.062144f,  -0.032662f,
  0.065086f,  0.011375f,  0.067459f,  0.004573f,  0.082866f,  0.052334f,  0.090927f,  -0.034557f,
  -0.062675f,  -0.047185f,  0.010175f,  -0.016169f,  0.006623f,  -0.017519f,  0.016181f,  0.044552f,
  0.065754f,  0.004793f,  0.026407f,  -0.084683f,  -0.032803f,  -0.026614f,  -0.033049f,  -0.034738f,
  -0.067499f,  -0.033226f,  -0.013766f,  0.029194f,  0.009045f,  0.052475f,  0.004089f,  0.012220f,
  0.078746f,  0.027594f,  0.053453f,  -0.030107f,  -0.038960f,  -0.034419f,  -0.025265f,  0.018173f,
  0.007289f,  -0.005024f,  -0.018619f,  0.022655f,  0.061083f,  0.000775f,  -0.034863f,  -0.066752f,
  -0.041433f,  -0.023773f,  0.050879f,  0.005552f,  -0.017710f,  0.000168f,  0.031343f,  0.049414f,
  0.023422f,  -0.019685f,  0.042633f,  0.044010f,  -0.027863f,  0.009805f,  -0.010855f,  -0.010996f,
  -0.063588f,  -0.040238f,  -0.009627f,  -0.014882f,  -0.038288f,  0.005515f,  -0.033336f,  0.047657f,
  0.079945f,  0.011105f,  -0.048887f,  0.018428f,  0.004564f,  0.033353f,  0.065770f,  0.020705f,
  -0.022672f,  -0.016590f,  0.006010f,  0.006427f,  -0.019461f,  -0.030582f,  0.052403f,  0.033648f,
  -0.013366f,  -0.007976f,  -0.046486f,  -0.060802f,  -0.008121f,  -0.010545f,  0.008136f,  -0.007287f,
  -0.021555f,  -0.036619f,  -0.009949f,  -0.010163f,  -0.001947f,  -0.006199f,  -0.048354f,  0.026695f,
  0.021537f,  -0.003026f,  0.011285f,  0.040049f,  -0.029624f,  0.006353f,  -0.028988f,  -0.015787f,
  -0.058174f,  -0.022454f,  0.043373f,  0.027136f,  0.054934f,  0.023816f,  -0.043912f,  -0.049192f,
  -0.019976f,  -0.036827f,  -0.001689f,  0.001229f,  -0.025023f,  0.023826f,  0.022512f,  -0.006438f,
  -0.027745f,  -0.050733f,  0.008100f,  -0.025273f,  0.023759f,  0.002296f,  -0.011285f,  -0.038587f,
  0.011512f,  0.010736f,  0.039252f,  0.014759f,  -0.009208f,  0.051065f,  0.012364f,  0.036254f,
  0.043558f,  0.045766f,  0.055728f,  0.029496f,  -0.032108f,  -0.042230f,  -0.005700f,  -0.034655f,
  0.002705f,  -0.022354f,  0.031981f,  0.004689f,  0.017660f,  -0.046759f,  -0.055079f,  -0.033822f,
  -0.036310f,  -0.008492f,  0.049653f,  0.066073f,  -0.004685f,  0.039420f,  -0.038148f,  0.005824f,
  -0.017836f,  0.016068f,  0.056002f,  -0.000955f,  0.037609f,  0.058674f,  0.078640f,  -0.033026f,
  -0.068177f,  -0.050928f,  -0.034928f,  -0.013125f,  -0.016410f,  0.020631f,  -0.018975f,  0.033714f,
  0.042570f,  -0.011419f,  -0.135374f,  -0.032827f,  0.014033f,  -0.019999f,  -0.007858f,  0.010690f,
  0.041022f,  -0.001637f,  -0.112355f,  -0.097072f,  -0.009028f,  0.054131f,  0.040136f,  0.033239f,
  0.078190f,  0.009003f,  0.031083f,  -0.091165f,  -0.092257f,  -0.079265f,  -0.037949f,  -0.009010f,
  0.025107f,  0.012029f,  0.011967f,  0.019829f,  0.018378f,  -0.073282f,  -0.114236f,  -0.058771f,
  -0.006556f,  0.026682f,  0.034176f,  0.096336f,  -0.010100f,  -0.045305f,  -0.142465f,  -0.139098f,
  -0.031045f,  0.035979f,  0.034148f,  0.123097f,  0.101604f,  0.069229f,  0.069162f,  -0.129175f,
  -0.128422f,  -0.054718f,  0.007422f,  0.010786f,  -0.043340f,  -0.020020f,  -0.036211f,  -0.011637f,
  -0.040349f,  -0.009820f,  -0.150306f,  -0.148268f,  -0.077170f,  -0.017525f,  -0.019437f,  -0.053501f,
  -0.031521f,  -0.096568f,  -0.171016f,  -0.097405f,  -0.017906f,  0.033522f,  0.099141f,  0.065563f,
  0.101289f,  0.059796f,  0.000281f,  -0.076988f,  -0.103197f,  0.002334f,  0.017467f,  0.016903f,
  -0.041611f,  -0.016384f,  -0.038287f,  0.039572f,  -0.001530f,  0.001127f,  -0.115245f,  -0.063965f,
  -0.090136f,  -0.047622f,  -0.065728f,  -0.081307f,  -0.085125f,  -0.032349f,  -0.095633f,  -0.072333f,
  0.027217f,  0.047703f,  0.064326f,  0.043485f,  0.028386f,  -0.020927f,  -0.046137f,  -0.108280f,
  -0.077622f,  0.025091f,  -0.046707f,  -0.043922f,  -0.012948f,  -0.039835f,  0.020059f,  -0.015942f,
  0.053124f,  0.005338f,  -0.010042f,  -0.024442f,  -0.043487f,  -0.133365f,  -0.060717f,  -0.047439f,
  -0.030142f,  0.013896f,  -0.049887f,  0.006270f,  0.078205f,  0.084731f,  -0.003661f,  0.008084f,
  0.004453f,  -0.038850f,  -0.090426f,  -0.095011f,  -0.042039f,  0.007361f,  -0.046337f,  -0.006775f,
  -0.021368f,  -0.019005f,  -0.004153f,  0.058670f,  0.076469f,  -0.017437f,  -0.013607f,  -0.033014f,
  -0.054351f,  -0.106451f,  -0.086914f,  0.000278f,  0.010730f,  0.017013f,  0.062608f,  0.073990f,
  0.119861f,  0.019525f,  -0.002645f,  -0.015108f,  -0.017829f,  -0.098712f,  -0.072667f,  -0.075866f,
  -0.003455f,  -0.013183f,  0.016632f,  0.017885f,  0.015128f,  0.013781f,  0.004009f,  0.037541f,
  0.082813f,  0.025890f,  0.047868f,  0.013031f,  -0.039962f,  -0.073884f,  -0.022782f,  0.049661f,
  -0.020482f,  0.031870f,  0.069609f,  0.087334f,  0.052018f,  0.047054f,  0.027383f,  -0.085751f,
  -0.027410f,  -0.088459f,  -0.032401f,  0.028313f,  0.018398f,  -0.038392f,  0.003403f,  -0.003390f,
  0.018854f,  -0.026960f,  -0.006439f,  0.000132f,  0.077800f,  0.092986f,  0.056175f,  0.087449f,
  0.049991f,  0.009027f,  0.090692f,  0.048915f,  0.031903f,  0.047934f,  0.012732f,  0.073528f,
  0.100623f,  0.003287f,  -0.026398f,  -0.039385f,  -0.023967f,  0.018481f,  -0.041241f,  -0.031389f,
  -0.040411f,  -0.016870f,  -0.016421f,  0.018842f,  0.026335f,  -0.021450f,  -0.014105f,  0.015022f,
  -0.021495f,  0.016326f,  0.035949f,  0.083622f,  0.126364f,  0.173987f,  0.169828f,  0.092786f,
  0.080503f,  0.107956f,  0.052503f,  0.037741f,  0.026103f,  -0.018521f,  0.046188f,  0.095668f,
  0.055076f,  0.007563f,  0.028085f,  0.020965f,  0.012840f,  0.003337f,  -0.044135f,  -0.016238f,
  0.003350f,  -0.014849f,  -0.010846f,  -0.042528f,  -0.020080f,  0.031632f,  0.022717f,  0.029744f,
  0.004316f,  0.058128f,  0.097802f,  0.074755f,  0.092241f,  0.128603f,  0.123663f,  0.050299f,
  0.120683f,  0.144556f,  0.079509f,  0.049232f,  0.062955f,  0.030483f,  0.014017f,  -0.024018f,
  -0.016744f,  -0.016434f,  0.002423f,  0.002646f,  -0.020902f,  0.010817f,  0.025084f,  0.011267f,
  0.013920f,  -0.014001f,  0.014659f,  -0.033082f,  -0.022370f,  -0.004799f,  0.015118f,  -0.007745f,
  0.019633f,  0.012043f,  0.022406f,  -0.031817f,  -0.012559f,  -0.007399f,  0.017085f,  0.018716f,
  0.008781f,  0.000910f,  0.011272f,  0.009675f,  -0.041333f,  0.003811f,  -0.004465f,  -0.006907f,
  0.000364f,  0.019802f,  0.030520f,  0.004167f,  0.017699f,  -0.014584f,  0.002721f,  -0.004045f,
  0.018387f,  -0.010168f,  -0.013459f,  0.032099f,  0.037912f,  0.009227f,  0.036916f,  0.030537f,
  0.000212f,  0.003459f,  0.003922f,  0.006865f,  0.000822f,  -0.006353f,  -0.015665f,  -0.008062f,
  0.015528f,  0.030589f,  0.033350f,  0.049512f,  0.027041f,  -0.016163f,  -0.010821f,  0.025291f,
  0.047363f,  0.032769f,  0.059052f,  0.011242f,  0.005276f,  0.046587f,  0.045047f,  0.049466f,
  0.028250f,  0.030166f,  0.011563f,  0.043335f,  0.023977f,  0.004400f,  0.012255f,  0.001781f,
  0.033917f,  -0.007581f,  0.004234f,  -0.006600f,  0.013480f,  0.037123f,  -0.004309f,  0.011593f,
  0.006154f,  -0.009377f,  0.009438f,  -0.016716f,  0.038465f,  0.034918f,  0.038857f,  0.079156f,
  0.052236f,  0.002399f,  0.037559f,  0.081504f,  0.042131f,  0.069066f,  0.087541f,  0.036728f,
  0.067670f,  0.084477f,  0.032855f,  0.044344f,  0.037138f,  0.072265f,  0.037752f,  -0.003966f,
  0.006889f,  0.014406f,  0.038267f,  -0.012498f,  0.009171f,  0.039306f,  0.011375f,  0.044225f,
  0.027449f,  -0.004698f,  0.046186f,  0.088981f,  0.086125f,  0.094067f,  0.029580f,  0.039143f,
  0.052712f,  0.055349f,  0.003857f,  -0.003402f,  0.016566f,  0.025074f,  0.062304f,  0.062545f,
  0.039953f,  0.036146f,  0.020462f,  0.046802f,  0.046548f,  0.006364f,  0.015721f,  0.024663f,
  0.038787f,  0.011647f,  0.034652f,  -0.001310f,  0.048261f,  0.025216f,  0.058127f,  0.027677f,
  0.071117f,  0.094248f,  0.126944f,  0.042369f,  0.010313f,  0.024010f,  0.008615f,  -0.048226f,
  0.006594f,  0.016290f,  0.030545f,  0.068037f,  0.036637f,  -0.009008f,  0.007214f,  -0.002695f,
  -0.042203f,  0.003575f,  0.014057f,  0.015787f,  0.033203f,  0.032626f,  0.037209f,  0.013303f,
  0.020471f,  -0.030598f,  -0.040907f,  -0.094970f,  -0.077726f,  -0.054573f,  0.050574f,  0.026300f,
  -0.034018f,  -0.003023f,  0.039641f,  -0.027504f,  0.027609f,  0.045265f,  0.036247f,  0.058199f,
  0.080763f,  0.061204f,  -0.001106f,  0.033716f,  0.051555f,  0.036722f,  0.027609f,  0.020084f,
  0.043754f,  0.044472f,  -0.000531f,  -0.018757f,  -0.009846f,  -0.038113f,  -0.073039f,  -0.087431f,
  -0.101930f,  -0.164666f,  -0.137766f,  -0.048680f,  -0.016694f,  -0.045156f,  0.022686f,  -0.016952f,
  -0.051621f,  -0.083043f,  -0.076591f,  -0.094369f,  -0.065069f,  -0.078075f,  -0.017286f,  -0.022703f,
  0.082209f,  0.034689f,  0.008774f,  0.040317f,  0.016998f,  0.037259f,  0.047701f,  0.012460f,
  0.024316f,  -0.087536f,  -0.082799f,  -0.068297f,  -0.075951f,  -0.113452f,  -0.100246f,  -0.021678f,
  0.002679f,  -0.005785f,  0.055893f,  -0.065001f,  -0.060653f,  -0.121688f,  -0.137648f,  -0.106719f,
  -0.099768f,  -0.096525f,  -0.033545f,  -0.052806f,  0.010599f,  0.049545f,  0.002756f,  0.004603f,
  0.039721f,  0.042170f,  0.033338f,  -0.010251f,  -0.022842f,  -0.082095f,  -0.030411f,  -0.071947f,
  -0.064408f,  -0.083956f,  -0.012542f,  0.045033f,  0.063944f,  0.051923f,  0.090969f,  -0.020240f,
  -0.052673f,  -0.040849f,  -0.057586f,  -0.084316f,  -0.046810f,  -0.023998f,  -0.068554f,  -0.014536f,
  -0.015575f,  0.036313f,  0.043818f,  0.021564f,  0.029452f,  -0.001093f,  -0.023217f,  -0.027697f,
  0.007692f,  -0.009282f,  -0.037255f,  -0.021429f,  -0.026928f,  -0.108743f,  -0.029063f,  -0.027616f,
  0.001506f,  0.029022f,  0.044955f,  -0.001549f,  0.035287f,  0.044686f,  0.035948f,  -0.049162f,
  -0.038378f,  -0.004086f,  -0.029750f,  -0.047702f,  0.027351f,  0.005985f,  -0.012736f,  -0.026029f,
  0.039528f,  0.024084f,  0.007576f,  -0.010746f,  0.066538f,  0.024353f,  0.001062f,  0.008102f,
  -0.008151f,  -0.088299f,  -0.052460f,  0.005955f,  0.084109f,  0.015380f,  0.060929f,  0.008738f,
  -0.012195f,  0.043688f,  0.010966f,  -0.008388f,  -0.016386f,  -0.031901f,  -0.085007f,  0.024300f,
  0.057822f,  0.038141f,  -0.024584f,  0.008286f,  0.044133f,  0.046868f,  -0.010932f,  0.034243f,
  0.042334f,  0.058231f,  0.007372f,  -0.001109f,  -0.023353f,  -0.024273f,  -0.081041f,  -0.038044f,
  -0.003714f,  -0.058052f,  -0.027191f,  -0.067826f,  -0.020825f,  0.026159f,  -0.025995f,  -0.002603f,
  -0.022568f,  -0.025842f,  -0.075241f,  0.034877f,  0.044469f,  -0.017422f,  -0.004280f,  0.028414f,
  -0.010968f,  0.045960f,  -0.001899f,  -0.049350f,  -0.007107f,  0.024378f,  0.032247f,  0.052671f,
  -0.048138f,  0.015693f,  0.013949f,  -0.021514f,  -0.053491f,  -0.083608f,  -0.051526f,  -0.107839f,
  -0.002103f,  -0.020453f,  -0.036770f,  -0.014131f,  0.043657f,  -0.004668f,  -0.004519f,  -0.001754f,
  0.029671f,  0.007934f,  0.015006f,  -0.017303f,  -0.016494f,  0.017853f,  -0.027646f,  0.013429f,
  -0.009619f,  0.010309f,  0.042313f,  0.020542f,  0.023133f,  0.027764f,  -0.016422f,  -0.049966f,
  -0.018128f,  -0.028739f,  -0.034996f,  -0.068778f,  -0.060961f,  0.003548f,  -0.043749f,  -0.038521f,
  -0.008511f,  0.019400f,  0.060301f,  0.075237f,  0.020658f,  0.014479f,  0.028529f,  0.044627f,
  0.011498f,  -0.008445f,  0.026439f,  0.005249f,  -0.051112f,  -0.002332f,  0.043191f,  0.010875f,
  0.008442f,  -0.045623f,  -0.048539f,  -0.040149f,  -0.000323f,  0.014897f,  -0.025597f,  -0.007879f,
  -0.055143f,  -0.048856f,  -0.002527f,  -0.054830f,  -0.016777f,  0.065259f,  0.058741f,  0.008258f,
  -0.006995f,  0.035362f,  0.005447f,  -0.016801f,  -0.019981f,  -0.018112f,  0.031892f,  0.008116f,
  -0.015435f,  0.065969f,  -0.008831f,  0.016439f,  -0.002461f,  -0.029557f,  -0.076575f,  -0.009644f,
  0.035739f,  0.058063f,  0.026283f,  -0.046809f,  -0.006358f,  -0.022904f,  -0.020897f,  -0.047569f,
  0.035020f,  0.017937f,  -0.003815f,  -0.002416f,  0.027282f,  0.041143f,  -0.021351f,  -0.021997f,
  0.010215f,  0.032229f,  0.029547f,  0.026353f,  0.031362f,  0.070322f,  -0.000500f,  -0.036945f,
  -0.043882f,  -0.072179f,  -0.074411f,  0.049117f,  0.046931f,  0.040846f,  0.048437f,  0.043826f,
  0.028133f,  -0.014678f,  -0.058851f,  0.000603f,  -0.006512f,  0.031593f,  0.061882f,  0.084724f,
  0.055390f,  0.084360f,  0.040692f,  0.017049f,  -0.005768f,  0.040022f,  0.031605f,  0.009988f,
  0.036228f,  0.034483f,  -0.008148f,  -0.029667f,  -0.001915f,  -0.063505f,  0.009619f,  0.024017f,
  0.020028f,  0.062246f,  0.075354f,  0.051959f,  -0.008863f,  -0.008182f,  0.002581f,  0.012979f,
  0.071610f,  0.023658f,  0.008794f,  0.034518f,  -0.044696f,  0.031445f,  0.028839f,  0.042271f,
  0.002872f,  -0.003175f,  0.028967f,  0.013472f,  0.019251f,  0.047946f,  0.014758f,  0.016119f,
  -0.036421f,  -0.015607f,  0.046256f,  0.033866f,  0.063158f,  0.037125f,  0.042140f,  0.087967f,
  0.056786f,  0.048457f,  0.035216f,  0.027283f,  -0.018653f,  0.019648f,  0.018193f,  0.070363f,
  0.029298f,  0.060255f,  0.016584f,  0.029298f,  0.027675f,  -0.019458f,  -0.011592f,  0.054993f,
  0.064629f,  0.012455f,  -0.003252f,  -0.027320f,  -0.033064f,  0.025738f,  0.045855f,  0.112383f,
  0.115118f,  0.125074f,  0.135834f,  0.129534f,  0.088034f,  0.047076f,  0.027052f,  0.057883f,
  0.020034f,  0.053620f,  0.085706f,  0.144723f,  0.010025f,  0.043113f,  0.013099f,  0.041643f,
  -0.001374f,  0.029144f,  0.027338f,  0.067355f,  0.031468f,  0.003751f,  -0.007792f,  0.049401f,
  0.080230f,  0.069477f,  0.130567f,  0.179778f,  0.140961f,  0.150157f,  0.113457f,  0.132747f,
  0.110628f,  0.083818f,  0.122284f,  0.061687f,  0.112687f,  0.065631f,  0.114014f,  0.096887f,
  0.037374f,  0.034061f,  0.037547f,  0.013670f,  -0.015105f,  0.025736f,  -0.017310f,  0.009354f,
  -0.011115f,  -0.003472f,  0.019937f,  0.028341f,  0.099459f,  0.120698f,  0.144137f,  0.110888f,
  0.133265f,  0.114113f,  0.131143f,  0.088674f,  0.070313f,  0.063824f,  0.131612f,  0.078687f,
  0.090832f,  0.043682f,  0.060608f,  0.116141f,  0.032012f,  -0.020217f,  0.005856f,  -0.011995f,
  0.008932f,  0.048774f,  0.045163f,  0.024852f,  0.035817f,  0.010438f,  -0.055059f,  -0.025989f,
  -0.016147f,  0.035307f,  0.091476f,  0.103842f,  0.132099f,  0.070254f,  0.052785f,  -0.008541f,
  0.030990f,  0.001600f,  0.049981f,  0.038098f,  0.008661f,  -0.001445f,  0.044954f,  0.022837f,
  0.037973f,  -0.004762f,  0.045564f,  0.035645f,  -0.018156f,  0.041545f,  -0.007826f,  0.032438f,
  -0.007781f,  -0.023387f,  -0.091032f,  -0.129196f,  -0.042673f,  0.000944f,  -0.001068f,  -0.012622f,
  0.000887f,  -0.060302f,  -0.100594f,  -0.093108f,  -0.038050f,  -0.056702f,  -0.040784f,  0.042931f,
  0.037356f,  0.010520f,  0.074284f,  0.035583f,  0.002619f,  0.025251f,  0.026377f,  0.017372f,
  -0.012392f,  0.013982f,  -0.016691f,  0.010443f,  -0.026073f,  -0.071658f,  -0.101179f,  -0.134712f,
  -0.106484f,  -0.054440f,  -0.112297f,  -0.153484f,  -0.178752f,  -0.149753f,  -0.187001f,  -0.103585f,
  -0.080403f,  -0.110609f,  -0.027181f,  -0.024184f,  -0.083309f,  -0.023560f,  -0.021091f,  0.009080f,
  0.060168f,  0.029991f,  0.031568f,  0.003811f,  -0.014302f,  0.039349f,  0.023693f,  -0.007545f,
  -0.034434f,  -0.023758f,  -0.061748f,  -0.068049f,  -0.135734f,  -0.148717f,  -0.196417f,  -0.208510f,
  -0.208975f,  -0.165846f,  -0.184989f,  -0.167596f,  -0.125157f,  -0.078999f,  -0.050857f,  -0.017218f,
  -0.068792f,  -0.050789f,  -0.056347f,  0.031262f,  0.035648f,  0.016542f,  0.028189f,  0.005290f,
  0.034540f,  0.024093f,  -0.000363f,  -0.016056f,  0.024134f,  -0.008490f,  -0.026764f,  0.001458f,
  -0.041363f,  -0.010010f,  -0.005865f,  -0.045066f,  -0.040762f,  -0.031290f,  -0.048706f,  -0.015751f,
  -0.010777f,  0.028465f,  -0.012372f,  0.016108f,  -0.012311f,  -0.001605f,  0.019121f,  0.046406f,
  0.012867f,  -0.015721f,  -0.001696f,  0.038784f,  -0.003901f,  0.038254f,  0.013726f,  0.002734f,
  0.034980f,  -0.011282f,  0.000588f,  0.041319f,  0.019442f,  -0.018389f,  0.030258f,  0.030298f,
  0.012028f,  -0.022745f,  0.027601f,  0.032218f,  0.046112f,  0.013010f,  0.019994f,  -0.024091f,
  -0.007944f,  0.032599f,  -0.004028f,  -0.006914f,  -0.007635f,  0.025218f,  -0.015194f,  0.010840f,
  0.008733f,  0.011166f,  -0.000635f,  0.024110f,  0.010248f,  0.040213f,  0.032747f,  0.002942f,
  -0.024780f,  0.014452f,  -0.024307f,  -0.002507f,  0.002663f,  -0.009969f,  0.025428f,  -0.018340f,
  0.020418f,  0.004564f,  -0.020175f,  0.029418f,  0.000482f,  0.001046f,  -0.022663f,  0.031489f,
  -0.014367f,  0.026013f,  -0.001778f,  -0.016067f,  0.037249f,  0.037182f,  0.015170f,  0.017183f,
  0.038387f,  -0.018245f,  0.007141f,  -0.012667f,  -0.006062f,  0.002543f,  -0.020410f,  0.007959f,
  0.009455f,  0.024168f,  -0.014554f,  -0.001144f,  0.013527f,  0.028342f,  -0.026173f,  -0.001507f,
  0.043018f,  -0.007534f,  -0.019078f,  -0.026919f,  -0.009313f,  0.027983f,  0.032654f,  0.034924f,
  -0.021203f,  -0.027635f,  -0.017895f,  0.000172f,  0.025391f,  0.037941f,  0.025215f,  0.022972f,
  0.009401f,  0.014168f,  -0.010861f,  -0.030498f,  0.003163f,  0.011129f,  -0.008757f,  -0.002269f,
  0.017608f,  0.037096f,  -0.016090f,  0.029816f,  0.008004f,  -0.003208f,  0.017235f,  -0.019095f,
  0.043124f,  -0.000034f,  0.027105f,  0.035356f,  -0.028648f,  0.005312f,  -0.028397f,  -0.000805f,
  0.035703f,  -0.007393f,  -0.018905f,  -0.022690f,  0.007716f,  0.000527f,  0.019818f,  0.051562f,
  0.047045f,  -0.046391f,  -0.059378f,  -0.008205f,  -0.022112f,  0.023391f,  0.026279f,  -0.004837f,
  0.049174f,  0.012135f,  0.002867f,  0.012294f,  0.042362f,  0.015584f,  0.034976f,  -0.019596f,
  0.036393f,  0.032428f,  0.035205f,  -0.009674f,  0.018528f,  0.034624f,  0.013176f,  0.060138f,
  0.024943f,  0.026483f,  0.041058f,  0.009737f,  -0.014013f,  -0.018580f,  -0.083433f,  -0.012975f,
  0.017228f,  -0.018318f,  0.025223f,  0.046594f,  0.056474f,  0.076882f,  0.048683f,  0.018825f,
  -0.001278f,  -0.012336f,  0.004996f,  -0.010172f,  -0.023970f,  0.008119f,  0.007914f,  0.007184f,
  0.045370f,  0.079388f,  0.067728f,  0.100900f,  0.063517f,  0.018373f,  0.033896f,  -0.043549f,
  -0.020196f,  -0.037550f,  -0.040502f,  -0.031569f,  -0.048856f,  -0.047932f,  0.020650f,  -0.018116f,
  -0.030371f,  0.013268f,  0.010594f,  0.071472f,  0.071951f,  0.045643f,  0.011581f,  -0.002522f,
  0.034414f,  -0.014781f,  -0.007677f,  0.051600f,  0.058524f,  0.093841f,  0.065644f,  0.046553f,
  0.065071f,  0.064612f,  -0.021049f,  -0.076382f,  -0.088770f,  -0.084340f,  -0.029644f,  -0.047532f,
  -0.058859f,  0.025746f,  0.024804f,  0.034458f,  0.045148f,  0.058585f,  0.005714f,  0.096990f,
  0.063716f,  0.040083f,  0.023932f,  0.020894f,  0.010343f,  0.046699f,  0.036458f,  0.041435f,
  0.050589f,  0.123302f,  0.030500f,  0.030550f,  -0.014649f,  0.001769f,  -0.026785f,  -0.040596f,
  -0.073967f,  -0.055107f,  -0.045007f,  -0.044845f,  -0.021225f,  -0.011817f,  0.025789f,  0.006385f,
  0.032520f,  -0.004153f,  0.007955f,  0.075260f,  0.099684f,  0.026827f,  0.005520f,  -0.028290f,
  0.036826f,  -0.023689f,  0.025127f,  0.065578f,  0.098874f,  0.099297f,  0.034923f,  0.052199f,
  -0.006109f,  0.052272f,  0.003583f,  -0.073785f,  0.010306f,  -0.060076f,  0.012590f,  0.025445f,
  -0.004022f,  0.019628f,  0.046212f,  0.025697f,  0.045216f,  0.063956f,  0.067461f,  0.028037f,
  0.074435f,  0.067957f,  0.021855f,  -0.022529f,  0.015615f,  0.029954f,  0.048288f,  0.031316f,
  0.079944f,  0.074489f,  0.084964f,  0.024095f,  0.045072f,  -0.023238f,  -0.026188f,  -0.031582f,
  -0.003879f,  -0.008194f,  0.030380f,  0.034252f,  0.076191f,  0.068101f,  0.010826f,  -0.001705f,
  -0.003389f,  0.056610f,  0.087625f,  0.044546f,  0.028544f,  0.023008f,  0.013131f,  0.038267f,
  0.032491f,  -0.021199f,  0.011895f,  0.049208f,  0.059745f,  0.051689f,  -0.010991f,  -0.027080f,
  -0.001795f,  -0.011949f,  0.003555f,  0.014710f,  0.032989f,  0.085148f,  0.035012f,  0.064076f,
  0.060012f,  0.100077f,  0.006663f,  0.023959f,  0.015523f,  -0.022822f,  0.009473f,  -0.037193f,
  0.025636f,  0.061718f,  0.032089f,  0.000844f,  -0.012335f,  -0.021051f,  0.018564f,  0.043265f,
  0.060874f,  -0.007814f,  -0.007723f,  -0.033600f,  -0.040917f,  -0.016148f,  0.015915f,  0.087246f,
  0.080434f,  0.081868f,  0.027951f,  0.065975f,  0.098777f,  0.059479f,  -0.007283f,  -0.033687f,
  -0.090398f,  -0.078575f,  -0.027653f,  -0.042723f,  -0.035281f,  -0.012022f,  -0.023662f,  -0.016770f,
  -0.022337f,  0.024217f,  0.011624f,  0.050739f,  -0.006975f,  0.000606f,  0.006442f,  0.012900f,
  0.030067f,  0.000712f,  0.013044f,  0.040869f,  0.114226f,  0.087168f,  0.026382f,  0.055705f,
  0.091058f,  0.046658f,  0.024374f,  -0.046896f,  -0.095399f,  -0.113070f,  -0.035680f,  -0.062837f,
  -0.049024f,  0.001223f,  -0.014762f,  -0.000983f,  0.029596f,  -0.024461f,  0.002551f,  -0.009235f,
  0.004543f,  -0.015177f,  -0.002656f,  0.008482f,  -0.015773f,  0.020558f,  0.017491f,  0.054734f,
  0.041059f,  0.015155f,  0.008197f,  0.056740f,  0.008605f,  0.034835f,  0.061765f,  -0.035762f,
  -0.019472f,  0.005050f,  -0.103825f,  -0.026917f,  -0.085140f,  -0.006551f,  -0.022591f,  -0.009218f,
  0.004114f,  -0.002185f,  0.014012f,  0.005585f,  0.009309f,  0.026459f,  0.017733f,  0.005438f,
  -0.000894f,  0.021573f,  -0.002670f,  0.015970f,  0.029436f,  -0.022310f,  -0.038682f,  0.024126f,
  -0.052126f,  0.067967f,  0.044910f,  0.020940f,  0.018140f,  0.102143f,  0.004566f,  0.003670f,
  0.022031f,  -0.009430f,  -0.033885f,  -0.027261f,  -0.001336f,  0.030302f,  0.012708f,  -0.004545f,
  0.067622f,  0.032568f,  0.029722f,  -0.023029f,  -0.027744f,  0.008882f,  -0.026721f,  0.020996f,
  -0.018409f,  -0.057141f,  -0.001868f,  0.046445f,  -0.060341f,  0.062075f,  0.078993f,  0.076373f,
  0.095507f,  0.070926f,  0.091583f,  0.039069f,  -0.011199f,  -0.071827f,  -0.032307f,  0.035026f,
  -0.004314f,  0.012107f,  0.033645f,  -0.011595f,  0.039621f,  0.018758f,  0.022731f,  -0.002942f,
  0.022466f,  0.028737f,  -0.010671f,  -0.030577f,  -0.017293f,  0.025197f,  -0.037745f,  -0.017251f,
  0.002757f,  -0.008657f,  0.114730f,  0.083196f,  0.119354f,  0.045442f,  0.058091f,  0.025209f,
  -0.019723f,  -0.086691f,  -0.045749f,  -0.021394f,  0.010012f,  0.032844f,  -0.000593f,  0.023775f,
  0.027592f,  -0.005659f,  -0.070724f,  -0.005759f,  0.015924f,  -0.025652f,  -0.032100f,  0.008220f,
  -0.040507f,  -0.011507f,  -0.010564f,  -0.007356f,  0.000644f,  0.084425f,  0.047630f,  0.094975f,
  0.060415f,  0.024000f,  0.025619f,  0.035444f,  -0.050326f,  -0.080808f,  -0.031779f,  -0.024127f,
  0.015329f,  0.038717f,  0.031100f,  0.089386f,  0.019041f,  0.000357f,  0.006962f,  -0.043323f,
  -0.032034f,  -0.036044f,  -0.073963f,  -0.044758f,  0.047157f,  0.037410f,  -0.022744f,  0.003180f,
  0.069716f,  0.051950f,  0.097790f,  0.089889f,  0.036234f,  0.030386f,  -0.025625f,  -0.045804f,
  -0.073421f,  -0.053930f,  0.023169f,  0.017401f,  -0.019172f,  -0.023278f,  0.020302f,  0.022162f,
  0.047981f,  -0.003394f,  -0.014431f,  -0.042006f,  -0.031965f,  -0.037847f,  -0.072019f,  -0.001029f,
  0.034140f,  0.009424f,  0.051211f,  -0.008302f,  0.029342f,  0.051023f,  0.079494f,  0.022767f,
  -0.028130f,  -0.036513f,  -0.122338f,  -0.124840f,  -0.086106f,  -0.021003f,  -0.016543f,  0.008867f,
  -0.011046f,  0.015983f,  -0.027447f,  0.037680f,  -0.010182f,  -0.044449f,  -0.043933f,  0.004971f,
  0.006769f,  -0.010812f,  0.004747f,  0.028093f,  0.023963f,  -0.006153f,  0.025794f,  0.029855f,
  0.033001f,  0.042458f,  0.031189f,  -0.051692f,  -0.010286f,  -0.047014f,  -0.077294f,  -0.126425f,
  -0.046684f,  -0.010369f,  -0.027767f,  0.007839f,  -0.017910f,  0.008493f,  -0.002707f,  -0.027633f,
  -0.094807f,  -0.068921f,  -0.059740f,  -0.010423f,  -0.034851f,  -0.049127f,  -0.061453f,  0.036324f,
  0.061638f,  0.037588f,  0.011083f,  0.070609f,  0.063504f,  0.021863f,  0.007389f,  0.005605f,
  -0.008748f,  -0.102442f,  -0.093983f,  -0.131774f,  -0.066006f,  -0.033508f,  0.037690f,  0.003595f,
  -0.024141f,  -0.015872f,  0.028233f,  0.035295f,  -0.064351f,  -0.103441f,  -0.167249f,  -0.073570f,
  -0.082185f,  -0.034756f,  -0.042742f,  0.017010f,  0.001804f,  -0.026852f,  0.044516f,  0.064561f,
  0.082989f,  0.033842f,  0.033180f,  0.051242f,  -0.051338f,  -0.089148f,  -0.042117f,  -0.083431f,
  -0.004878f,  0.027991f,  0.013440f,  -0.006488f,  -0.001834f,  -0.004601f,  0.007828f,  0.040262f,
  0.035312f,  -0.019316f,  -0.081430f,  -0.080212f,  -0.093321f,  -0.028774f,  0.024029f,  0.009944f,
  -0.042190f,  0.015370f,  0.099440f,  0.051349f,  0.077664f,  0.039329f,  0.026475f,  0.047539f,
  -0.038510f,  -0.076845f,  -0.088864f,  -0.078469f,  -0.034270f,  -0.007862f,  0.042170f,  0.019565f,
  0.035875f,  0.033878f,  -0.008009f,  0.043929f,  0.044614f,  0.072078f,  0.049948f,  0.040251f,
  -0.007465f,  -0.013146f,  0.013407f,  0.041155f,  0.004149f,  0.055670f,  0.154806f,  0.099762f,
  0.055861f,  -0.031695f,  -0.054321f,  -0.050902f,  -0.023899f,  -0.047496f,  -0.067546f,  -0.007096f,
  0.020794f,  -0.002570f,  -0.000138f,  0.016875f,  -0.011031f,  0.010111f,  0.000127f,  0.015884f,
  0.000862f,  0.019397f,  0.048272f,  0.013799f,  0.053957f,  0.069212f,  0.063765f,  0.080221f,
  0.070104f,  0.026913f,  0.013497f,  -0.017042f,  -0.032400f,  -0.036296f,  -0.001331f,  -0.059409f,
  -0.055861f,  -0.053691f,  -0.018238f,  -0.037343f,  0.002567f,  0.024319f,  0.023919f,  -0.008221f,
  0.028536f,  0.010020f,  -0.014140f,  0.003270f,  0.021187f,  -0.007750f,  0.011121f,  0.019465f,
  -0.001427f,  -0.008947f,  0.018910f,  -0.024502f,  -0.049412f,  -0.047068f,  -0.060740f,  -0.018639f,
  -0.008792f,  -0.049888f,  0.000138f,  0.012408f,  -0.052255f,  -0.036284f,  -0.014280f,  -0.002134f,
  -0.016641f,  -0.017239f,  -0.001756f,  0.004193f,  -0.016838f,  -0.002502f,  0.037788f,  -0.002088f,
  0.025452f,  0.009123f,  -0.027000f,  0.020525f,  0.034128f,  0.025833f,  0.021443f,  0.024624f,
  0.016311f,  0.029276f,  0.016744f,  -0.024768f,  0.030038f,  0.013673f,  -0.009358f,  0.033050f,
  -0.001276f,  0.028580f,  -0.014868f,  0.025456f,  0.008250f,  0.008074f,  -0.008689f,  0.015527f,
  -0.011338f,  -0.014864f,  -0.003797f,  0.035975f,  -0.001454f,  -0.014424f,  -0.029628f,  0.004363f,
  0.019553f,  0.006247f,  -0.024975f,  -0.004255f,  0.006008f,  -0.031366f,  0.017600f,  0.008536f,
  0.025620f,  -0.026471f,  0.001731f,  -0.000660f,  -0.028061f,  0.019789f,  -0.000537f,  0.017124f,
  0.033274f,  0.010797f,  0.019803f,  0.030290f,  -0.014798f,  0.016298f,  -0.030468f,  0.005357f,
  -0.027078f,  0.030608f,  0.038068f,  -0.011001f,  0.017896f,  0.012711f,  -0.004017f,  -0.003323f,
  -0.029155f,  0.009812f,  0.008005f,  0.014236f,  0.003363f,  -0.024579f,  -0.032265f,  -0.031049f,
  -0.010864f,  -0.010035f,  0.033117f,  -0.011333f,  -0.000139f,  -0.008372f,  0.009763f,  0.028316f,
  0.014681f,  0.014722f,  -0.025297f,  -0.004499f,  -0.009344f,  -0.002826f,  -0.031302f,  0.016020f,
  -0.027993f,  -0.025822f,  0.017803f,  -0.048168f,  -0.027546f,  -0.027578f,  -0.017842f,  -0.023845f,
  0.001377f,  0.011432f,  -0.029691f,  -0.013088f,  -0.001083f,  -0.005285f,  0.013143f,  0.025713f,
  0.033452f,  0.024415f,  0.019892f,  -0.028679f,  -0.015198f,  -0.014150f,  -0.008915f,  0.022823f,
  -0.013478f,  -0.004953f,  0.004719f,  0.005365f,  -0.005003f,  0.009769f,  0.022396f,  0.046432f,
  0.057975f,  -0.026096f,  -0.000837f,  0.036857f,  -0.045265f,  -0.014380f,  0.012314f,  -0.072224f,
  -0.063070f,  -0.072874f,  -0.068838f,  -0.024774f,  -0.045384f,  -0.026783f,  -0.033352f,  0.011556f,
  0.021021f,  0.030920f,  0.025257f,  0.021393f,  0.029748f,  0.021010f,  -0.010529f,  0.051096f,
  0.006153f,  -0.015680f,  0.051423f,  0.054653f,  0.031516f,  0.053777f,  0.005503f,  0.045716f,
  -0.010487f,  -0.014934f,  0.040110f,  -0.003994f,  -0.098292f,  -0.083311f,  -0.098837f,  -0.073298f,
  -0.019996f,  0.028010f,  -0.032400f,  -0.020263f,  -0.022403f,  -0.024519f,  -0.026293f,  -0.019677f,
  0.057837f,  0.034873f,  0.000718f,  0.048162f,  0.055631f,  0.015448f,  0.047689f,  0.001189f,
  0.001630f,  0.034654f,  -0.030689f,  -0.015077f,  0.030079f,  0.002729f,  0.041459f,  -0.043238f,
  -0.129653f,  -0.105129f,  -0.066975f,  -0.073927f,  -0.010405f,  -0.015848f,  -0.008885f,  -0.013182f,
  0.010586f,  0.032616f,  -0.005838f,  0.033972f,  0.079873f,  0.049075f,  0.108177f,  0.057569f,
  0.082124f,  0.031568f,  0.035950f,  -0.003801f,  0.028425f,  -0.002421f,  0.016499f,  -0.057526f,
  0.036899f,  0.071548f,  0.060226f,  0.017951f,  -0.057025f,  -0.098329f,  -0.102262f,  -0.085600f,
  -0.068188f,  -0.054872f,  -0.026362f,  -0.010652f,  0.015903f,  0.014641f,  0.036116f,  0.069031f,
  0.124586f,  0.088032f,  0.092037f,  0.032970f,  -0.047834f,  0.045036f,  -0.020090f,  -0.033494f,
  0.057260f,  0.014143f,  -0.044192f,  -0.033394f,  0.017309f,  0.106387f,  0.013290f,  -0.050979f,
  -0.067997f,  -0.118097f,  -0.151113f,  -0.165713f,  -0.112026f,  -0.011231f,  -0.021011f,  -0.019764f,
  -0.031277f,  -0.012295f,  0.035604f,  0.050651f,  0.113134f,  0.039809f,  -0.003945f,  -0.013837f,
  -0.071164f,  -0.016169f,  -0.006708f,  -0.002537f,  0.016676f,  -0.000853f,  -0.062302f,  -0.063842f,
  0.068084f,  0.141152f,  0.091683f,  -0.068149f,  -0.132539f,  -0.207673f,  -0.185814f,  -0.134256f,
  -0.108720f,  0.009275f,  -0.018272f,  -0.000265f,  0.034140f,  0.004216f,  0.031095f,  0.010556f,
  0.057499f,  -0.003072f,  -0.032390f,  0.001133f,  -0.011789f,  -0.039454f,  0.005635f,  -0.047063f,
  -0.013955f,  -0.083997f,  -0.086898f,  0.068793f,  0.185373f,  0.214391f,  0.057338f,  -0.086737f,
  -0.171584f,  -0.175897f,  -0.110621f,  -0.085170f,  -0.089264f,  0.021980f,  0.025647f,  -0.000135f,
  -0.005014f,  -0.033530f,  0.015083f,  0.022045f,  -0.011015f,  -0.009241f,  -0.066314f,  -0.011924f,
  -0.044475f,  -0.068225f,  -0.023468f,  -0.040248f,  -0.027285f,  -0.056861f,  -0.045855f,  0.117422f,
  0.208017f,  0.173089f,  0.074247f,  -0.109277f,  -0.210221f,  -0.134578f,  -0.071043f,  -0.049891f,
  -0.048556f,  0.002903f,  0.010014f,  0.016309f,  0.031751f,  0.010324f,  -0.012827f,  -0.009834f,
  -0.005072f,  -0.036975f,  -0.078106f,  -0.045028f,  -0.026058f,  0.008074f,  0.011091f,  -0.074387f,
  -0.107092f,  -0.047994f,  0.008098f,  0.095712f,  0.115874f,  0.105990f,  -0.004186f,  -0.072865f,
  -0.057111f,  -0.100277f,  -0.055781f,  -0.103408f,  -0.074963f,  -0.017744f,  -0.032819f,  -0.006824f,
  -0.003866f,  0.030143f,  0.022577f,  -0.021006f,  -0.067820f,  -0.110909f,  -0.081674f,  -0.051111f,
  0.009816f,  0.043591f,  0.029448f,  -0.049452f,  0.003820f,  0.011986f,  0.023575f,  0.104642f,
  0.076003f,  0.082944f,  -0.017466f,  -0.083816f,  -0.026113f,  -0.068460f,  -0.059114f,  -0.050098f,
  0.042071f,  0.011032f,  0.015778f,  0.008200f,  0.019251f,  -0.032688f,  -0.024627f,  -0.023235f,
  -0.088114f,  -0.090151f,  -0.019187f,  -0.013270f,  0.018710f,  0.018390f,  0.029334f,  -0.029102f,
  0.017480f,  0.050522f,  0.081152f,  0.042022f,  0.063423f,  0.075744f,  -0.015368f,  -0.023754f,
  0.016685f,  0.015749f,  0.022659f,  0.004643f,  0.025075f,  0.074305f,  0.039916f,  -0.011979f,
  -0.026960f,  0.015017f,  0.018813f,  0.012121f,  -0.044376f,  -0.076355f,  -0.065818f,  -0.006406f,
  0.002654f,  0.030176f,  -0.055711f,  -0.037630f,  0.067354f,  0.031334f,  0.046675f,  0.045257f,
  0.042622f,  0.037170f,  -0.014591f,  0.034243f,  0.039417f,  0.035587f,  -0.016788f,  0.013878f,
  -0.005520f,  0.068799f,  0.011865f,  0.039249f,  -0.029534f,  -0.019204f,  0.036623f,  -0.004414f,
  0.021694f,  -0.044585f,  -0.026163f,  -0.012194f,  -0.073531f,  -0.089776f,  -0.062798f,  0.004943f,
  0.026799f,  0.047454f,  0.045190f,  0.065973f,  0.043512f,  0.016994f,  0.009987f,  -0.004050f,
  0.052396f,  0.017305f,  0.019320f,  0.000914f,  0.023947f,  0.048557f,  0.016813f,  -0.009743f,
  0.031902f,  -0.025111f,  -0.012496f,  0.017239f,  -0.004969f,  -0.031918f,  -0.081274f,  -0.067828f,
  -0.094706f,  -0.049630f,  -0.069311f,  -0.008656f,  0.023068f,  0.022550f,  -0.002519f,  0.024483f,
  0.015676f,  -0.004197f,  -0.005505f,  0.023424f,  -0.024296f,  -0.044474f,  0.000483f,  0.015062f,
  0.080249f,  0.044837f,  0.054946f,  -0.012975f,  -0.029090f,  0.026950f,  -0.012558f,  -0.000516f,
  0.051896f,  -0.009510f,  -0.031416f,  0.009036f,  -0.016090f,  -0.061206f,  -0.068929f,  -0.015390f,
  0.020355f,  0.085408f,  0.043764f,  0.001947f,  -0.011143f,  0.000071f,  -0.044141f,  -0.010237f,
  0.016056f,  0.008499f,  0.005119f,  0.070273f,  0.048830f,  0.026285f,  0.017738f,  -0.007439f,
  -0.000159f,  0.023964f,  0.036875f,  0.034957f,  0.023373f,  0.035644f,  0.023330f,  0.055546f,
  0.030310f,  -0.009159f,  -0.030731f,  0.000466f,  -0.023789f,  -0.035655f,  -0.025103f,  -0.016523f,
  0.026771f,  0.028024f,  -0.038189f,  -0.025664f,  -0.026839f,  0.028202f,  0.013254f,  0.082087f,
  0.055774f,  0.007908f,  0.043238f,  0.036353f,  0.017212f,  -0.018066f,  -0.012064f,  0.065152f,
  0.034297f,  0.045386f,  0.080850f,  0.062783f,  0.002341f,  -0.004749f,  -0.025705f,  -0.059283f,
  -0.094414f,  -0.112019f,  -0.125056f,  -0.076975f,  -0.009316f,  -0.006994f,  -0.026507f,  -0.028932f,
  0.006731f,  0.037528f,  0.071095f,  0.032156f,  -0.008617f,  -0.014277f,  -0.024229f,  0.038996f,
  0.000890f,  0.009238f,  0.015454f,  0.026752f,  0.083951f,  0.065836f,  0.068900f,  0.068381f,
  -0.014574f,  -0.051404f,  -0.097656f,  -0.108462f,  -0.154578f,  -0.087136f,  -0.114546f,  -0.045456f,
  -0.004237f,  0.024386f,  0.070146f,  -0.031580f,  0.045685f,  0.015383f,  0.010706f,  -0.038131f,
  0.013760f,  -0.009381f,  0.025229f,  0.028589f,  0.016249f,  -0.004994f,  -0.002954f,  0.063391f,
  0.028911f,  -0.010633f,  0.042236f,  0.064040f,  0.028564f,  -0.027071f,  -0.014175f,  -0.078982f,
  -0.100448f,  -0.037770f,  -0.065838f,  0.008119f,  -0.016177f,  0.018883f,  0.065050f,  0.024569f,
  -0.011026f,  0.016890f,  -0.003243f,  0.013533f,  -0.055968f,  -0.025258f,  0.007395f,  0.036315f,
  0.015231f,  -0.014160f,  -0.017142f,  0.069303f,  0.018408f,  0.029631f,  0.013752f,  0.034351f,
  0.026942f,  -0.023837f,  0.019108f,  -0.014503f,  -0.086532f,  -0.063440f,  -0.064478f,  -0.060073f,
  -0.016593f,  -0.005906f,  0.025049f,  0.059069f,  0.084447f,  0.101633f,  0.027592f,  -0.036638f,
  -0.050380f,  -0.003906f,  -0.024869f,  0.022329f,  -0.010003f,  0.026005f,  -0.006331f,  0.043880f,
  0.041854f,  0.004235f,  0.020463f,  0.016987f,  0.069408f,  -0.029121f,  0.015377f,  -0.004980f,
  -0.017853f,  -0.098152f,  -0.101449f,  -0.066511f,  -0.058685f,  0.069938f,  0.140526f,  0.112508f,
  0.118590f,  0.059083f,  -0.023128f,  -0.010603f,  0.005214f,  0.017104f,  -0.004908f,  0.035347f,
  0.027681f,  0.028976f,  0.029035f,  0.029419f,  0.064679f,  0.018872f,  0.029617f,  0.040374f,
  0.047214f,  -0.001624f,  0.021376f,  -0.007259f,  -0.108169f,  -0.067342f,  -0.034925f,  -0.051431f,
  0.006303f,  0.039365f,  0.086592f,  0.025308f,  0.030248f,  0.055308f,  -0.013445f,  0.000609f,
  -0.028324f,  -0.024498f,  0.030340f,  -0.030211f,  0.015272f,  0.007277f,  0.039115f,  0.031325f,
  0.001103f,  0.021514f,  0.002918f,  0.026879f,  0.077040f,  0.083168f,  0.053708f,  -0.059404f,
  -0.070076f,  0.030229f,  -0.002341f,  -0.076230f,  -0.034293f,  -0.016148f,  -0.025861f,  0.004021f,
  0.031362f,  -0.031117f,  0.010042f,  -0.013848f,  0.015527f,  -0.018466f,  -0.001762f,  0.027589f,
  0.019932f,  -0.001725f,  -0.019756f,  0.010479f,  0.003937f,  0.024231f,  0.029563f,  -0.000347f,
  -0.025508f,  0.034287f,  0.034041f,  -0.005605f,  -0.028227f,  0.013659f,  -0.030629f,  -0.063469f,
  -0.012302f,  -0.009412f,  -0.024633f,  0.001313f,  0.013819f,  -0.015628f,  0.027968f,  -0.020844f,
  -0.024095f,  -0.003353f,  -0.014482f,  0.003917f,  -0.022559f,  -0.003865f,  0.015749f,  0.002700f,
  0.017347f,  0.002223f,  -0.005111f,  0.004732f,  -0.029705f,  -0.006258f,  -0.031679f,  -0.023595f,
  -0.001082f,  -0.012236f,  0.014074f,  0.040008f,  -0.019197f,  0.029950f,  0.015165f,  0.024122f,
  0.012687f,  0.032398f,  0.030909f,  -0.005797f,  0.010748f,  0.006927f,  -0.027777f,  -0.013102f,
  0.041650f,  -0.004493f,  0.005937f,  0.003370f,  0.019917f,  0.037117f,  0.021587f,  -0.023728f,
  0.019385f,  -0.020465f,  0.004749f,  0.022716f,  0.013590f,  -0.008609f,  0.007960f,  0.010505f,
  0.026082f,  -0.001309f,  0.014897f,  0.016424f,  0.041845f,  0.026755f,  0.005487f,  0.001855f,
  0.004249f,  -0.027912f,  0.032312f,  0.006185f,  -0.025576f,  0.037682f,  -0.004019f,  -0.019790f,
  -0.010364f,  0.020402f,  0.023460f,  0.022607f,  0.004780f,  0.039144f,  0.009747f,  0.023270f,
  -0.021971f,  -0.019669f,  0.039556f,  -0.030231f,  0.004846f,  -0.028755f,  -0.008712f,  -0.014352f,
  -0.005530f,  0.004093f,  0.005326f,  -0.022450f,  0.028330f,  0.026755f,  0.017250f,  0.008772f,
  0.038279f,  0.016159f,  -0.013991f,  -0.013655f,  0.000281f,  -0.006281f,  -0.014201f,  -0.028359f,
  -0.017598f,  -0.030135f,  -0.016346f,  -0.046161f,  -0.016218f,  -0.041751f,  -0.057150f,  -0.034827f,
  -0.030921f,  -0.044585f,  -0.020079f,  0.013203f,  -0.016941f,  0.022158f,  0.005439f,  -0.005159f,
  -0.023906f,  -0.005112f,  -0.010428f,  -0.001699f,  0.012029f,  0.009692f,  0.010377f,  0.000016f,
  0.023299f,  0.020695f,  -0.053704f,  -0.002347f,  -0.052726f,  -0.074245f,  -0.077182f,  -0.040310f,
  -0.026844f,  -0.023435f,  0.010444f,  0.030292f,  0.018040f,  0.061671f,  0.035434f,  -0.066312f,
  -0.022425f,  -0.049392f,  -0.006942f,  -0.009888f,  -0.024541f,  0.017333f,  0.039701f,  -0.023759f,
  -0.020362f,  0.025357f,  0.031962f,  -0.023298f,  0.037150f,  0.005253f,  -0.027836f,  -0.064997f,
  -0.082568f,  -0.094487f,  -0.069744f,  -0.071522f,  -0.078322f,  -0.012836f,  -0.061846f,  0.020299f,
  0.006266f,  0.022512f,  0.033917f,  -0.018687f,  -0.054201f,  -0.057472f,  -0.016512f,  -0.075299f,
  0.002138f,  0.040187f,  -0.001924f,  0.022171f,  -0.016617f,  -0.027191f,  -0.009997f,  -0.024455f,
  0.020592f,  -0.020033f,  -0.027307f,  0.007189f,  -0.011676f,  -0.090557f,  -0.072824f,  -0.088287f,
  -0.028853f,  -0.081038f,  -0.031722f,  -0.001592f,  -0.029449f,  -0.038038f,  0.013631f,  -0.003433f,
  -0.078927f,  -0.076023f,  -0.043685f,  -0.070627f,  -0.020247f,  -0.002242f,  -0.032713f,  0.027315f,
  0.015332f,  0.008336f,  0.039757f,  0.031943f,  0.037815f,  -0.021683f,  -0.040364f,  -0.041095f,
  -0.014973f,  -0.037854f,  -0.043633f,  -0.038142f,  -0.014451f,  0.006491f,  -0.042436f,  -0.041479f,
  0.023569f,  0.021405f,  0.071985f,  -0.010587f,  -0.033457f,  0.038973f,  0.012571f,  -0.090760f,
  -0.082366f,  0.009525f,  0.033500f,  -0.013715f,  -0.013769f,  0.009682f,  0.005333f,  0.003027f,
  0.010436f,  -0.048951f,  -0.042490f,  -0.051154f,  -0.080785f,  -0.018474f,  -0.040031f,  -0.060100f,
  0.004730f,  -0.037832f,  -0.020774f,  -0.031021f,  -0.005639f,  0.021402f,  0.065629f,  0.041213f,
  0.007998f,  -0.028096f,  -0.037392f,  0.024808f,  -0.057107f,  0.008558f,  0.004552f,  -0.025096f,
  0.006661f,  0.032775f,  0.045393f,  0.033764f,  0.011626f,  -0.003121f,  -0.002920f,  -0.014468f,
  -0.000468f,  -0.007764f,  0.021660f,  -0.024018f,  0.025707f,  0.000928f,  -0.021013f,  -0.009917f,
  0.018822f,  0.055228f,  0.135195f,  0.044570f,  0.001006f,  -0.002942f,  -0.021295f,  0.014411f,
  -0.039838f,  -0.070496f,  -0.008858f,  -0.026987f,  0.039305f,  0.050364f,  0.055114f,  0.060446f,
  0.024041f,  0.066971f,  0.025621f,  0.010710f,  0.035019f,  0.038562f,  -0.048301f,  -0.011595f,
  0.028534f,  0.004050f,  -0.010723f,  -0.011888f,  0.052400f,  0.051754f,  0.103122f,  0.067725f,
  0.060492f,  0.052732f,  -0.000672f,  -0.031815f,  -0.025445f,  -0.061102f,  0.020234f,  -0.018343f,
  0.042309f,  -0.010112f,  0.065993f,  0.093412f,  0.070721f,  0.047741f,  -0.009306f,  0.012436f,
  0.022405f,  0.024353f,  -0.036921f,  0.013446f,  -0.089686f,  0.009498f,  -0.022892f,  0.061783f,
  0.065656f,  0.054597f,  0.061391f,  0.095328f,  0.141009f,  0.092207f,  0.055896f,  -0.006514f,
  -0.047825f,  -0.026724f,  -0.018485f,  -0.022864f,  -0.017765f,  0.007382f,  0.028797f,  0.111926f,
  0.040006f,  0.007067f,  -0.041386f,  -0.014844f,  0.028982f,  -0.032335f,  0.039962f,  -0.002024f,
  -0.024338f,  0.021005f,  0.046922f,  0.026439f,  0.000614f,  0.044930f,  0.074340f,  0.029356f,
  0.104316f,  0.103933f,  0.084803f,  0.014191f,  -0.030182f,  -0.050060f,  -0.005060f,  0.035084f,
  0.006754f,  0.004728f,  0.052539f,  0.053774f,  0.047069f,  0.036142f,  -0.036096f,  0.040713f,
  0.053327f,  -0.009835f,  0.010169f,  -0.007291f,  0.025108f,  -0.058272f,  0.034198f,  0.076154f,
  0.009794f,  -0.005092f,  0.008444f,  0.089638f,  0.021563f,  0.034136f,  0.085209f,  0.016664f,
  -0.093203f,  0.007809f,  -0.006655f,  -0.010628f,  -0.027777f,  -0.008415f,  0.041599f,  0.075562f,
  0.063343f,  0.062436f,  0.022113f,  0.028898f,  -0.026796f,  -0.041508f,  0.024687f,  0.046053f,
  -0.041290f,  -0.036733f,  0.001010f,  0.044259f,  -0.031372f,  -0.080939f,  0.039322f,  0.067640f,
  0.045087f,  0.080739f,  0.061678f,  -0.065550f,  -0.036966f,  0.009074f,  0.010271f,  0.008601f,
  0.029211f,  -0.009827f,  0.005152f,  0.030379f,  0.069637f,  0.019008f,  0.005687f,  0.000754f,
  0.016791f,  -0.003757f,  -0.019300f,  -0.001681f,  0.017190f,  0.033987f,  0.041910f,  0.009867f,
  -0.099840f,  -0.032414f,  -0.022245f,  0.093560f,  0.109568f,  0.060084f,  0.017848f,  0.001374f,
  -0.030922f,  -0.037158f,  -0.000687f,  -0.025033f,  0.039688f,  0.039999f,  -0.005910f,  -0.021668f,
  -0.018040f,  0.049921f,  0.000453f,  0.047679f,  0.039713f,  -0.004976f,  0.037724f,  0.000924f,
  -0.017145f,  -0.047247f,  0.042106f,  0.063806f,  -0.030518f,  -0.056306f,  0.029890f,  0.047865f,
  0.110472f,  0.102745f,  0.080574f,  0.029630f,  0.039713f,  -0.059771f,  -0.022662f,  -0.010311f,
  -0.018892f,  0.015140f,  0.045813f,  -0.018108f,  0.018639f,  -0.014248f,  -0.031533f,  -0.002739f,
  0.081019f,  0.057369f,  -0.002021f,  -0.081996f,  -0.020224f,  0.008250f,  -0.028176f,  -0.032347f,
  -0.008300f,  -0.041243f,  -0.007390f,  -0.014314f,  0.064290f,  0.017096f,  -0.032413f,  -0.007620f,
  -0.020987f,  -0.047640f,  -0.020119f,  0.013663f,  0.020349f,  0.023178f,  0.025142f,  -0.007196f,
  -0.042598f,  -0.032550f,  -0.069357f,  0.005976f,  0.003459f,  -0.046767f,  -0.031779f,  -0.045890f,
  -0.040200f,  -0.016882f,  -0.018675f,  -0.024137f,  -0.047109f,  0.000500f,  0.001729f,  0.013874f,
  -0.002982f,  0.022119f,  -0.032685f,  0.001862f,  -0.009393f,  0.000131f,  -0.015602f,  0.003127f,
  0.012887f,  0.013922f,  0.000349f,  0.003381f,  -0.040995f,  -0.052550f,  -0.113651f,  -0.022434f,
  -0.009115f,  -0.075895f,  -0.068007f,  -0.070812f,  -0.100227f,  -0.040557f,  -0.039665f,  -0.043334f,
  -0.047515f,  -0.043267f,  -0.005706f,  -0.008549f,  0.005754f,  -0.017888f,  -0.021168f,  -0.112698f,
  -0.127760f,  -0.007818f,  -0.013099f,  0.027627f,  0.003487f,  0.011328f,  0.012142f,  -0.056375f,
  -0.020866f,  -0.102719f,  -0.067012f,  -0.052849f,  -0.049722f,  -0.078493f,  -0.101514f,  -0.095714f,
  -0.073507f,  -0.044149f,  -0.006847f,  -0.061525f,  -0.084333f,  -0.039009f,  -0.075758f,  -0.023872f,
  -0.027024f,  -0.046530f,  -0.063371f,  -0.175633f,  -0.046300f,  0.002723f,  -0.004420f,  -0.009005f,
  -0.028417f,  -0.014182f,  -0.021170f,  -0.030931f,  0.001639f,  0.009827f,  -0.054052f,  -0.097454f,
  -0.056571f,  -0.051686f,  -0.022936f,  -0.034529f,  -0.026859f,  -0.034788f,  -0.022632f,  -0.077863f,
  -0.086624f,  -0.072174f,  -0.124360f,  -0.070559f,  -0.048253f,  -0.043767f,  -0.114686f,  -0.139410f,
  -0.028288f,  -0.016103f,  -0.028057f,  0.041779f,  0.027361f,  0.033681f,  -0.001160f,  -0.033804f,
  0.010251f,  0.037532f,  0.027011f,  -0.004220f,  -0.039890f,  -0.035229f,  -0.011046f,  -0.010800f,
  -0.020171f,  -0.035472f,  -0.008055f,  -0.048836f,  -0.101885f,  -0.103581f,  -0.175553f,  -0.137042f,
  -0.108985f,  -0.074120f,  -0.108783f,  -0.135250f,  -0.003234f,  -0.001240f,  -0.020076f,  -0.025764f,
  -0.020081f,  -0.006320f,  -0.021289f,  0.005924f,  -0.025451f,  0.070771f,  0.048911f,  0.065550f,
  -0.017473f,  -0.018242f,  -0.020847f,  -0.035355f,  0.017707f,  0.004809f,  -0.014486f,  -0.027173f,
  -0.116070f,  -0.091830f,  -0.111412f,  -0.059914f,  -0.109879f,  -0.059993f,  -0.047119f,  -0.028459f,
  -0.017172f,  -0.009980f,  0.018487f,  0.009379f,  -0.001492f,  0.030307f,  -0.014065f,  0.023040f,
  0.011888f,  0.071633f,  0.095706f,  0.075995f,  -0.023275f,  -0.028452f,  0.019418f,  0.036057f,
  -0.012556f,  -0.014241f,  -0.022112f,  0.016572f,  -0.116450f,  -0.109382f,  -0.113320f,  -0.097504f,
  -0.122374f,  -0.078700f,  -0.066479f,  0.001007f,  0.008702f,  0.008360f,  0.002675f,  0.007214f,
  -0.024099f,  -0.019430f,  -0.001012f,  0.040308f,  0.027736f,  0.084034f,  0.028734f,  0.056144f,
  0.021465f,  0.024842f,  0.058612f,  0.029321f,  0.050867f,  0.010538f,  -0.020085f,  -0.066927f,
  -0.119025f,  -0.118892f,  -0.175424f,  -0.116429f,  -0.068270f,  -0.016814f,  0.001067f,  -0.013111f,
  -0.017605f,  0.012205f,  0.031447f,  0.031226f,  -0.005444f,  0.002690f,  -0.002664f,  0.031707f,
  0.018159f,  0.043060f,  0.055848f,  0.028090f,  0.019860f,  0.054559f,  0.028452f,  0.043208f,
  0.031464f,  0.016081f,  0.055395f,  -0.016296f,  -0.025352f,  -0.095338f,  -0.060349f,  -0.007693f,
  -0.000761f,  0.005730f,  -0.049406f,  0.012874f,  -0.029214f,  -0.027277f,  -0.002789f,  0.019466f,
  0.010390f,  0.026824f,  -0.023641f,  0.021715f,  -0.026531f,  -0.035875f,  -0.000961f,  0.025505f,
  0.079342f,  0.084878f,  0.032762f,  0.017455f,  -0.001875f,  0.079583f,  0.072231f,  0.058548f,
  0.091155f,  0.073947f,  0.046254f,  0.016061f,  0.025718f,  0.032529f,  0.011312f,  -0.006824f,
  -0.001950f,  -0.012664f,  0.025587f,  -0.011810f,  0.013013f,  -0.008480f,  -0.013933f,  0.035113f,
  -0.020469f,  0.016077f,  0.028239f,  0.045479f,  0.002227f,  0.014519f,  0.044857f,  0.022885f,
  -0.009954f,  -0.014162f,  0.026041f,  -0.002034f,  -0.012189f,  0.034172f,  0.046497f,  0.014690f,
  0.005607f,  0.041641f,  0.015371f,  0.002956f,  -0.008979f,  0.002450f,  -0.020024f,  -0.000496f,
  -0.002658f,  -0.021596f,  -0.043130f,  0.024581f,  -0.012871f,  -0.022316f,  0.020623f,  -0.038500f,
  -0.000767f,  0.016648f,  -0.045183f,  -0.041528f,  -0.033245f,  -0.026231f,  0.019164f,  0.016448f,
  -0.044637f,  -0.001893f,  0.017379f,  -0.001384f,  -0.031823f,  -0.022735f,  -0.023344f,  -0.029944f,
  0.010409f,  -0.004888f,  -0.028480f,  -0.026424f,  -0.042579f,  -0.016202f,  -0.042116f,  0.005175f,
  -0.006298f,  -0.042327f,  -0.005651f,  0.007581f,  0.024389f,  -0.017245f,  -0.011746f,  -0.002416f,
  -0.037708f,  -0.018955f,  0.000696f,  -0.035924f,  -0.001766f,  -0.016881f,  0.003203f,  0.008346f,
  -0.032777f,  0.016381f,  0.022198f,  -0.042371f,  0.002849f,  -0.043690f,  0.014117f,  -0.014725f,
  -0.030322f,  0.019654f,  -0.010628f,  0.005533f,  -0.001295f,  -0.039220f,  -0.001070f,  -0.005800f,
  0.010933f,  -0.004040f,  -0.014555f,  -0.052767f,  -0.036240f,  -0.060417f,  -0.044326f,  -0.048209f,
