{"fc1.weight": [[0.037512924522161484, 0.02965656854212284, 0.020201077684760094, 0.012607567943632603, -0.018766386434435844, 0.036837656050920486, -0.011090291664004326, 0.03720181807875633, 0.03339717909693718, 0.03362226113677025, 0.023371821269392967, -0.004047747235745192, 0.00638459762558341, -0.030047645792365074, 0.01596291922032833, -0.028885578736662865, -0.0006816334207542241, 0.023949699476361275, -0.0005453676567412913, 0.010799987241625786, 0.03581869229674339, 0.027755316346883774, -0.0320395790040493, -0.017720768228173256, -0.00695660850033164, -0.017472367733716965, -0.002211779821664095, -0.032434385269880295, -0.023441961035132408, 0.029067890718579292, 0.013913661241531372, 0.006579989101737738, 0.006268813740462065, -0.015996793285012245, -0.018038563430309296, -0.008516657166182995, -0.016651727259159088, -0.014786959625780582, -0.021473893895745277, -0.007280721794813871, 0.009083066135644913, 0.0005661953473463655, 0.001879290328361094, -0.024510199204087257, -0.023997433483600616, 0.025781290605664253, -0.022361677139997482, 0.018944786861538887, 0.0014829720603302121, -0.028227627277374268, -0.01250484585762024, -0.023025868460536003, 0.010180392302572727, -0.025849534198641777, 0.021799283102154732, 0.022513678297400475, 0.034319374710321426, -0.011328620836138725, 0.0099067697301507, -0.005796789191663265, 0.02468470297753811, 0.006989124696701765, 0.011017560958862305, 0.02180919237434864, -0.018176114186644554, -0.036602336913347244, -0.004549697041511536, -0.030134009197354317, 0.03562900051474571, 0.01181650348007679, 0.011323126032948494, 0.05576024577021599, 0.08487976342439651, 0.06993940472602844, 0.03789578378200531, 0.03302217274904251, 0.017350276932120323, 0.04027009382843971, 0.012035398744046688, -0.00594918429851532, -0.03042932227253914, -0.027045490220189095, 0.027262983843684196, -0.028462661430239677, 0.0001452911674277857, -0.03127739951014519, 0.030392445623874664, 0.03718700632452965, 0.032724346965551376, 0.03295234218239784, 0.024095116183161736, -0.010577717795968056, 0.022553125396370888, -0.01026363018900156, 0.02650926634669304, -0.023375453427433968, -0.01608230173587799, -0.004526827018707991, 0.09391920268535614, 0.10509618371725082, 0.07167136669158936, 0.05427257716655731, 0.025927923619747162, -0.005358913913369179, 0.03397547826170921, 0.04005196690559387, -0.02504882402718067, -0.003960366360843182, -0.0035340269096195698, 0.01794428378343582, -0.032187320291996, -0.01850813440978527, 0.014474614523351192, -0.008379843086004257, -0.02874688245356083, 0.01175724808126688, 0.008608602918684483, 0.00013210545876063406, 0.021834611892700195, 0.024453911930322647, 0.06506381928920746, 0.08576583862304688, 0.03655358403921127, 0.08116026222705841, 0.018901005387306213, 0.027074996381998062, 0.048822153359651566, 0.1031106561422348, 0.06081260368227959, -0.025198156014084816, 0.0974750965833664, 0.06321752071380615, 0.03479381650686264, 0.06921446323394775, 0.06610144674777985, -0.0142752043902874, 0.046952057629823685, -6.922780448803678e-05, -0.029014654457569122, -0.021106567233800888, 0.015995381399989128, 0.007734110113233328, -0.02619498036801815, -0.004884426482021809, 0.030446164309978485, 0.07395459711551666, 0.028235575184226036, -0.0016592838801443577, 0.04866257682442665, 0.05032334104180336, 0.04380049183964729, 0.05368639901280403, -0.01076060626655817, 0.08366984874010086, 0.03153010085225105, 0.07248228043317795, 0.045727308839559555, 0.022148607298731804, 0.041511014103889465, 0.05062573775649071, 0.03615744411945343, 0.01888524554669857, 0.04929160326719284, 0.02308892458677292, 0.04908437281847, 0.056441277265548706, -0.0021061780862510204, 0.014917496591806412, 0.03257271274924278, 0.021927470341324806, -0.02086736634373665, -0.010501479730010033, 0.039837051182985306, 0.03346327319741249, -0.011755789630115032, -0.018392134457826614, 0.045263130217790604, 0.003478891449049115, 0.034372758120298386, 0.06041048467159271, 0.03642154484987259, 0.023701777681708336, 0.035854488611221313, 0.021118056029081345, 0.024106306955218315, 0.04565044865012169, 0.08085665851831436, 0.057466208934783936, 0.0898846760392189, 0.027175020426511765, -0.006228163372725248, 0.005767766386270523, 0.039686430245637894, 0.04826340079307556, -0.012881938368082047, -0.006192655302584171, -0.022863859310746193, 0.021639786660671234, -0.018234025686979294, -0.011598574928939342, -0.010136199183762074, 0.03282376006245613, 0.0069567556492984295, -0.0020863187965005636, 0.04229471832513809, 0.009290533140301704, 0.055823568254709244, 0.060509927570819855, 0.044201504439115524, 0.01338280737400055, 0.05937216430902481, -0.0337577722966671, 0.05425148829817772, 0.033433154225349426, 0.019446881487965584, 0.017874769866466522, 0.030048588290810585, -0.016466520726680756, -0.057360220700502396, -0.03451063483953476, -0.052807603031396866, 0.05222192034125328, 0.022280259057879448, 0.03336096182465553, 0.021244313567876816, 0.028155647218227386, -0.004800163675099611, 0.00860639289021492, -0.02433088608086109, 0.02229328267276287, -0.00852628331631422, -0.003973334562033415, -0.03313983231782913, 0.007830196060240269, -0.016918480396270752, 0.020516011863946915, -0.024973122403025627, 0.0028218692168593407, 0.0489625446498394, 0.01778043992817402, -0.08926291763782501, -0.06530700623989105, -0.0583639033138752, -0.048076335340738297, -0.052620768547058105, -0.03744666278362274, -0.06457287818193436, -0.08632556349039078, -0.03229721635580063, -0.022018248215317726, 0.017823435366153717, 0.007404714822769165, 0.0341535247862339, 0.018949955701828003, 0.030582932755351067, 0.03860613331198692, 0.07223130762577057, 0.05260881036520004, 0.029787419363856316, 0.08910369873046875, 0.0024425112642347813, 0.00848002452403307, 0.0036592157557606697, -0.01152030099183321, -0.0008368285489268601, 0.054473694413900375, 0.04725613817572594, 0.02526179514825344, -0.10555471479892731, -0.15441946685314178, -0.11546297371387482, -0.15135344862937927, -0.06932530552148819, -0.09496814012527466, -0.03372912481427193, -0.08370288461446762, -0.04182346537709236, 0.010484650731086731, 0.011091445572674274, -0.01926378160715103, 0.014644261449575424, -0.0052820416167378426, 0.014087509363889694, 0.028088437393307686, 0.09250958263874054, 0.07500307261943817, 0.02099333330988884, 0.0255045834928751, 0.04410596564412117, 0.004150677006691694, -0.06874417513608932, -0.007554789539426565, 0.015145032666623592, 0.057515937834978104, -0.025673096999526024, -0.022828299552202225, -0.016680844128131866, -0.007890181615948677, -0.0874602347612381, -0.06405529379844666, -0.13376787304878235, -0.08416645973920822, -0.12452859431505203, -0.10394282639026642, -0.03963511437177658, -0.021503441035747528, 0.03346914425492287, -0.0019309638300910592, 0.011067843064665794, -0.014063381589949131, 0.038903750479221344, 0.03406928852200508, 0.058201130479574203, 0.012475382536649704, -0.002256709150969982, -0.06907618790864944, -0.04207942262291908, -0.0816110149025917, -0.023302141577005386, -0.048549849539995193, 0.026553919538855553, 0.0007591522880829871, 0.011967596597969532, -0.019177481532096863, 0.026410091668367386, 0.06585594266653061, 0.06479228287935257, 0.006070795003324747, -0.029012050479650497, -0.11720383912324905, -0.06483837217092514, -0.06638535857200623, -0.04247388243675232, -0.033010903745889664, 0.011655043810606003, 0.030480723828077316, -0.008165382780134678, 0.03540702536702156, 0.01967455819249153, 0.03409162163734436, 0.02368125319480896, 0.06342332065105438, -0.025412635877728462, -0.01702374778687954, -0.019892770797014236, -0.03408246114850044, -0.031210239976644516, 0.057087015360593796, 0.05465695634484291, 0.011583042331039906, 0.008243094198405743, 0.00663713039830327, 0.02993202395737171, 0.05593303591012955, 0.05556214228272438, 0.029975218698382378, 0.017825523391366005, 0.03167751058936119, -0.028026022017002106, -0.03694462031126022, -0.08711834996938705, -0.04924176633358002, 0.03279721736907959, -0.02606172300875187, 0.011305145919322968, 0.02804788388311863, -0.015243061818182468, 0.012291702441871166, 0.009703541174530983, 0.04147748276591301, -0.025044947862625122, -0.014047039672732353, -0.01919979229569435, 0.01027262769639492, 0.03706011921167374, 0.011523410677909851, 0.021558629348874092, -0.0020422551315277815, 0.06079795956611633, 0.039243124425411224, 0.042333461344242096, 0.038873061537742615, -0.001744393608532846, 0.008468713611364365, -0.006802301853895187, 0.07949739694595337, 0.038850560784339905, 0.027864620089530945, 0.017713870853185654, -0.00807530339807272, -0.03273240476846695, 0.029552068561315536, 0.003577288705855608, 0.016510821878910065, -0.0034936517477035522, -0.02319151721894741, -0.05028263106942177, -0.08228287845849991, -0.0971798524260521, -0.06233057379722595, 0.010490808635950089, 0.061512965708971024, 0.03979168459773064, -0.011872198432683945, 0.04035792127251625, 0.021045638248324394, 0.08917804807424545, 0.07222791016101837, -0.017720069736242294, -0.050289154052734375, -0.046930961310863495, -0.02127043530344963, -0.004444691818207502, 0.01464044488966465, 0.07891292124986649, 0.07092605531215668, 0.04727606102824211, -0.004400149453431368, 0.011289888992905617, -0.010191060602664948, -0.03038680925965309, -0.007889481261372566, -0.014372950419783592, -0.02312164567410946, 0.0026248060166835785, -0.0779070183634758, -0.15022379159927368, -0.18489494919776917, -0.17966091632843018, -0.026557544246315956, 0.0041086929850280285, 0.016080379486083984, 0.04963703453540802, 0.003201676532626152, 0.017374074086546898, 0.026596220210194588, -0.037895940244197845, 0.010765081271529198, 0.02741266041994095, -0.06806308031082153, 0.0035048567224293947, 0.06966197490692139, 0.11804119497537613, 0.13578951358795166, 0.020677467808127403, -0.03744920343160629, 0.0334792360663414, 0.017370423302054405, 0.01326120924204588, 0.010279989801347256, -0.0028101082425564528, 0.017674777656793594, -0.057140059769153595, -0.06833227723836899, -0.19303017854690552, -0.26797008514404297, -0.29001596570014954, -0.23450663685798645, -0.15316270291805267, -0.014756507240235806, -0.006909807212650776, -0.03986157104372978, 0.01568082720041275, 0.04236435145139694, 2.3943051928654313e-05, -0.006911492440849543, 0.03617163747549057, 0.02078312821686268, 0.008616956882178783, 0.05382848531007767, 0.08147764205932617, 0.029927866533398628, 0.09093579649925232, 0.012575777247548103, -0.004334226716309786, 0.03183126822113991, -0.027212245389819145, 0.029379259794950485, 0.03270863741636276, 0.0386480987071991, -0.02469717524945736, -0.0909084901213646, -0.17034292221069336, -0.2573856711387634, -0.2895962595939636, -0.3402869403362274, -0.37486499547958374, -0.32700175046920776, -0.3321409821510315, -0.20588940382003784, -0.027636252343654633, 0.05600400269031525, -0.03430725261569023, -0.0030538178980350494, 0.017189500853419304, -0.008937004953622818, 0.011770132929086685, 0.04668498411774635, -0.020636649802327156, 0.03402943164110184, 0.030568543821573257, -0.025594206526875496, 0.0024029379710555077, -0.004629331640899181, -0.027032850310206413, -0.019259298220276833, 0.015344756655395031, 0.08016740530729294, 0.07302431017160416, -0.10671184957027435, -0.12592172622680664, -0.12726455926895142, -0.14764750003814697, -0.21944506466388702, -0.28983402252197266, -0.3993365466594696, -0.40049049258232117, -0.2766236960887909, -0.0042318664491176605, 0.0672505721449852, 0.025962194427847862, 0.012158755213022232, -0.025865577161312103, 0.02997356653213501, 0.052639782428741455, 0.0972241535782814, 0.0062211356125772, 0.007971947081387043, -0.005311679095029831, 0.02293645404279232, -0.02843727543950081, 0.03747009113430977, 0.002080550417304039, -0.02182966284453869, 0.038727376610040665, 0.06122985854744911, 0.051312774419784546, -0.022616637870669365, 0.002666973043233156, -0.032530684024095535, -0.0304203312844038, -0.03861042857170105, -0.07871139794588089, -0.07424505054950714, -0.14609090983867645, -0.09143012762069702, 0.015206988900899887, 0.08949943631887436, 0.07679922878742218, -0.0171547569334507, -0.027508452534675598, 0.0278900358825922, 0.04489919915795326, 0.01951470784842968, 0.012096124701201916, 0.01616804301738739, 0.008264606818556786, -0.010839508846402168, 0.004928935319185257, -0.01737135462462902, -0.000703383528161794, -0.03354188799858093, -0.004375129472464323, 0.09634892642498016, 0.01618758961558342, 0.007970147766172886, 0.05625586584210396, 0.07963259518146515, 0.06449029594659805, 0.06463063508272171, 0.05173498019576073, 0.046244069933891296, 0.014372771605849266, 0.027646705508232117, 0.04474025219678879, 0.0744343250989914, 0.091986745595932, 0.062489256262779236, 0.059197138994932175, -0.0012778344098478556, 0.004312644712626934, -0.04947846382856369, 0.04554443061351776, 0.012890318408608437, 0.03357040509581566, -0.012046724557876587, 0.0323236808180809, 0.001532775117084384, -0.024638095870614052, 0.033354613929986954, -0.021693890914320946, 0.06331943720579147, 0.06814726442098618, 0.02897591143846512, 0.07487013190984726, 0.13960029184818268, 0.14550089836120605, 0.05247359722852707, 0.11165636032819748, 0.10340576618909836, 0.09088017046451569, 0.04305657744407654, 0.04423477500677109, 0.13017356395721436, 0.08113865554332733, 0.015858355909585953, 0.03243212774395943, 0.04318913444876671, 0.06459563225507736, 0.01697000302374363, -0.04426562786102295, 0.006227388512343168, -0.011380176991224289, 0.02509351447224617, 0.013231256045401096, 0.008827812038362026, 0.015331483446061611, -0.016779325902462006, -0.006537340115755796, -0.015298128128051758, 0.06628978252410889, 0.06547143310308456, -0.004763207398355007, 0.037193939089775085, 0.09625598788261414, 0.03012700192630291, 0.09478957951068878, 0.05445101857185364, 0.058519940823316574, 0.04656269773840904, 0.05753716826438904, 0.07820164412260056, 0.038456566631793976, 0.029350275173783302, 0.04178561642765999, 0.044836174696683884, 0.017719414085149765, -0.0007155602797865868, -0.017076894640922546, 0.040342170745134354, -0.03536519035696983, -0.039896197617053986, 0.01659957692027092, 0.017562804743647575, 0.0042254081927239895, 0.0076321992091834545, -0.007607419975101948, 0.029714001342654228, 0.10817315429449081, 0.06271442770957947, 0.03181116655468941, -0.011867702007293701, -0.022986048832535744, 0.035248447209596634, 0.08728914707899094, 0.04133535549044609, 0.07779424637556076, 0.06878598034381866, 0.045390598475933075, 0.10966012626886368, 0.034662146121263504, 0.04146473854780197, 0.046132080256938934, -0.00045357554336078465, -0.03518811613321304, -0.09146350622177124, -0.07037219405174255, -0.05829639732837677, 0.015840036794543266, 0.012495485134422779, -0.006975863128900528, -0.010955671779811382, -0.019125867635011673, 0.01087956316769123, -0.003899181028828025, 0.012359523214399815, 0.07560519129037857, 0.05216066539287567, 0.06438986212015152, 0.12493138760328293, 0.07092420011758804, 0.07853645086288452, 0.0629948228597641, 0.00894863624125719, 0.03802890703082085, 0.04714270308613777, 0.03516297787427902, -0.012067628093063831, 0.011215010657906532, 0.0500725694000721, -0.05689659342169762, -0.12221252918243408, -0.046025462448596954, -0.02192656882107258, -0.006281994748860598, -0.005691688507795334, -0.031955961138010025, 0.015827609226107597, 0.0362413227558136, -0.02281082607805729, -0.026012593880295753, 0.02168157510459423, 0.014897584915161133, 0.020398786291480064, 0.0013619483215734363, 0.050778478384017944, 0.06143791228532791, 0.10613711178302765, 0.08899232745170593, 0.09312929958105087, 0.02947750687599182, 0.06732221692800522, 0.10824554413557053, 0.07167235761880875, 0.036864038556814194, 0.004754194058477879, 0.0058190361596643925, -0.05799463763833046, -0.03015122562646866, -0.01722809672355652, -0.046782106161117554, -0.0038113270420581102, 0.010680033825337887, -0.014384753070771694, -0.014113403856754303, -0.025796132162213326, -0.009143684059381485, 0.02002737857401371, -0.024473311379551888, 0.030618183314800262, 0.008218479342758656, 0.028315933421254158, 0.009905568324029446, 0.016484258696436882, 0.019985631108283997, -0.016834335401654243, -0.02909344807267189, -0.016854876652359962, -0.006696002557873726, -0.006162778940051794, 0.031821370124816895, -0.014107728376984596, 0.0013198978267610073, 0.020216578617691994, 0.049551717936992645, 0.0018102222820743918, -0.0114500867202878, 0.02517978474497795, 0.03362366929650307, 0.006549122277647257, -0.01692546159029007, -0.018293200060725212, 0.027829241007566452, 0.011474046856164932, 0.012884910218417645, 0.002779753878712654, -0.0011439200025051832, -0.033364955335855484, -0.01014477014541626, 0.0374179445207119, 0.03364666551351547, -0.02575177140533924, -0.015068535692989826, 0.007171804551035166, 0.022807305678725243, -0.031302742660045624, 0.017037589102983475, 0.009010409004986286, -0.0007555623888038099, -0.02980860136449337, -0.001391978352330625, 0.026934560388326645, 0.04163012653589249, -0.009062516503036022, 0.015402471646666527, 0.014779464341700077, 0.005777680315077305, 0.008736363612115383, 0.028752118349075317, -0.028554799035191536, 0.014806514605879784, 0.031095171347260475, 0.027414469048380852, 0.018120290711522102], [0.012263184413313866, -0.03933155536651611, -0.007972396910190582, -0.040691226720809937, -0.022438539192080498, -0.0023700071033090353, -0.001475806930102408, -0.007379375398159027, -0.02530757524073124, -0.01614583469927311, -0.016126291826367378, -0.025874758139252663, -0.029178323224186897, -0.017153050750494003, -0.04481778293848038, -0.03630845248699188, -0.011592541821300983, -0.01985986717045307, -0.02517690695822239, -0.017857646569609642, -0.025222258642315865, -0.0025838869623839855, 0.009246423840522766, 0.010870596393942833, -0.0189941618591547, -0.03280964493751526, -0.010215219110250473, -0.012315928004682064, 0.011414793320000172, -0.024899287149310112, 0.015779368579387665, -0.01876814477145672, -0.029946520924568176, -0.0066599166020751, -0.0051580509170889854, -0.027455605566501617, -0.02398720569908619, 0.017943402752280235, 0.019878145307302475, -0.017639348283410072, 0.019414056092500687, -0.011083783581852913, 0.02827683836221695, -0.005132712423801422, -0.045727018266916275, -0.026200251653790474, -0.011499673128128052, 0.024437787011265755, -0.04197525605559349, 0.010154109448194504, 0.016664713621139526, -0.0007884834194555879, -0.02787025459110737, -0.03057200461626053, -0.04247811436653137, -0.0072772931307554245, 0.0015216837637126446, -0.04200460761785507, 0.005611552391201258, 0.009252125397324562, -0.00514935702085495, 0.012485381215810776, -0.013838204555213451, 0.013792285695672035, -0.03994758799672127, 0.008849728852510452, 0.006511876359581947, -0.048256512731313705, -0.05320993810892105, -0.01036312896758318, -0.005298278760164976, 0.016317864879965782, 0.027598556131124496, -0.009314266964793205, -0.01124622207134962, -0.028316665440797806, -0.03631342202425003, -0.0131803248077631, -0.03657560795545578, 0.013700980693101883, 0.012766562402248383, -0.023379236459732056, 0.016021478921175003, -0.01743919588625431, -0.043722786009311676, -0.002904185326769948, -0.013270185329020023, 0.0248830895870924, -0.005912525113672018, -0.033240385353565216, 0.0034579061903059483, -0.036795131862163544, -0.04037554934620857, -0.02808194048702717, -0.018577123060822487, -0.01004642341285944, -0.05851968005299568, -0.040307048708200455, -0.023524096235632896, -0.05857769027352333, -0.02941524051129818, 0.02439611218869686, 0.06380880624055862, 0.03197639435529709, 0.03816218301653862, 0.017168868333101273, 0.04000925272703171, -0.024353884160518646, 0.01614578627049923, -0.004282638896256685, -0.013856729492545128, -0.009325630962848663, 0.02265055663883686, -0.03410587087273598, -0.00723621342331171, 0.011629149317741394, 0.022513752803206444, -0.04371337592601776, -0.027830995619297028, -0.04563092440366745, -0.03268773481249809, -0.08929631114006042, -0.05652349814772606, -0.03338099271059036, -0.07304971665143967, -0.07951488345861435, -0.051837824285030365, 0.005417831242084503, -0.032909683883190155, -0.011213796213269234, 0.029784061014652252, 0.0010320967994630337, 0.036057230085134506, 0.05983889475464821, 0.03901346027851105, 0.021173423156142235, -0.006947256624698639, -0.0119234723970294, -0.016005806624889374, 0.011097656562924385, -0.007107984274625778, -0.029383793473243713, -0.008175630122423172, -0.028037309646606445, -0.007560161408036947, -0.044726815074682236, -0.019553380087018013, 0.0012899065623059869, -0.04941919445991516, -0.03735532611608505, -0.03265491500496864, -0.03214821219444275, -0.039946600794792175, 0.023457584902644157, -0.016254719346761703, -0.06284574419260025, 0.013022681698203087, -0.03034089133143425, -0.07350430637598038, -0.06585228443145752, -0.02423570305109024, -0.027572205290198326, -0.0196519885212183, 0.013099505566060543, -0.0010936720063909888, -0.020394043996930122, -0.0010326250921934843, -0.007248218171298504, -0.03368573635816574, -0.010404271073639393, -0.03675755858421326, 0.0207077469676733, -0.047301121056079865, -0.019432760775089264, -0.08657779544591904, -0.03870450332760811, -0.057534947991371155, -0.007148126605898142, 0.017423424869775772, 0.004261326976120472, 0.0490306094288826, 0.0389968678355217, 0.07397014647722244, 0.04843096062541008, 0.011776008643209934, 0.04973015934228897, 0.00039439203101210296, -0.03158074617385864, -0.02046787552535534, 0.026161782443523407, 0.00844008568674326, -0.012131146155297756, -0.021540075540542603, 0.0016779069555923343, -0.02793625369668007, -0.014176846481859684, -0.016027340665459633, -0.0210774764418602, -0.030995653942227364, -0.018325908109545708, -0.004542228765785694, -0.08897369354963303, -0.022021295502781868, -0.025057200342416763, -0.05633465200662613, 0.01675291731953621, 0.0015356458025053144, 0.06770449131727219, 0.09473787248134613, 0.11451917886734009, 0.09396223723888397, 0.0154064130038023, -0.0021869053598493338, -0.024692468345165253, -0.05259197577834129, -0.06370909512042999, -0.008794275112450123, -0.07653310149908066, -0.03606747090816498, -0.08119843900203705, -0.025107761844992638, -0.025305744260549545, -0.006681174039840698, -0.0071647390723228455, -0.009476693347096443, 0.011316584423184395, 0.009939855895936489, 0.0123043954372406, -0.05831209942698479, -0.05712650716304779, -0.0397544726729393, 0.012911444529891014, 0.043232426047325134, 0.04350293427705765, 0.017804497852921486, 0.046729087829589844, 0.06325003504753113, 0.025194961577653885, 0.04911472648382187, -0.03421587496995926, -0.04749847948551178, -0.00864821020513773, -0.04111238941550255, -0.07610014826059341, -0.06453132629394531, -0.02938089519739151, -0.0532052107155323, -0.10217814147472382, -0.03471846133470535, 0.02802189812064171, 0.014647888951003551, -0.010427764616906643, -0.029846884310245514, -0.03700795769691467, -0.037326470017433167, 0.034324511885643005, -0.019204890355467796, -0.06706220656633377, 0.01909986138343811, 0.03270454704761505, 0.028785230591893196, 0.06372019648551941, 0.017362555488944054, 0.041779179126024246, 0.03764479234814644, 0.022924138233065605, -0.015269973315298557, -0.05237428471446037, -0.011278373189270496, 0.0005956451641395688, 0.027941185981035233, -0.061059415340423584, -0.01953277178108692, -0.07012233138084412, -0.06519453227519989, -0.07582493871450424, -0.03197089582681656, 0.028186338022351265, -0.028064588084816933, -0.01864088885486126, -0.011865914799273014, -0.017541028559207916, 0.01388161163777113, 0.018849829211831093, -0.02680058591067791, -0.00584516441449523, 0.0070649744011461735, -0.007159953471273184, 0.0040247440338134766, 0.06545007973909378, 0.006923804059624672, -0.008461736142635345, -0.04115038737654686, 0.0015423896256834269, -0.011034857481718063, -0.01746695674955845, -0.024121351540088654, -0.030869463458657265, 0.07547304779291153, 0.0780470073223114, 0.05305258557200432, 0.027456266805529594, -0.047187842428684235, -0.01648673601448536, 0.05580770969390869, 0.02487597055733204, 0.030752670019865036, -0.037312790751457214, 0.0013772982638329268, -0.01869545690715313, 0.0011113752843812108, 0.016922932118177414, 0.03501873463392258, -0.01551078911870718, 0.008543811738491058, -0.007168551441282034, 0.0032458705827593803, 0.0015479300636798143, -0.04700270667672157, -0.03715437278151512, -0.008681644685566425, -0.004078098107129335, 0.0018122161272913218, 0.05142204463481903, 0.020891239866614342, 0.10130036622285843, 0.09699823707342148, 0.055117204785346985, 0.053307585418224335, 0.006899004802107811, 0.07745429873466492, 0.04805309697985649, -0.00023570787743665278, -0.004093106370419264, 0.005844677798449993, 0.020572209730744362, 0.020624898374080658, -0.03537667542695999, 0.021486731246113777, 0.03157883509993553, 0.09304989129304886, 0.03751757740974426, 0.03277750685811043, 0.022755855694413185, 0.05133865028619766, -0.010901620611548424, -0.006497920490801334, -0.015081658028066158, -0.08978485316038132, -0.0355493426322937, -0.013452253304421902, 0.01653728447854519, 0.026169326156377792, 0.06477108597755432, 0.08192805200815201, 0.03973754122853279, 0.028018416836857796, -0.009661477990448475, 0.027212094515562057, -0.010382238775491714, -0.010941724292933941, 0.03168807551264763, -0.011507894843816757, 0.002942766761407256, -0.03279324248433113, 0.024870727211236954, -0.017477240413427353, 0.009355694055557251, 0.058056171983480453, -0.0017176559194922447, -0.021498797461390495, 0.027732092887163162, 0.0017840254586189985, -0.017856111750006676, -0.006387596949934959, -0.05678752064704895, -0.076502725481987, -0.012623196467757225, -0.022664783522486687, -0.033834077417850494, 0.011237094178795815, 0.023961788043379784, -0.007937783375382423, -0.001418799627572298, 0.05441873148083687, 0.018369754776358604, -0.02531750127673149, -0.06455951184034348, -0.06626807153224945, -0.05106239765882492, -0.04047627002000809, 0.001962178386747837, 0.0005991758080199361, -0.0019517753971740603, -0.024526596069335938, 0.04742483049631119, -0.019521962851285934, -0.04646919667720795, -0.05856963247060776, -0.023459065705537796, -0.03697884827852249, 0.004976301919668913, -0.041631389409303665, -0.08316250145435333, -0.13227099180221558, -0.03981722891330719, -0.0374094694852829, -0.03975127637386322, -0.010249944403767586, -0.014794588088989258, 0.012375997379422188, 0.004665350541472435, 0.054020851850509644, -0.013906361535191536, -0.006376300007104874, -0.06106094643473625, -0.07579640299081802, -0.05734452232718468, -0.024152513593435287, -0.0254833921790123, -0.031053975224494934, -0.04214107245206833, 0.023659342899918556, -0.024411074817180634, -0.023699244484305382, -0.06846017390489578, 0.004265348426997662, -0.03184939920902252, -0.0403081439435482, -0.04104942828416824, 0.008892317302525043, -0.028057225048542023, -0.07965095341205597, -0.08227754384279251, -0.05440077558159828, 0.02331405319273472, -0.008622915484011173, 0.0010122007224708796, -0.026498330757021904, -0.04719557985663414, 0.022684764117002487, 0.02277252823114395, -0.08530574291944504, -0.08183736354112625, -0.1176702231168747, -0.06464032828807831, -0.030896184965968132, -0.014506172388792038, -0.009011675603687763, -0.03709050267934799, 0.02496519312262535, -0.04272212088108063, -0.035455625504255295, -0.06562504917383194, -0.027087321504950523, -0.07695987075567245, -0.06789332628250122, -0.062411610037088394, 0.01045649591833353, 0.009125353768467903, -0.0016146453563123941, -0.020169729366898537, -0.08534957468509674, -0.03032051771879196, -0.02438431978225708, -0.0007636595983058214, 0.005769692827016115, -0.05961771309375763, -0.012937018647789955, 0.0009625211823731661, -0.037470776587724686, -0.13905513286590576, -0.062269628047943115, -0.03275255858898163, -0.020635439082980156, 0.0011109461775049567, -0.02634398080408573, 0.02450600266456604, 0.0027797205839306116, -0.004618330858647823, -0.06903194636106491, -0.06713562458753586, -0.03813900053501129, -0.050498101860284805, -0.016889460384845734, -0.08179633319377899, -0.013596520759165287, -0.02040184661746025, -0.03907205909490585, -0.01885868050158024, -0.03429678827524185, -0.011118428781628609, -0.03676868975162506, 0.02466120384633541, -0.012741245329380035, -0.03613173961639404, -0.034231990575790405, -0.07347650080919266, -0.09774758666753769, -0.09943506866693497, -0.09777539223432541, -0.04059242457151413, 0.0019517303444445133, 0.0006621731445193291, -0.0041366941295564175, 0.0036571230739355087, 0.0030620242469012737, -0.02985728718340397, -0.017038730904459953, -0.026288749650120735, 0.012022084556519985, 0.0009586160886101425, -0.03160727769136429, -0.03859950229525566, -0.0007081815274432302, -0.01250781212002039, -0.06040225178003311, -0.007991001009941101, -0.032162461429834366, -0.03634639084339142, -0.017357807606458664, 0.04803943634033203, -0.021445171907544136, 0.0015122853219509125, 0.0022237631492316723, -0.0660158172249794, -0.14481431245803833, -0.1650121808052063, -0.1008181944489479, -0.02827851101756096, 0.000505899777635932, -0.04272408410906792, 0.017964055761694908, 0.0021278613712638617, 0.018656769767403603, -0.0018571645487099886, 0.014931281097233295, 0.022551989182829857, -0.04127693921327591, 0.01499370951205492, 0.019619928672909737, -0.03433544933795929, 0.026941262185573578, -0.027311494573950768, -0.07310778647661209, -0.08424468338489532, -0.028930019587278366, -0.011050018481910229, -0.020210597664117813, 0.002135723829269409, 0.003989251796156168, 0.06899691373109818, -0.03916976600885391, -0.0790778249502182, -0.12152611464262009, -0.10998807847499847, -0.07945322245359421, -0.039553914219141006, -0.03673950210213661, -0.005697461776435375, -0.02404296211898327, 0.0044888220727443695, 0.01774277538061142, 0.017201343551278114, 0.025096289813518524, 0.05656299740076065, 0.026929086074233055, -0.014343688264489174, 0.01326767262071371, -0.014164161868393421, -0.06115792319178581, -0.08634479343891144, -0.13051150739192963, -0.11116214096546173, -0.0964927151799202, -0.05408260598778725, 0.005703244358301163, 0.02977483719587326, -0.015047123655676842, 0.03555162250995636, -0.03914082050323486, -0.10549863427877426, -0.07903213798999786, -0.013463926501572132, 0.00959051214158535, 0.00353819876909256, -0.028845077380537987, 0.014241178520023823, -0.04246772453188896, 0.0012351785553619266, -0.04111623018980026, -0.04394029825925827, -0.011338463984429836, 0.030515247955918312, -0.01801370270550251, -0.03222769498825073, -0.009887239895761013, -0.0032170943450182676, -0.07805898040533066, -0.10098940134048462, -0.10347343981266022, -0.08740562200546265, -0.10394006967544556, -0.04574749618768692, -0.01287275180220604, -0.01558117289096117, -0.016332639381289482, 0.007230209186673164, -0.0718630850315094, -0.05940191447734833, -0.026278147473931313, -0.02263909950852394, -0.007596850860863924, -0.039823271334171295, -0.02706247568130493, -0.03771025687456131, 0.016778690740466118, -0.01848847232758999, 0.012778106145560741, -0.014969930052757263, 0.01525756437331438, -0.04936376214027405, -0.08633648604154587, -0.07379507273435593, -0.05502597987651825, -0.06190670654177666, -0.05477052181959152, -0.036901552230119705, -0.07632629573345184, -0.11692515760660172, -0.0639386996626854, -0.07106395065784454, -0.029188117012381554, 0.0050880201160907745, -0.026678942143917084, -0.04979811981320381, -0.002823630580678582, -0.06634940207004547, -0.05161619931459427, -0.01602988876402378, -0.0019056298770010471, -0.037641435861587524, -0.005957569926977158, -0.019725127145648003, 0.017491303384304047, -0.01827201433479786, -0.03077000379562378, -0.014667916111648083, 0.008222781121730804, 0.010460428893566132, -0.0072786337696015835, 0.025160621851682663, -0.07221170514822006, -0.041257817298173904, -0.035410914570093155, -0.06113667041063309, -0.09404730796813965, -0.11633134633302689, -0.011944351717829704, -0.0146670863032341, -0.045783285051584244, -0.030153824016451836, -0.017662005499005318, 0.0009910579537972808, -0.014181640930473804, -0.030174920335412025, 0.04295823723077774, 0.05043790116906166, 0.005422468297183514, -0.03286881372332573, -0.008865440264344215, -0.03526933491230011, 0.008902696892619133, -0.020932210609316826, -0.03917403891682625, 0.031014174222946167, 0.00444695632904768, 0.07191093266010284, 0.04611095041036606, 0.06677153706550598, -0.007605937775224447, -0.04794471338391304, 0.005202912259846926, 0.013478635810315609, -0.10741191357374191, -0.09782674163579941, -0.05733064189553261, 0.01689225435256958, -0.027566293254494667, -0.0019223525887355208, 0.029172906652092934, -0.017406271770596504, 0.020767871290445328, -0.006044699344784021, 0.03290287405252457, 0.055164042860269547, 0.03227822855114937, -0.02174750342965126, 0.019552864134311676, -0.005026746541261673, -0.017773913219571114, -0.03898139297962189, 0.0022916204761713743, -0.002330813556909561, 0.037494003772735596, 0.05742822214961052, 0.054465655237436295, 0.0785447210073471, 0.1009649708867073, 0.09620866179466248, 0.028796443715691566, 0.08151976019144058, 0.021055299788713455, 0.07988975942134857, 0.06558383256196976, 0.027247527614235878, 0.052844420075416565, 0.05188838765025139, 0.12731464207172394, 0.10258656740188599, 0.1277899295091629, 0.05371793359518051, 0.04047304019331932, -0.005660561379045248, 0.027450408786535263, -0.0011922280536964536, -0.0066324686631560326, -0.04341438412666321, 0.02187243290245533, 0.01894625462591648, 0.011488939635455608, 0.01868695765733719, 0.02890041470527649, 0.021278537809848785, 0.03548121452331543, -0.004040965344756842, 0.07395915687084198, 0.06863787025213242, 0.09827958047389984, 0.06593926250934601, 0.10641969740390778, 0.11466342955827713, 0.16041387617588043, 0.13003604114055634, 0.1589435636997223, 0.15183943510055542, 0.10086391866207123, 0.09958373010158539, 0.03778764232993126, 0.08243492990732193, 0.04886867105960846, -0.023357147350907326, -0.022565551102161407, -0.006045553367584944, -0.03700213134288788, 0.018471194431185722, -0.009215114638209343, 0.007133049890398979, 0.025372276082634926, -0.04054246097803116, -0.0340413898229599, 0.021317189559340477, -0.009126885794103146, -0.018092013895511627, -0.014655455946922302, 0.014315418899059296, 0.011610659770667553, -0.029095550999045372, 0.007668233942240477, 0.028869936242699623, 0.001100449706427753, 0.022843096405267715, -0.0056147403083741665, 0.010717909783124924, 0.03683130070567131, 0.031437162309885025, 0.01926214061677456, -0.03201786056160927, 0.008569663390517235, -0.0027967174537479877, -0.03424027934670448, 0.01627291925251484, -0.021119263023138046, 0.015659084543585777], [0.05755103379487991, 0.029515881091356277, 0.02392755076289177, 0.02778260037302971, 0.027878716588020325, 0.0035882655065506697, -0.006442554760724306, -0.007268845569342375, 0.018209325149655342, 0.042811259627342224, 0.036382660269737244, 0.03717774897813797, 0.006649054121226072, 0.05741886794567108, 0.011124004609882832, 0.03870350867509842, 0.01723019964993, -0.0034300917759537697, 0.054961882531642914, 0.022570451721549034, 0.05456957221031189, 0.01648174412548542, 0.002060485538095236, 0.011939131654798985, -0.006141381803900003, 0.05668410658836365, 0.02991573140025139, 0.030931156128644943, 0.02232505939900875, -0.005841182544827461, 0.03228096663951874, 0.034033771604299545, 0.027514439076185226, -0.008035450242459774, 0.020417239516973495, -0.001206922810524702, -0.0035874664317816496, -0.010415544733405113, 0.01946701854467392, 0.013746834360063076, 0.02185368910431862, 0.02868667058646679, 0.011511269956827164, 0.04567430913448334, -0.01662331074476242, 0.029417403042316437, -0.004047699272632599, 0.003543790429830551, 0.03548501059412956, 0.0013224778231233358, 0.04257636517286301, 0.00850769318640232, -0.0035184919834136963, -0.006680056918412447, 0.049553871154785156, 0.010243967175483704, 0.011657060123980045, 0.06010035425424576, 0.05506417900323868, 0.010633076541125774, 0.03019462339580059, 0.011676264926791191, 0.03696832060813904, 0.05862941965460777, -0.0068794009275734425, 0.04892565682530403, 0.007032947614789009, 0.023739822208881378, 0.00759886484593153, 0.03683997318148613, -0.00019117775082122535, 0.007590749766677618, 0.038856565952301025, 0.03499394282698631, 0.0021479870192706585, 0.026026923209428787, 0.034260720014572144, -0.009498831816017628, 0.012976349331438541, 0.021487805992364883, -0.003121590707451105, 0.056468673050403595, -0.010838801972568035, 0.04775458574295044, 0.02750331535935402, 0.046689003705978394, 0.0010364754125475883, 0.0017062700353562832, 0.028383828699588776, 0.0033179137390106916, 0.051726147532463074, 0.0015907023334875703, -0.025026168674230576, 0.012245205231010914, 0.012157781049609184, 0.025561511516571045, -0.02140600048005581, -0.04023290425539017, -0.11690095067024231, -0.10850007832050323, -0.05682316794991493, -0.01564442366361618, 0.01830553449690342, -0.023062806576490402, -0.08941341191530228, 0.018961705267429352, -0.008085126988589764, 0.014027366414666176, 0.012408455833792686, 0.04408129304647446, 0.023666825145483017, 0.03587539494037628, 0.039314091205596924, 0.007033373229205608, 0.0005216363351792097, 0.0018919194117188454, 0.05286704748868942, 0.03193780034780502, 0.04409129172563553, 0.03900579363107681, 0.0028505735099315643, -0.04322274774312973, -0.014170797541737556, -0.006207028869539499, -0.05312854424118996, -0.06656464189291, -0.09076283872127533, -0.11491061002016068, -0.07779020071029663, -0.03852606192231178, -0.027930069714784622, -0.022560741752386093, -0.03698527067899704, 0.04411587864160538, 0.01771293208003044, -0.03774823620915413, -0.05177657678723335, -0.04320421814918518, 0.041405048221349716, 0.00012880181020591408, 0.030346300452947617, 0.017687225714325905, 0.030813118442893028, 0.0319388173520565, -0.018196426331996918, -0.00880823191255331, 0.055891748517751694, 0.01877417415380478, 0.031739022582769394, -0.031408678740262985, -0.031835347414016724, -0.008660847321152687, -0.0499635674059391, -0.0780073031783104, -0.04845961183309555, -0.03015480376780033, -0.03734227269887924, -0.06809628009796143, -0.03577908128499985, -0.03675662353634834, -0.036689527332782745, 0.004887809976935387, 0.03603847697377205, -0.03875955566763878, -0.029278183355927467, -0.019032761454582214, -0.022702252492308617, 0.01802682690322399, 0.02877270057797432, 0.055982042104005814, -0.012386800721287727, 0.016008619219064713, 0.02860140986740589, 0.0473405160009861, -0.02233312837779522, -0.021747728809714317, -0.06648820638656616, -0.03684833273291588, -0.11578777432441711, -0.05046263709664345, 0.018257660791277885, 0.03547044098377228, 0.02773873321712017, 0.031065281480550766, -0.005072585307061672, 0.05469885095953941, 0.04346780851483345, -0.0019150224979966879, 0.0030272400472313166, 0.07802045345306396, 0.008469446562230587, -0.0426480770111084, -0.06970405578613281, -0.02434021420776844, -0.031011294573545456, 0.04106255620718002, 0.03410650044679642, 0.05109309405088425, 0.026122959330677986, -0.005220524966716766, -0.036755889654159546, -0.037792760878801346, -0.05210943520069122, -0.08025611191987991, -0.08568598330020905, -0.09619203209877014, -0.012341359630227089, 0.03384169936180115, 0.0285357479006052, 0.03447312116622925, 0.010337821207940578, -0.03235139325261116, 0.03955477476119995, 0.011589191854000092, 0.0018479357240721583, 0.023395797237753868, 0.01661454513669014, 0.0386216975748539, 0.06359674036502838, 0.038473788648843765, -0.07841363549232483, -0.04900115355849266, 0.015929603949189186, 0.041629619896411896, 0.013793876394629478, 0.003732171840965748, -0.01456728670746088, -0.0012902255402877927, -0.0045011029578745365, -0.05720718950033188, -0.056811898946762085, -0.02911101095378399, -0.06560623645782471, 0.004710331559181213, 0.011625478975474834, -0.01084128487855196, 0.03064139187335968, 0.005294500384479761, 0.022334596142172813, -0.0023373092990368605, -0.019289933145046234, -0.06000612676143646, 0.003670155769214034, -0.013680416159331799, -0.043132271617650986, -0.038771964609622955, 0.03920644894242287, 0.016675248742103577, -0.040380094200372696, 0.025869565084576607, 0.03203000873327255, 0.03171268850564957, 0.00884039793163538, 0.04585742577910423, 0.007651533465832472, -0.009278346784412861, -0.006181835196912289, -0.08853385597467422, -0.08079350739717484, -0.12809500098228455, -0.02468482404947281, -0.05502026155591011, 0.017350440844893456, 0.007060626521706581, 0.0741853192448616, -0.002042922656983137, 0.06224583461880684, 0.03209150582551956, -0.04874676093459129, -0.09670519828796387, -0.0009550365502946079, -0.02164282836019993, -0.07774204760789871, -0.02500198408961296, 0.01804479956626892, 0.009843437001109123, -0.01617702655494213, -0.020201951265335083, 0.029196927323937416, 0.017025260254740715, 0.05752601474523544, 0.04049590975046158, 0.01710069179534912, 0.029417233541607857, -0.08729951828718185, -0.13103286921977997, -0.1459951251745224, -0.14848516881465912, -0.06379730254411697, -0.006322246044874191, -0.03049447201192379, 0.022256528958678246, 0.04616229981184006, 0.025570513680577278, 0.08725245296955109, 0.06519369035959244, 0.045398835092782974, -0.051395513117313385, -0.024018846452236176, 0.009942903183400631, -0.017041947692632675, -0.018402479588985443, -0.015559909865260124, -0.032981451600790024, -0.03219476714730263, 0.015365839004516602, -0.013545185327529907, 0.02933584526181221, 0.01934034191071987, 0.010477820411324501, 0.04058407247066498, 0.02140713296830654, -0.0164840966463089, -0.1026173084974289, -0.12938328087329865, -0.03539717197418213, 0.027079381048679352, 0.05517465993762016, 0.07738319784402847, 0.09168513864278793, 0.07726460695266724, 0.019895153120160103, 0.03336954116821289, 0.11118277162313461, 0.1277478039264679, 0.07127472758293152, 0.00445695361122489, -0.05367434397339821, -0.07460350543260574, -0.01254800334572792, 0.015483545139431953, -0.03582005947828293, -0.015459438785910606, -0.00956316851079464, -0.020686227828264236, -0.003828946966677904, -0.0015291441231966019, -0.004384934902191162, 0.028559314087033272, 0.0477549247443676, -0.00641173031181097, -0.07956380397081375, -0.024216338992118835, -0.04298314452171326, 0.004365399945527315, 0.016814960166811943, 0.06584281474351883, 0.07882978767156601, 0.04281550273299217, 0.034668732434511185, 0.06790481507778168, 0.13153859972953796, 0.18203453719615936, 0.08129957318305969, 0.08672063052654266, -0.021443190053105354, -0.09442175179719925, -0.04309979826211929, -0.0884464904665947, -0.025971990078687668, -0.043849341571331024, 0.031125269830226898, 0.03598902001976967, 0.004011712037026882, 0.02906082198023796, -0.009842704981565475, 0.005001795943826437, -0.00551058491691947, 0.02241937443614006, -0.03382651507854462, -0.09298489987850189, -0.014594973996281624, -0.02993921749293804, 0.0223394762724638, 0.06496960669755936, 0.015903962776064873, -0.01938105747103691, -0.013199511915445328, 0.08836378157138824, 0.17745405435562134, 0.1414976716041565, 0.09558932483196259, 0.014451433904469013, -0.0973668247461319, -0.05121863633394241, -0.014077461324632168, 0.006701685022562742, 0.02066444233059883, -0.02078297547996044, 0.054966893047094345, 0.03598295524716377, 0.020636796951293945, -0.00213851616717875, 0.0032400230411440134, 0.004999228753149509, -0.0018109400989487767, 0.02713138796389103, -0.001503000850789249, -0.10677122324705124, -0.014459148980677128, 0.012531463988125324, 0.021482650190591812, 0.010038119740784168, -0.054717034101486206, -0.03547298163175583, 0.01957087218761444, 0.10010182112455368, 0.14856402575969696, 0.14545539021492004, 0.09725526720285416, -0.048341359943151474, -0.12545272707939148, -0.07060195505619049, -0.00943630188703537, -0.007150599267333746, 0.06926099210977554, 0.01737149804830551, 0.029918985441327095, 0.01396479457616806, 0.00180720048956573, 0.05845580995082855, 0.009169965982437134, 0.016047978773713112, 0.002912286203354597, 0.06482244282960892, -0.048623695969581604, -0.06906621903181076, -0.03193626552820206, -0.003472516778856516, -0.01822776161134243, -0.025860022753477097, 0.005463981535285711, -0.016490548849105835, -0.014612797647714615, 0.0855257660150528, 0.1570645570755005, 0.15389154851436615, 0.07048394531011581, -0.14083582162857056, -0.1932302713394165, -0.05327388271689415, 0.028777634724974632, 0.04461999982595444, 0.04086938872933388, -0.019081560894846916, -0.02069859392940998, 0.02337265945971012, 0.056727249175310135, 0.037230946123600006, 0.05220768228173256, 0.011280378326773643, 0.013865566812455654, 0.04851660132408142, -0.027662042528390884, -0.016677798703312874, -0.030547576025128365, 0.04291478171944618, 0.0037331432104110718, -0.04849521815776825, -0.013378340750932693, -0.027124542742967606, 0.04744936153292656, 0.077244333922863, 0.11183328181505203, 0.13332200050354004, -0.05422813817858696, -0.2168976217508316, -0.20645619928836823, 0.05108559504151344, 0.05846596136689186, 0.07044200599193573, 0.10138043761253357, -0.04279385134577751, 0.01462039165198803, -0.01463715173304081, 0.03985057771205902, 0.011509095318615437, 0.05276921018958092, 0.048422832041978836, -0.018255652859807014, 0.019459104165434837, -0.07816196978092194, -0.041211239993572235, -0.0352085679769516, 0.03318765386939049, 0.010617858730256557, 0.0061692348681390285, -0.052682969719171524, 0.09307880699634552, 0.032449766993522644, 0.0952538251876831, 0.08419337868690491, -0.060377977788448334, -0.2047998458147049, -0.2044806331396103, -0.11672331392765045, 0.049651313573122025, 0.06125583127140999, 0.09719282388687134, 0.04157646372914314, 0.036577221006155014, 0.014571822248399258, 0.02644740417599678, 0.04123323783278465, 0.030624274164438248, 0.029854757711291313, 0.04916340485215187, -0.023573478683829308, -0.02059335447847843, -0.07412614673376083, -0.07542164623737335, -0.015866367146372795, 0.03614199161529541, 0.001458104350604117, -0.03288475424051285, 0.02184157818555832, 0.02442105859518051, 0.088718481361866, 0.048000168055295944, -0.06356719136238098, -0.17129340767860413, -0.17816349864006042, -0.20214387774467468, -0.05341365560889244, 0.04556886479258537, 0.05897629261016846, 0.05083683878183365, -0.017610272392630577, -0.005711751990020275, 0.038674335926771164, 0.03889370709657669, 0.017625702545046806, -0.004772009328007698, 0.019817091524600983, 0.048659030348062515, -0.015256034210324287, -0.03776327148079872, -0.08350227028131485, -0.09631180763244629, -0.11479675769805908, -0.039950381964445114, -0.004590918775647879, 0.014439281076192856, -0.015742456540465355, 0.02381977252662182, 0.05885258689522743, -0.035566624253988266, -0.06627564132213593, -0.14336556196212769, -0.18311625719070435, -0.16620011627674103, -0.15002675354480743, -0.03367416560649872, -0.017541244626045227, -0.06095980107784271, -0.01983058825135231, 0.02863779105246067, 0.047818027436733246, 0.024459725245833397, 0.013224102556705475, 0.02475402131676674, 0.05077844113111496, 0.00463934475556016, -0.022034713998436928, -0.021257009357213974, -0.09013697504997253, -0.0643349289894104, -0.06785650551319122, -0.0007899200427345932, 0.010060003958642483, 0.050698548555374146, -0.02434941940009594, 0.015520702116191387, -0.039255931973457336, -0.025505345314741135, -0.04716655611991882, -0.06518856436014175, -0.12043456733226776, -0.12534528970718384, -0.09887709468603134, -0.07174892723560333, -0.02440982311964035, -0.04436848685145378, -0.028364233672618866, -0.016513410955667496, 0.023772919550538063, 0.027211861684918404, 0.027313202619552612, 0.05403733626008034, 0.05169503018260002, -0.010526539757847786, -0.03681663051247597, -0.03971223533153534, 0.011967303231358528, -0.07975634187459946, -0.07883234322071075, -0.03022811748087406, 0.04834849387407303, 0.0014687735820189118, -0.05528516694903374, -0.07766508311033249, -0.08358835428953171, -0.0636281669139862, -0.017554810270667076, -0.027946628630161285, -0.09487707167863846, -0.1293983906507492, -0.08142498880624771, -0.03353678807616234, 0.0010714107193052769, -0.07126855850219727, -0.016036713495850563, 0.03384920582175255, 0.03310375660657883, 0.048886481672525406, 0.006359610706567764, 0.03435436636209488, 0.05539286509156227, -0.015066898427903652, 0.0025371056981384754, -0.002411952707916498, 0.007564886007457972, 0.005025659687817097, -0.03397470712661743, 0.0015599931357428432, -0.032452721148729324, -0.008725898340344429, -0.09102242439985275, -0.08062640577554703, -0.059297844767570496, -0.030406080186367035, -0.04285929724574089, -0.000376917130779475, -0.046103741973638535, -0.033737942576408386, -0.09293940663337708, -0.0897543877363205, -0.033606186509132385, -0.007692164741456509, -0.047859299927949905, 0.0121203837916255, 0.048685021698474884, 0.022018009796738625, 0.02478676661849022, 0.04793652892112732, 0.03458713740110397, -0.005153618287295103, -0.03506827354431152, -0.07517512887716293, -0.035543911159038544, -0.006689240224659443, -0.010837571695446968, -0.004712436348199844, -0.014310773462057114, 0.04669860005378723, -0.028690440580248833, 0.012481206096708775, 0.027307596057653427, 0.005091087892651558, 0.00813204050064087, -0.004645487293601036, 0.0280138049274683, -0.025775020942091942, -0.06627301126718521, -0.09506090730428696, -0.035197462886571884, -0.03704669326543808, 0.031234996393322945, 0.04697442799806595, 0.04030042514204979, 0.0006697258213534951, 0.05099198967218399, 0.019611502066254616, 0.010981080122292042, -0.009422487579286098, 0.023793302476406097, 0.024128062650561333, 0.007790549658238888, 0.018374621868133545, 0.04413070157170296, -0.009890438057482243, -0.021146610379219055, -0.03987981006503105, -0.07447858899831772, -0.05713997781276703, -0.061635494232177734, -0.049593694508075714, -0.08138493448495865, -0.08887658268213272, -0.02333158254623413, -0.0166650228202343, -0.052146825939416885, -0.0480448380112648, 0.020953822880983353, 0.057136159390211105, 0.0055813719518482685, 0.05722137168049812, 0.05970755219459534, 0.013995283283293247, 0.014101860113441944, 0.0050270212814211845, 0.05979475378990173, 0.04059390351176262, 0.049710847437381744, 0.009618735872209072, 0.02466343715786934, 0.044830940663814545, 0.06386124342679977, -0.004100321792066097, -0.05309266969561577, -0.0460934117436409, -0.05784284323453903, -0.08410996198654175, -0.09801635146141052, 0.0348803736269474, -0.009345337748527527, 0.027870601043105125, -0.057527415454387665, -0.04282069951295853, -0.08482827246189117, -0.03705524280667305, -0.0089369872584939, -0.018020879477262497, 0.05130165070295334, 0.043648626655340195, 0.011425895616412163, 0.026183277368545532, 0.05646829307079315, -0.008009429089725018, -0.010143575258553028, 0.032462120056152344, 0.01955113746225834, 0.05627603828907013, 0.045355819165706635, 0.053269606083631516, 0.08441141992807388, 0.06142518296837807, 0.06706821173429489, 0.03807715326547623, 0.0021617442835122347, -0.006430019624531269, -0.010754295624792576, 0.07477927207946777, 0.033114101737737656, 0.06229948252439499, 0.03137350454926491, 0.027810178697109222, 0.039048805832862854, 0.017193937674164772, -0.02203388139605522, -0.010716842487454414, 0.048987165093421936, -0.009968823753297329, 0.036938928067684174, 0.007934251800179482, 0.03685031831264496, 0.03194049000740051, 0.03751036524772644, 0.04911892116069794, 0.04428878426551819, -0.003115870989859104, 0.03680412471294403, 0.03838944435119629, 0.056426115334033966, 0.026494061574339867, 0.011478818021714687, 0.014734306372702122, 0.042397648096084595, 0.05853988230228424, 0.006264558993279934, 0.06253671646118164, 0.03562173247337341, 0.032584644854068756, 0.05135593190789223, 0.04537196084856987, 0.04800577089190483, 0.048619162291288376, 0.0498884841799736, 0.05244910344481468, -0.006513398606330156, 0.030914003029465675, 0.024125201627612114, 0.04734188690781593, 0.016915379092097282], [-0.029969729483127594, 0.007200105581432581, 7.170117896748707e-05, -0.006708754692226648, -0.017909331247210503, -0.009701734408736229, -0.03573192283511162, -0.024668671190738678, 0.011097845621407032, 0.01411001943051815, 0.02572258561849594, 0.010891142301261425, 0.02171901986002922, 0.01680309697985649, -0.027258334681391716, -0.02369503676891327, 0.0017494803760200739, -0.040128257125616074, 0.008516393601894379, 0.023620937019586563, 0.023194849491119385, -0.03182784467935562, 0.0032381294295191765, 0.019177056849002838, 0.026721179485321045, 0.024825431406497955, -0.0063317036256194115, -0.019450025632977486, 0.02239980548620224, -0.020687606185674667, -0.04095308110117912, 0.016118185594677925, -0.02285778895020485, 0.0059287166222929955, -0.03379489853978157, 0.012293943203985691, -0.029246164485812187, -0.025202346965670586, -0.008488623425364494, -0.008291513659060001, -0.009479915723204613, -0.027195308357477188, 0.008831269107758999, 0.024165228009223938, 0.005755528341978788, 0.025326170027256012, 0.035102538764476776, 0.006376186851412058, 0.030282214283943176, -0.002212143735960126, 0.023601491004228592, 0.026823751628398895, -0.009815296158194542, -0.03523549437522888, -0.011643616482615471, -0.04112528637051582, 0.013354677706956863, -0.004653557203710079, -0.025615861639380455, -0.007682893890887499, -0.035864319652318954, -0.0144068393856287, -0.037622254341840744, -0.011404422111809254, -0.020450247451663017, -0.014560768380761147, -0.022793715819716454, -0.02440662868320942, -0.03129303455352783, 0.05178840458393097, 0.03475576266646385, 0.05742495134472847, 0.006235148757696152, 0.029998499900102615, 0.07513637095689774, 0.024995312094688416, 0.023230453953146935, 0.008177500218153, -0.004525474272668362, 0.020750265568494797, -0.010894907638430595, 0.018022920936346054, -0.041895654052495956, -0.021474704146385193, 0.016277223825454712, 0.0018170333933085203, -0.03549643233418465, 0.016759345307946205, 0.009716375730931759, 0.01388785894960165, 0.017405953258275986, 0.00591244176030159, -0.0074371653608977795, 0.03309161961078644, 0.026486290618777275, -0.04694977030158043, -0.03277464210987091, -0.050612159073352814, -0.08847367018461227, -0.03946928679943085, 0.019968975335359573, 0.022942377254366875, 0.0470297746360302, 0.08130434900522232, -0.006349209230393171, 0.08810251951217651, 0.07627248764038086, 0.006917828228324652, 0.014365164563059807, -0.017408043146133423, 0.016006339341402054, -0.04287876561284065, 0.004825521260499954, -0.034589625895023346, -0.02907015010714531, -0.01423423271626234, -0.04584697633981705, -0.032040033489465714, -0.014434630051255226, -0.041170429438352585, -0.06724411249160767, -0.01717080920934677, 0.0019314539385959506, -0.0568448081612587, -0.047533921897411346, -0.0616491474211216, -0.05603625997900963, -0.04171975702047348, 0.0427071638405323, 0.03884848207235336, 0.032375775277614594, 0.08435048162937164, 0.04594745114445686, 0.056610073894262314, 0.01094349380582571, 0.056524574756622314, -0.010807640850543976, 0.011062386445701122, -0.00994214415550232, -0.007049849256873131, 0.016660669818520546, -0.0055700368247926235, -0.03081982024013996, -0.04324715584516525, -0.025942720472812653, -0.051585860550403595, 0.006299722008407116, 0.013877356424927711, 0.04433143511414528, -0.02822025492787361, 0.0022944898810237646, -0.0634865090250969, -0.022310756146907806, -0.07336798310279846, -0.05248351767659187, -0.027490990236401558, -0.02105545997619629, -0.020395448431372643, -0.017536239698529243, -0.023880546912550926, 0.02295772358775139, 0.033418815582990646, 0.021602433174848557, 0.030101414769887924, -0.021783120930194855, -0.029492029920220375, -0.010756139643490314, -0.03215162456035614, -0.04212774708867073, -0.04250504449009895, 0.01050600130110979, -0.009047447703778744, -0.05443292856216431, -0.031105905771255493, -0.04690688103437424, -0.060707274824380875, -0.02196500450372696, -0.004237092565745115, -0.05891486257314682, -0.034785374999046326, -0.027256453409790993, -0.07071162760257721, -0.04553987830877304, -0.09869231283664703, -0.07252015173435211, -0.06826892495155334, -0.028049133718013763, -0.035371083766222, 0.009494072757661343, -0.049892935901880264, -0.004524413496255875, 0.05081675201654434, 0.03690008446574211, 0.024001574143767357, -0.024702120572328568, -0.0007644110010005534, -0.03929279372096062, 0.021710559725761414, -0.02014359086751938, -0.05000235140323639, -0.0788060873746872, -0.07018474489450455, -0.04492194205522537, 0.004378199111670256, 0.026070604100823402, 0.05044182389974594, 0.023049717769026756, -0.028665244579315186, -0.08361934870481491, -0.07288507372140884, -0.1075032651424408, -0.10489761084318161, -0.05946003645658493, -0.044216904789209366, -0.005618613678961992, -0.013077061623334885, -0.026461146771907806, -0.03612084686756134, -0.04380541294813156, 0.042806558310985565, 0.08024078607559204, 0.07412488758563995, -0.002737645758315921, -0.021843668073415756, 0.001434152596630156, 0.029568832367658615, -0.005830685142427683, -0.008312057703733444, -0.021663427352905273, -0.014890780672430992, -0.001537697040475905, 0.014383208006620407, 0.03799042850732803, 0.08502408862113953, 0.016376731917262077, 0.019671538844704628, -0.04892189800739288, -0.03130876645445824, -0.06714506447315216, -0.1201963871717453, -0.14091365039348602, -0.05786512419581413, -0.019755562767386436, -0.025783779099583626, -0.04601355642080307, -0.06508646160364151, -0.021663472056388855, 0.029745230451226234, 0.04748038947582245, 0.06501039117574692, -0.017073102295398712, -0.00576752470806241, 0.004403545521199703, -0.018638841807842255, 0.008024895563721657, 0.012690980918705463, -0.04020882025361061, -0.039028000086545944, -0.02721353806555271, 0.019085925072431564, 0.11066661775112152, 0.03646481782197952, 0.009000894613564014, -0.030015163123607635, -0.05992456153035164, -0.06695219874382019, -0.09691331535577774, -0.08981752395629883, -0.10994461923837662, -0.08321535587310791, -0.08255578577518463, -0.0793367549777031, -0.07353772222995758, -0.04539284482598305, -0.049422841519117355, 0.029973171651363373, 0.0725870132446289, 0.04736168310046196, -0.030447913333773613, -0.04333777353167534, 0.008278001099824905, -0.01446689572185278, 0.02809114009141922, -0.032470136880874634, -0.026736697182059288, -0.014276692643761635, -0.027468310669064522, 0.05874042585492134, 0.05406185984611511, 0.04602739214897156, 0.04160119965672493, 0.0051151965744793415, -0.0011817013146355748, -0.04257776588201523, -0.05394488200545311, -0.06549142301082611, -0.09271138906478882, -0.0997830331325531, -0.07048676162958145, -0.057439714670181274, -0.039005208760499954, -0.011786567978560925, -0.027864793315529823, 0.0239421259611845, 0.10843250900506973, 0.017572863027453423, 0.023498542606830597, -0.036476004868745804, 0.00628077145665884, 0.010336283594369888, -0.019691893830895424, -0.03371235355734825, 0.0006015626131556928, -0.06010707840323448, 0.01606765203177929, 0.014093100093305111, 0.030003752559423447, 0.053212184458971024, 0.05957692489027977, 0.00672663701698184, 0.013468952849507332, 0.062406059354543686, 0.05907020345330238, -0.01361249852925539, 0.03164060786366463, -0.034476932138204575, -0.07093210518360138, -0.06088258698582649, -0.031619150191545486, 0.029423320665955544, -0.031891196966171265, 0.025201808661222458, 0.028224997222423553, 0.0313275046646595, 0.01638595014810562, 0.018350159749388695, -0.0046364362351596355, 0.007955211214721203, 0.03536011278629303, -0.04376017674803734, -0.056505072861909866, -0.018410615622997284, -0.029212456196546555, 0.035419974476099014, 0.05915389955043793, 0.04692462459206581, 0.006402197759598494, 0.062154147773981094, 0.019201429560780525, 0.012161211110651493, -0.07405482977628708, -0.009838240221142769, -0.022548777982592583, -0.04342580586671829, -0.06358548998832703, -0.06095977500081062, -0.004014681093394756, 0.07186334580183029, 0.013419846072793007, -0.03027934581041336, 0.01206450629979372, -0.002393418690189719, -0.018778018653392792, -0.024169115349650383, 0.025043800473213196, 0.016445882618427277, 0.02732889913022518, -0.04574182629585266, -0.024121955037117004, 0.011438591405749321, 0.006107645574957132, 0.054910071194171906, 0.026348039507865906, 0.0276831965893507, 0.033408667892217636, 0.030595770105719566, 0.01748707704246044, -0.10233354568481445, -0.036576047539711, -0.018122749403119087, -0.021299978718161583, -0.050430189818143845, -0.021543025970458984, -0.01482922863215208, 0.10939852893352509, 0.08284652233123779, 0.11039349436759949, 0.0564909428358078, -0.024524247273802757, -0.025947999209165573, 0.0068017058074474335, -0.03673793748021126, 0.014849177561700344, 0.012857063673436642, -0.0257758516818285, -0.0036221195477992296, 0.020017750561237335, 0.01639561541378498, 0.01881060004234314, 0.023272017017006874, 0.026410479098558426, 0.00017475274216849357, 0.018613949418067932, -0.0019225669093430042, -0.05454108864068985, -0.03204720839858055, 0.006633368320763111, -0.04951582849025726, -0.036507755517959595, -0.023191558197140694, 0.008828813210129738, -0.0050888704136013985, 0.05636502429842949, 0.09609413146972656, 0.1051110327243805, 0.011244711466133595, -0.07673702389001846, 0.0052549028769135475, -0.04201678931713104, -0.02147623337805271, -0.03932667523622513, 0.02509823441505432, -0.034739308059215546, 0.048409298062324524, -0.02557424083352089, -0.02697443589568138, 0.012609049677848816, -0.016685035079717636, 0.07156861573457718, 0.06440874934196472, 0.06746292859315872, 0.007508117239922285, -0.044731494039297104, -0.04577147215604782, -0.005761698819696903, 0.011253436096012592, -0.036895088851451874, -0.003807131201028824, -0.007679170463234186, 0.024624433368444443, 0.03102612867951393, 0.035602815449237823, 0.07716884464025497, 0.011729098856449127, -0.09195245057344437, -0.01838189922273159, -0.013861428946256638, -0.039759524166584015, -0.02829263173043728, -0.03263355791568756, -0.03630287945270538, 0.033943060785532, -0.046289343386888504, -0.01231429260224104, -0.03330320119857788, -0.022458892315626144, 0.049182239919900894, -0.022484609857201576, -0.035521626472473145, -0.020668597891926765, -0.07008090615272522, -0.013463037088513374, 0.06943221390247345, 0.07010012120008469, 0.04883415624499321, 0.02871030569076538, 0.011747952550649643, 0.009176881983876228, -0.03709499165415764, 0.0066367327235639095, -0.0393439345061779, -0.04466830939054489, -0.06868673115968704, -0.010406390763819218, -0.022144565358757973, 0.020741121843457222, -0.02825292758643627, 0.009769611060619354, -0.006434704177081585, -0.03575015813112259, -0.052469104528427124, -0.024514274671673775, 0.011734748259186745, -0.025461114943027496, 0.03714463859796524, -0.04406237229704857, -0.05962859094142914, -0.06402170658111572, -0.07780450582504272, 0.018231337890028954, 0.08532720059156418, 0.07519949227571487, 0.01719544269144535, 0.05744561553001404, 0.03166867420077324, -0.012515172362327576, -0.02519996091723442, -0.027063235640525818, -0.07674156874418259, -0.060399919748306274, 0.0073702698573470116, -0.053821999579668045, -0.03798915073275566, -0.037134211510419846, 0.008616502396762371, -0.0038800472393631935, 0.018523642793297768, -0.04067189246416092, -0.016075728461146355, -0.039135854691267014, -0.008955437690019608, -0.07244167476892471, -0.005467611365020275, -0.007176021113991737, -0.07326412945985794, -0.13400672376155853, -0.05934641510248184, 0.053108248859643936, 0.08683641999959946, 0.06647654622793198, 0.0381978414952755, 0.031208587810397148, 0.00786079652607441, -0.02642628736793995, -0.07695090025663376, -0.060248468071222305, -0.15693630278110504, -0.1183350533246994, -0.011048243381083012, -0.030626758933067322, 0.012642515823245049, -0.0037039087619632483, -0.03965218737721443, -0.03562562167644501, -0.021322963759303093, -0.029460908845067024, -0.07072047889232635, -0.06166400760412216, -0.04222510755062103, -0.07384270429611206, -0.030894214287400246, -0.0020399342756718397, -0.04888278245925903, -0.03797391057014465, 0.02010619454085827, 0.035973019897937775, 0.0751245841383934, 0.05616924166679382, -0.005616160575300455, -0.021358851343393326, -0.02438596822321415, -0.09160785377025604, -0.0846281573176384, -0.1240842416882515, -0.1433534026145935, -0.029459573328495026, 0.007105620577931404, 0.009821750223636627, -0.025804486125707626, 0.01846323348581791, -0.022575903683900833, -0.00814772304147482, -0.03401534631848335, -0.004182395990937948, -0.0698138102889061, -0.05187379941344261, -0.055582188069820404, -0.037819404155015945, 0.015226524323225021, -0.0008779700729064643, 0.018125923350453377, 0.057202186435461044, 0.034410279244184494, 0.047601521015167236, 0.03718477115035057, 0.06234079599380493, 0.0032765206415206194, -0.010380894877016544, 0.02385949343442917, -0.01864468865096569, -0.03852090239524841, -0.04894210025668144, -0.09652145951986313, -0.05415608361363411, -0.0036861984990537167, -0.009171632118523121, 0.012592301703989506, -0.03664378449320793, 0.025218162685632706, -0.006638858933001757, -0.041131339967250824, -0.012565979734063148, -0.013466393575072289, -0.08895517885684967, -0.06387439370155334, -0.021771425381302834, -0.025737570598721504, 0.007568857166916132, -0.007728875614702702, 0.04420270770788193, 0.047709379345178604, 0.10707958787679672, 0.08320344984531403, 0.04240559786558151, 0.02052554115653038, 0.030266743153333664, -0.0020442702807486057, 0.027144726365804672, 0.020289840176701546, 0.0029353995341807604, -0.009672217071056366, -0.012583502568304539, 0.015116923488676548, -0.00997343473136425, 0.003217343706637621, 0.023032383993268013, -0.028305597603321075, -0.016012048348784447, -0.04153686761856079, -0.060582101345062256, -0.005804462358355522, -0.04375653341412544, -0.07376854121685028, -0.03680477663874626, 0.011608095839619637, -0.008640913292765617, -0.00604985561221838, -0.019374025985598564, 0.03898562863469124, 0.055302541702985764, 0.03294441103935242, -0.0032246478367596865, 0.016808515414595604, -0.008862419053912163, 0.00021130929235368967, 0.018025586381554604, 0.006630532443523407, 0.015240243636071682, -0.009115541353821754, -0.019252805039286613, -0.015153474174439907, -0.004405248444527388, 0.0069777220487594604, -0.0025856841821223497, 0.002584556583315134, -0.013576923869550228, -0.038665566593408585, 0.0025974013842642307, -0.05245622619986534, -0.05145011469721794, -0.04521748423576355, -0.08398819714784622, -0.051165904849767685, -0.06412287056446075, -0.07413187623023987, -0.05445479974150658, -0.04148096591234207, -0.020923957228660583, 0.01923014223575592, -0.0013471613638103008, 0.012384641915559769, 0.008063575252890587, 0.016401341184973717, 0.05202507972717285, 0.02360682748258114, 0.0019184182165190578, 0.012119208462536335, -0.05620002746582031, -0.05494443327188492, -0.014703481458127499, -0.03768107667565346, 0.02296670526266098, -0.013729840517044067, -0.03132520616054535, -0.033404700458049774, -0.037890031933784485, -0.005964105948805809, -0.04285641759634018, -0.047908782958984375, -0.06210266798734665, -0.040162377059459686, -0.04525763541460037, -0.06705082952976227, -0.0489165298640728, -0.048007648438215256, 0.005027791950851679, -0.042194269597530365, -0.020705055445432663, -0.03131570294499397, -0.005659566260874271, 0.025445401668548584, 0.034074969589710236, 0.015014671720564365, -0.024755198508501053, -0.016598669812083244, -0.029821233823895454, -0.009927102364599705, -0.015446928329765797, 0.012712715193629265, -0.013234877958893776, 0.015663733705878258, -0.015174394473433495, -0.011229343712329865, 0.004067630972713232, -0.016736675053834915, -0.05808217450976372, -0.030853169038891792, -0.02956942655146122, -0.08336560428142548, -0.08117197453975677, -0.06467227637767792, -0.05159591883420944, 0.024529580026865005, -0.040458764880895615, -0.02546381764113903, 0.01016528531908989, -0.01428529154509306, 0.0432082824409008, 0.0355185940861702, -0.01568453013896942, -0.029371334239840508, 0.012834183871746063, 0.02029423415660858, -0.013212103396654129, 0.01067335344851017, 0.023814527317881584, 0.0030366601422429085, -0.010649686679244041, -0.023334022611379623, 0.022609949111938477, 0.01745966263115406, 0.0023257690481841564, -0.019890086725354195, -0.04849947988986969, -0.06681887060403824, 0.005318318959325552, -0.04717152938246727, -0.016554471105337143, -0.032892584800720215, -0.041273389011621475, -0.05122065544128418, -0.0455668568611145, -0.07971690595149994, -0.07513276487588882, -0.09779348224401474, -0.027312936261296272, -0.02671772986650467, -0.06285429000854492, -0.06587232649326324, -0.04140128195285797, 0.010124385356903076, 0.004381409380584955, -0.029709773138165474, -0.021018173545598984, -0.04049965366721153, 0.026203542947769165, 0.02474307268857956, 0.015324035659432411, -0.008533578366041183, 0.02183673530817032, -0.027661852538585663, 0.018483540043234825, -0.015006797388195992, -0.03609972447156906, 0.01933964155614376, 0.006492876447737217, -0.03661199286580086, -0.012064242735505104, 0.0005754844751209021, -0.007092031184583902, -0.006923071574419737, 0.02206798642873764, -0.02567530795931816, 0.012403459288179874, -0.016040818765759468, 0.02119392342865467, -0.03486151248216629, -0.01445126160979271, -0.03722703084349632, 0.013669028878211975, -0.03156222030520439, 0.019567329436540604, -0.022792987525463104, 0.00464030122384429], [-0.02267410047352314, -0.007358615752309561, 0.03439038619399071, 0.0060966163873672485, 0.018715914338827133, -0.010246925987303257, 0.022143123671412468, -0.021320203319191933, 0.000926682841964066, 0.029014067724347115, -0.005295953713357449, -0.0207096915692091, 0.0336419939994812, -0.010533609427511692, -0.013978841714560986, 0.022541949525475502, -0.002008221112191677, -0.0002696056035347283, 0.014061699621379375, 0.025054434314370155, -0.004305160604417324, 0.02264581061899662, 0.031157223507761955, 0.02454228512942791, 0.03194722905755043, -0.0007885952945798635, -0.03053099289536476, 0.024037202820181847, 0.017515556886792183, -0.029502401128411293, -0.01792326010763645, 0.010027601383626461, -0.022825373336672783, 0.004136030096560717, 0.03789534047245979, 0.009208112955093384, 0.03247581049799919, -0.011638774536550045, -0.0012148726964369416, 0.001065803924575448, 0.014116118662059307, -0.005044175311923027, 0.011074334383010864, -0.03175774961709976, 0.016463065519928932, 0.03921434283256531, 0.033527474850416183, -0.0035368676763027906, 0.01363934576511383, 0.03537578508257866, -0.018659938126802444, 0.017602983862161636, -0.020986152812838554, -0.0014055602950975299, 0.015952996909618378, -0.027974629774689674, 0.03706081584095955, 0.0006882789894007146, -0.01377517357468605, 0.006462406367063522, -0.007768749725073576, -0.01946546882390976, -0.004116130992770195, 0.013998820446431637, 0.05910541117191315, 0.017120903357863426, 0.026028545573353767, 0.06433030962944031, 0.07899559289216995, 0.09525801241397858, 0.1398085057735443, 0.052706703543663025, 0.04069651663303375, -0.004550511483103037, 0.021956434473395348, -0.00901647936552763, -0.018244119361042976, 0.018976973369717598, 0.051350533962249756, -0.008182144723832607, -0.011704687960445881, -0.02390996366739273, 0.018752289935946465, 0.02656668983399868, -0.011049174703657627, -0.003885178826749325, -0.012100513093173504, -0.0263704564422369, 0.01566178910434246, 0.012811122462153435, 0.03361310809850693, 0.09209710359573364, 0.05262847617268562, 0.07889043539762497, 0.036291636526584625, 0.12550823390483856, 0.12629306316375732, 0.0980527326464653, 0.057773735374212265, 0.03570285439491272, 0.04551324620842934, 0.012021726928651333, -0.0533854179084301, -0.030358770862221718, -0.0193681251257658, 0.027367109432816505, -0.004853690508753061, 0.0176619291305542, -0.012426197528839111, -0.011925128288567066, 0.008906307630240917, 0.030364710837602615, -0.0077547295950353146, -0.019926486536860466, -0.0024383626878261566, 0.021815642714500427, 0.008262296207249165, 0.0267813540995121, 0.026980074122548103, 0.04152494668960571, 0.02171134576201439, 0.09369390457868576, 0.14481240510940552, 0.0964708998799324, 0.10928141325712204, 0.12642256915569305, 0.13107037544250488, 0.0939805805683136, 0.10099358856678009, 0.009246651083230972, -0.07539257407188416, -0.02576316148042679, -0.0316244438290596, -0.0215165875852108, -0.034525055438280106, -0.012415675446391106, 0.011597642675042152, -0.013498007319867611, -0.017054099589586258, -0.013720047660171986, -0.017156103625893593, -0.009870079346001148, -0.005882100202143192, -0.0022265606094151735, -0.029044710099697113, -0.05589136481285095, -0.03583253547549248, 0.031587909907102585, 0.038567375391721725, 0.07818952202796936, 0.07928537577390671, 0.07322701066732407, 0.04173499345779419, -0.004883014131337404, 0.0709817036986351, -0.034605395048856735, -0.06417931616306305, -0.10844449698925018, -0.1047375276684761, -0.05956888571381569, -0.07229702174663544, -0.048375848680734634, -0.07662583887577057, -0.04456866905093193, -0.02155992016196251, -0.00949691329151392, 0.006545254494994879, 0.006125487387180328, 0.028533773496747017, 0.004511526320129633, -0.026674890890717506, -0.02558569423854351, -0.055033136159181595, -0.05963469296693802, -0.04744422435760498, -0.0098959282040596, 0.04117574170231819, 0.0719052404165268, 0.06282837688922882, 0.12177170068025589, 0.06202175095677376, 0.0151906069368124, -0.05050257220864296, -0.06474754214286804, -0.1690315157175064, -0.11853297799825668, -0.14305329322814941, -0.1160157173871994, -0.07818280160427094, -0.034056782722473145, -0.08265138417482376, -0.05002198740839958, 0.024651076644659042, -0.027664193883538246, -0.028819795697927475, -0.00961978081613779, 0.03150726482272148, -0.026294220238924026, -0.006982166785746813, -0.08039610087871552, -0.0501437671482563, -0.06876342743635178, -0.053701002150774, 0.06962627917528152, 0.12682460248470306, 0.1001763567328453, 0.043610524386167526, 0.08054706454277039, 0.019055379554629326, -0.04155951365828514, -0.06964058429002762, -0.10684946924448013, -0.08968252688646317, -0.11479160934686661, -0.09631674736738205, -0.08054123818874359, -0.11717958748340607, -0.006691603921353817, -0.038198843598365784, -0.02675871178507805, -0.05396423488855362, 0.006096022669225931, -0.022956177592277527, -0.009335151873528957, 0.002493352862074971, 0.02236897312104702, -0.03920343518257141, 0.0025783837772905827, -0.040245700627565384, -0.01574990712106228, 0.09485389292240143, 0.08044945448637009, 0.13956671953201294, 0.13692426681518555, 0.06668025255203247, -0.0339469350874424, -0.07419073581695557, -0.0588100403547287, -0.10189992189407349, -0.04590248689055443, -0.09684880822896957, -0.0763375461101532, -0.11426906287670135, -0.04783676192164421, -0.06891126185655594, -0.047573838382959366, -0.06063549593091011, -0.1378689706325531, -0.12134874612092972, -0.013382055796682835, -0.0411163829267025, 0.028095802292227745, -0.015199056826531887, -0.01168153714388609, -0.018805619329214096, -0.021843938156962395, -0.07780997455120087, 0.0026122184935957193, 0.10144826769828796, 0.06215676665306091, 0.13833458721637726, 0.0963643491268158, 0.005897098686546087, -0.06146449223160744, -0.26672807335853577, -0.27098414301872253, -0.14096657931804657, -0.04110453650355339, -0.058035969734191895, -0.05282518267631531, -0.0161004438996315, -0.0017326388042420149, -0.008589772507548332, 0.01648298278450966, -0.016760127618908882, -0.06993406265974045, -0.028184400871396065, -0.055513277649879456, 0.001881080330349505, -0.027735460549592972, -0.008619907312095165, -0.03827841579914093, -0.014836383052170277, -0.016710536554455757, -0.010370700620114803, 0.0405794158577919, 0.11164087057113647, 0.07275465875864029, 0.17441797256469727, 0.1284119039773941, 0.037353117018938065, -0.19020166993141174, -0.30219778418540955, -0.2534908652305603, -0.17191383242607117, -0.03795003890991211, 0.01431284286081791, -0.004483913071453571, 0.005631410051137209, 0.027899786829948425, 0.045908328145742416, -0.014316419139504433, -0.06061612814664841, -0.000771404302213341, 0.058438923209905624, -0.018241705372929573, 0.010439020581543446, -0.023834502324461937, 0.010677528567612171, 0.033252038061618805, -0.05628359317779541, -0.06870689988136292, -0.0637020617723465, -0.0007284325547516346, 0.031636785715818405, 0.0692756250500679, 0.12962615489959717, 0.12212743610143661, 0.05489072948694229, -0.029781023040413857, -0.09960426390171051, -0.12129580229520798, -0.046352725476026535, -0.026909267529845238, 0.026448791846632957, 0.05699186399579048, 0.049165088683366776, 0.09295608848333359, 0.009640475735068321, 0.01383890863507986, 0.002400625729933381, 0.06911095231771469, 0.08144159615039825, -0.05216893181204796, 0.007664564065635204, 0.02966999262571335, 0.025414051488041878, 0.03056519851088524, 0.013591544702649117, -0.026040205731987953, -0.016340965405106544, -0.0302774328738451, 0.05744871869683266, 0.05472467839717865, 0.09721580147743225, 0.16587962210178375, 0.11141207069158554, 0.014582647942006588, -0.0416000597178936, -0.15125834941864014, -0.07684928178787231, -0.027938775718212128, 0.03897189721465111, -0.01396281085908413, 0.031374674290418625, 0.0660262405872345, -0.007411602884531021, 0.07297391444444656, 0.03143647685647011, 0.12682616710662842, 0.09561873972415924, -0.02227354422211647, -0.055574338883161545, -0.03126903995871544, -0.02967694215476513, -0.027681881561875343, 0.015199517831206322, -0.055158719420433044, -0.03218096122145653, 0.058528199791908264, 0.06805667281150818, 0.1215219795703888, 0.1176735907793045, 0.10578124970197678, 0.0904320701956749, 0.07010402530431747, -0.009648014791309834, -0.08177506178617477, -0.061210133135318756, 0.011909960769116879, 0.01311168447136879, -0.020052997395396233, -0.04931626468896866, 0.059614405035972595, 0.026026925072073936, 0.07537543773651123, 0.07060619443655014, 0.12153321504592896, 0.05604787915945053, -0.06047775223851204, -0.04866936802864075, -0.020539965480566025, -0.011775399558246136, 0.03703848645091057, 0.004097962286323309, 0.009242653846740723, -0.06226785108447075, 0.01107033435255289, 0.07871275395154953, 0.060035862028598785, 0.1114889606833458, 0.0891466811299324, 0.038324981927871704, 0.05173517391085625, 0.00702865794301033, 0.0006342563428916037, 0.0062009054236114025, -0.01862635463476181, -0.028421932831406593, -0.008317891508340836, -0.015134590677917004, -0.06490522623062134, -0.025130344554781914, 0.008058367297053337, 0.050518982112407684, 0.06544102728366852, 0.00952318124473095, -0.021057378500699997, -0.023075949400663376, -0.02847054786980152, -0.0126796280965209, -0.030966712161898613, 0.010804754681885242, -0.03431546315550804, -0.06149045750498772, -0.029886659234762192, 0.04825754463672638, 0.08576703071594238, 0.03284653276205063, 0.0008406079141423106, 0.012852262705564499, 0.04747195914387703, 0.07357139140367508, 0.11397486180067062, 0.030369194224476814, -0.04549308121204376, -0.017738355323672295, -0.030968530103564262, -0.1125137209892273, -0.11380244791507721, -0.07468817383050919, -0.09455223381519318, 0.01449069194495678, 0.04921087250113487, -0.01948738284409046, 0.07353165000677109, 0.005179352127015591, -0.02620023675262928, 0.03523484990000725, 0.008773976936936378, 0.03604535013437271, -0.03933531790971756, -0.07379540055990219, -0.0967077985405922, -0.017125388607382774, 0.019411809742450714, 0.06591292470693588, -0.04116809368133545, -0.049153365194797516, 0.06251630187034607, 0.08620527386665344, 0.10873700678348541, 0.037889670580625534, -0.03135360777378082, 0.03840964660048485, 0.007514554541558027, -0.06514878571033478, -0.034952420741319656, -0.05400363728404045, -0.03187146782875061, -0.045275960117578506, 0.0788562148809433, 0.027314450591802597, 0.051055606454610825, -0.001698027248494327, -0.039924535900354385, 0.025715699419379234, -0.028355827555060387, 0.014529385603964329, -0.002086169086396694, -0.07919654250144958, -0.1010797843337059, -0.05253579840064049, -0.058583199977874756, 0.0025962935760617256, -0.03638844937086105, -0.025110043585300446, 0.0755380168557167, 0.12604846060276031, 0.11409648507833481, 0.08328746259212494, -0.02257212996482849, 0.05797171965241432, -0.020584555342793465, 0.012372521683573723, -0.03878236189484596, 0.011113675311207771, -0.035206519067287445, -0.039140600711107254, 0.019651921465992928, 0.03935600444674492, 0.007246382534503937, -0.03372715413570404, -0.029380889609456062, 0.03249318525195122, 0.0012128751259297132, 0.010169736109673977, -0.009348376654088497, -0.09774839133024216, -0.06377237290143967, 0.021721964702010155, -0.10524297505617142, -0.08168414235115051, -0.1064724326133728, -0.010200690478086472, -0.007049079984426498, 0.09493032097816467, 0.16280898451805115, 0.06179102882742882, -0.05013753101229668, -0.03179064020514488, -0.019485054537653923, -0.024012945592403412, -0.00665999436751008, -0.0012067505158483982, -0.0379946231842041, -0.006698079872876406, 0.08510822057723999, 0.04251743108034134, 0.02049701102077961, 0.003494353499263525, -0.0004158905358053744, -0.0018619006732478738, -0.004965979140251875, 0.009470460005104542, -0.03492116555571556, -0.019436724483966827, -0.006952247116714716, -0.02280343696475029, -0.03804948553442955, -0.08303289860486984, -0.15616470575332642, -0.07199167460203171, 0.01005725096911192, 0.10346562415361404, 0.09585991501808167, 0.07587353140115738, 0.04619155451655388, -0.04765941575169563, -0.04584701359272003, 0.028870170935988426, -0.006765321362763643, -0.013801410794258118, 0.022800898179411888, 0.06484580785036087, 0.06761664897203445, 0.006760322488844395, -0.04278663918375969, -0.0382293239235878, -0.01833932101726532, 0.01654672622680664, 0.021194247528910637, -0.02314196154475212, -0.04201749339699745, 0.0015336184296756983, -0.06299541890621185, -0.07575605809688568, -0.051055122166872025, -0.08801885694265366, -0.13617433607578278, -0.09984789043664932, -0.012993339449167252, 0.09266097098588943, 0.044950082898139954, 0.08588599413633347, 0.08542695641517639, -0.027467835694551468, 0.02140164002776146, 0.043232597410678864, 0.05130409821867943, -0.008131039328873158, -0.02509957365691662, 0.040467288345098495, 0.09233034402132034, 0.015752606093883514, -0.013109575025737286, 0.010639225132763386, -0.03203529864549637, -0.014860338531434536, -0.006794476415961981, 0.03536657243967056, -0.0034508889075368643, -0.010376458056271076, -0.012670481577515602, -0.05293288081884384, -0.02795116975903511, -0.0053937118500471115, -0.030056599527597427, -0.07061910629272461, -0.04359280318021774, -0.03438902646303177, 0.03353966400027275, 0.08860989660024643, 0.03304896131157875, 0.00532319163903594, 0.0940251275897026, 0.08594350516796112, 0.027745675295591354, 0.0008243350312113762, -0.00776421744376421, 0.006551573518663645, 0.014806326478719711, -0.038330838084220886, -0.039901573210954666, 0.011628695763647556, 0.009341481141746044, -0.001127842697314918, 0.0023923697881400585, 0.02801480144262314, 0.008793342858552933, 0.035761523991823196, -0.004674727097153664, 0.018971845507621765, -0.0008658663718961179, 0.0006707559223286808, -0.054959654808044434, -0.10539645701646805, -0.08238846063613892, -0.03412065654993057, -0.033036015927791595, -0.00789132621139288, 0.0003375896194484085, 0.05113732069730759, 0.10254623740911484, 0.06324920058250427, 0.02797282114624977, 0.015469759702682495, 0.013959701173007488, 0.025024326518177986, -0.05296604707837105, -0.02808937057852745, -0.019129589200019836, -0.0020203038584440947, -0.01178721059113741, 0.011914550326764584, -0.011142597533762455, -0.021345796063542366, -0.035557787865400314, -0.009990806691348553, 0.0006417538388632238, -0.007668597158044577, -0.048541110008955, -0.0658300369977951, -0.03373592346906662, -0.09786786884069443, -0.14286591112613678, -0.09888902306556702, -0.04779145494103432, -0.014010976999998093, 0.002865342888981104, 0.08732958137989044, 0.06394369155168533, 0.05407331511378288, -0.014170583337545395, 0.004171055741608143, 0.07905146479606628, 0.09284120798110962, 0.00284580304287374, 0.0010174959897994995, 0.011940356343984604, -0.014217830263078213, -0.011398968286812305, -0.017051534727215767, 0.026716047897934914, -0.021220585331320763, 0.01777041144669056, -0.022913319990038872, -0.01731543242931366, -0.0321115106344223, -0.0199610386043787, -0.02955724112689495, -0.036952778697013855, -0.011056777089834213, -0.019979175180196762, -0.023190325126051903, -0.03470775857567787, -0.04947889596223831, -0.01556442491710186, 0.025677593424916267, -0.006933222059160471, 0.043583113700151443, 0.08225800096988678, 0.09866198897361755, 0.05746527761220932, 0.057695455849170685, 0.04079644754528999, -0.0013824335765093565, 0.037353772670030594, 0.03375346213579178, -0.011696633882820606, 0.007803942076861858, 0.005811139475554228, -0.027807585895061493, -0.003465989138931036, -0.011824658140540123, -0.010539138689637184, -0.03346295282244682, -0.0312204472720623, -0.0027867937460541725, 0.008681564591825008, 0.03348581865429878, 0.06330820173025131, 0.013152201659977436, 0.014730471186339855, 0.0005578573327511549, 0.010535802692174911, 0.03151706978678703, 0.052054036408662796, 0.05269411578774452, 0.01064720656722784, 0.0073081417940557, 0.03912822902202606, 0.03542226925492287, 0.020168501883745193, 0.007952038198709488, -0.01216081716120243, -0.025667911395430565, 0.010456339456140995, 0.026722824200987816, 0.01693613827228546, -0.014969793148338795, 0.002557591535151005, 0.002507041208446026, -0.020237969234585762, -0.015722686424851418, -0.014565552584826946, -0.014618209563195705, -0.023739764466881752, -0.01721734181046486, 0.005365686025470495, 0.07157522439956665, 0.0956592857837677, 0.01237263809889555, -0.02567051351070404, 0.001874096691608429, 0.031102145090699196, 0.023617014288902283, -0.03619616851210594, 0.01742028258740902, 0.016014771535992622, 0.027559487149119377, -0.008183560334146023, 0.012088662013411522, 0.03125140443444252, 0.034234654158353806, 0.021411819383502007, 0.019828757271170616, 0.01809326373040676, -0.01386240590363741, -0.012345758266746998, 0.012198670767247677, 0.026029592379927635, -0.008339306339621544, 0.033366113901138306, 0.0009236049954779446, 0.020747371017932892, -0.041541870683431625, -0.01804918795824051, 0.0007775459671393037, -0.021337537094950676, 0.0013480985071510077, 0.03095908835530281, -0.03342236950993538, -0.000956656935159117, 0.002784798853099346, 0.02176702581346035, -0.023398812860250473, 0.014231730252504349, 0.011918503791093826, -0.024508316069841385, -0.018117213621735573, 0.010288813151419163, -0.005607875995337963, -0.01481130626052618], [-0.041829198598861694, 0.003354244166985154, -0.02435743622481823, 0.013895290903747082, -0.027960972860455513, -0.0011430960148572922, -0.029317544773221016, -0.017678048461675644, -0.006355620454996824, 0.021586129441857338, -0.01754906214773655, 0.026854204013943672, -0.006735181901603937, 0.0014785903040319681, -0.015485171228647232, -0.019957885146141052, -0.0330716036260128, -0.04375363886356354, -0.02686779387295246, -0.005993515718728304, -0.024281514808535576, 0.012570707127451897, -0.024920979514718056, -0.01038765162229538, -0.04371687024831772, -0.025625595822930336, -0.01711496338248253, -0.041653454303741455, -0.042873628437519073, -0.015061215497553349, -0.025536349043250084, -0.01885446347296238, 0.022219019010663033, 0.02113170363008976, -0.035200029611587524, -0.028128325939178467, 0.010447617620229721, 0.014930618926882744, -0.01227038074284792, -0.022070957347750664, -0.018526440486311913, -0.027652455493807793, 0.013587797991931438, -0.03216458484530449, -0.02173447795212269, -0.01010587066411972, -0.025342490524053574, -0.0076770237646996975, -0.00908897165209055, -0.021028529852628708, 0.005767135880887508, -0.03230830281972885, 0.010405994951725006, -0.01936284638941288, 0.022685492411255836, 0.0012417964171618223, -0.004786530509591103, 0.0023917683865875006, 0.02222837321460247, -0.0169638991355896, -0.042134080082178116, 0.012015494517982006, -0.02922798879444599, -0.016386190429329872, 0.012652501463890076, 0.002307252725586295, 0.023525413125753403, 0.0008082004496827722, -0.0318068191409111, 0.0018616823945194483, -0.019703758880496025, 0.020557843148708344, -0.009568417444825172, -0.005934777669608593, 0.025937199592590332, -0.008184192702174187, -0.012298387475311756, 0.015222803689539433, 0.004761460702866316, -0.033067964017391205, 0.014360202476382256, 0.023034386336803436, 0.0075288694351911545, -0.020784636959433556, -0.02726004831492901, 0.02645075134932995, 0.0066900430247187614, -0.0025360567960888147, -0.009591425769031048, -0.0035008143167942762, -0.012388267554342747, 0.008752934634685516, 0.01674351841211319, 0.016953039914369583, 0.034701745957136154, 0.021472226828336716, 0.06838341802358627, 0.036896176636219025, 0.11226285994052887, 0.027512170374393463, 0.016300944611430168, 0.018114324659109116, 0.009275252930819988, 0.035887908190488815, 0.022482844069600105, 0.04298275336623192, -0.017467748373746872, 0.014345627278089523, 0.02753426693379879, -0.042842477560043335, -0.015592978335916996, 0.010751061141490936, -0.0029035669285804033, -0.022052045911550522, -0.029396751895546913, -0.015209808945655823, -0.0004031339194625616, 0.024329774081707, -0.02453196980059147, 0.04355520382523537, 0.04836736619472504, -0.017488887533545494, 0.06342785805463791, 0.057302720844745636, 0.052099667489528656, -0.0031712541822344065, 0.04663800075650215, 0.026830030605196953, 0.013306349515914917, 0.06758490204811096, 0.08382261544466019, 0.01939002424478531, -0.02372101880609989, -0.07485542446374893, -0.0783730000257492, -0.07287522405385971, -0.027433577924966812, -0.02625061571598053, -0.030323117971420288, 0.004275820683687925, -0.03641999512910843, -0.035090215504169464, -0.002622193656861782, 0.01186582911759615, 0.0014304618816822767, 0.026410764083266258, 0.05045446753501892, 0.05290792137384415, 0.05753844976425171, 0.046052929013967514, 0.03903080150485039, 0.03586561977863312, 0.049432333558797836, 0.030827976763248444, 0.022222129628062248, -0.005650767590850592, -0.0037788350600749254, 0.03004239685833454, 0.013199006207287312, -0.010936872102320194, -0.011711450293660164, -0.08881974965333939, -0.12000862509012222, -0.10443609952926636, -0.05523591488599777, 0.016634542495012283, -0.04305674508213997, -0.03244134783744812, 0.006169619970023632, -0.042339686304330826, 0.02202887274324894, 0.033793237060308456, 0.019022788852453232, 0.012422832660377026, 0.023375539109110832, 0.05634627118706703, 0.05820262432098389, 0.04969296231865883, 0.03567773848772049, 0.014731072820723057, 0.012164264917373657, 0.03605535253882408, 0.06736592203378677, 0.06052633747458458, 0.10702656954526901, 0.036358144134283066, 0.01907823234796524, 0.007617186289280653, -0.08071936666965485, -0.01972137950360775, -0.09343615174293518, -0.15123285353183746, -0.09652572125196457, -0.02877708338201046, -0.03364880383014679, 0.023821048438549042, 0.007003831677138805, 0.020527828484773636, -0.021006029099225998, 0.005622596014291048, 0.025182785466313362, -0.003032728098332882, 0.051876481622457504, 0.06668327003717422, 0.059901271015405655, 0.04873117431998253, 0.047380588948726654, 0.062245987355709076, 0.09801750630140305, 0.08569826930761337, 0.059321336448192596, 0.11037082970142365, 0.03305557370185852, -0.025890758261084557, 0.06647634506225586, 0.021243613213300705, -0.09568818658590317, -0.048500511795282364, -0.14435552060604095, -0.16869360208511353, -0.08600547164678574, 0.0031825967598706484, -0.014672458171844482, -0.024648914113640785, -0.02457009255886078, -0.039973534643650055, 0.007886580191552639, 0.024186762049794197, 0.04724331200122833, -0.03971287980675697, 0.02054429240524769, 0.022868933156132698, 0.08673033118247986, 0.0678471252322197, 0.04280158877372742, 0.019541805610060692, 0.04454587399959564, 0.037431858479976654, 0.03042767010629177, 0.04311111569404602, -0.0071486677043139935, -0.05576677620410919, 0.03944339603185654, 0.05824248492717743, -0.001978927757591009, -0.06021739915013313, -0.023105505853891373, -0.11703416705131531, -0.11331402510404587, -0.06179371103644371, -0.007548529654741287, 0.004920715466141701, -0.028114764019846916, 0.019432298839092255, 0.00039627833757549524, 0.08337701857089996, 0.048038825392723083, -0.012911363504827023, 0.05869574099779129, 0.058270085602998734, 0.053108446300029755, 0.009606597945094109, 0.010163997299969196, 0.008848734200000763, 0.023563874885439873, -0.046974606812000275, -0.03705058619379997, -0.019818391650915146, 0.021707436069846153, 0.049258794635534286, 0.03243935480713844, 0.047230202704668045, 0.025240756571292877, -0.001837696647271514, -0.02482392080128193, -0.034712135791778564, -0.09006760269403458, -0.02807922288775444, 0.009332415647804737, -0.027069149538874626, 0.0005672764964401722, -0.0185839980840683, -0.01945580542087555, 0.07085902243852615, 0.06910642981529236, -0.02697698026895523, 0.09847650676965714, -0.017282307147979736, -0.06938842684030533, -0.034763943403959274, -0.05589442700147629, -0.035241153091192245, -0.03943730518221855, -0.06270432472229004, -0.06214426830410957, -0.032662492245435715, 0.06508558988571167, 0.011374791152775288, 0.06745877861976624, 0.004572685807943344, 0.0828661322593689, 0.05233447998762131, 0.09092744439840317, -0.03455715253949165, -0.06267526745796204, -0.04718504473567009, 0.010175195522606373, -0.016168564558029175, 0.006622994784265757, -0.017519140616059303, 0.016181426122784615, 0.044551536440849304, 0.06575363874435425, 0.004793425090610981, 0.026407239958643913, -0.08468271791934967, -0.032802876085042953, -0.02661394141614437, -0.03304935619235039, -0.03473839536309242, -0.06749871373176575, -0.033226292580366135, -0.013766098767518997, 0.0291938204318285, 0.009045249782502651, 0.05247531458735466, 0.004088715650141239, 0.012219836004078388, 0.07874573022127151, 0.02759426273405552, 0.053452543914318085, -0.030106615275144577, -0.038960400968790054, -0.03441879525780678, -0.025264983996748924, 0.018173247575759888, 0.00728883221745491, -0.005023690406233072, -0.018619228154420853, 0.022654574364423752, 0.061082687228918076, 0.0007745139300823212, -0.03486347943544388, -0.06675238907337189, -0.04143276438117027, -0.023772666230797768, 0.0508786216378212, 0.005551813170313835, -0.017709851264953613, 0.0001675557577982545, 0.03134318068623543, 0.04941446706652641, 0.023421548306941986, -0.019684843719005585, 0.04263317212462425, 0.044010262936353683, -0.02786288782954216, 0.009804505854845047, -0.010855048894882202, -0.010995682328939438, -0.0635879784822464, -0.04023834690451622, -0.00962725281715393, -0.014881983399391174, -0.038288041949272156, 0.005514901131391525, -0.033335696905851364, 0.04765692353248596, 0.07994481176137924, 0.011105380952358246, -0.0488865040242672, 0.018427519127726555, 0.004563546273857355, 0.03335271403193474, 0.06577017903327942, 0.0207053329795599, -0.02267220988869667, -0.0165900569409132, 0.006010054610669613, 0.006427215877920389, -0.019461272284388542, -0.030581971630454063, 0.052403002977371216, 0.0336478166282177, -0.013366332277655602, -0.007976272143423557, -0.04648612067103386, -0.060802336782217026, -0.008120566606521606, -0.010545363649725914, 0.008135966025292873, -0.007286535110324621, -0.021554598584771156, -0.036619335412979126, -0.009948605671525002, -0.010162508115172386, -0.0019469443941488862, -0.0061993976123631, -0.048353686928749084, 0.02669477090239525, 0.021536804735660553, -0.003026042366400361, 0.011284850537776947, 0.040048543363809586, -0.029623672366142273, 0.006353035103529692, -0.02898845635354519, -0.015786588191986084, -0.05817364528775215, -0.022453732788562775, 0.04337300360202789, 0.027136480435729027, 0.054933998733758926, 0.023815924301743507, -0.043912287801504135, -0.04919154569506645, -0.019975924864411354, -0.03682651370763779, -0.0016890335828065872, 0.0012294300831854343, -0.025022802874445915, 0.0238255076110363, 0.02251226268708706, -0.006438157055526972, -0.027745386585593224, -0.05073251202702522, 0.008099885657429695, -0.025273440405726433, 0.023759309202432632, 0.0022961890790611506, -0.011284913867712021, -0.03858691081404686, 0.01151197962462902, 0.010736018419265747, 0.039252039045095444, 0.014758552424609661, -0.009208460338413715, 0.05106465891003609, 0.01236449833959341, 0.03625411540269852, 0.04355766624212265, 0.04576564207673073, 0.05572766438126564, 0.029496463015675545, -0.03210756927728653, -0.042229678481817245, -0.005700180307030678, -0.034655436873435974, 0.002704748185351491, -0.022353943437337875, 0.0319809727370739, 0.0046889581717550755, 0.017660314217209816, -0.046759285032749176, -0.05507861077785492, -0.03382178768515587, -0.03630996122956276, -0.00849194172769785, 0.04965349659323692, 0.06607267260551453, -0.004685448482632637, 0.03942032903432846, -0.03814767673611641, 0.0058240750804543495, -0.017836451530456543, 0.01606820896267891, 0.05600189045071602, -0.0009548623347654939, 0.03760872781276703, 0.05867433175444603, 0.07863951474428177, -0.03302566334605217, -0.06817691028118134, -0.05092789977788925, -0.03492835909128189, -0.013125170022249222, -0.016410306096076965, 0.020631181076169014, -0.018974509090185165, 0.033713970333337784, 0.04257017746567726, -0.011418908834457397, -0.13537399470806122, -0.03282664716243744, 0.014033019542694092, -0.01999945193529129, -0.007857698947191238, 0.010690223425626755, 0.04102214053273201, -0.0016374984988942742, -0.1123550608754158, -0.09707171469926834, -0.009027967229485512, 0.05413070693612099, 0.04013575240969658, 0.03323876112699509, 0.0781901553273201, 0.00900324434041977, 0.031082697212696075, -0.09116526693105698, -0.09225694090127945, -0.07926525175571442, -0.037948787212371826, -0.00900996383279562, 0.025107353925704956, 0.012028568424284458, 0.011967457830905914, 0.01982918381690979, 0.018377646803855896, -0.07328156381845474, -0.11423584073781967, -0.058770544826984406, -0.0065557281486690044, 0.02668227069079876, 0.03417602553963661, 0.09633554518222809, -0.010100312530994415, -0.04530495032668114, -0.14246457815170288, -0.13909810781478882, -0.031045233830809593, 0.035978540778160095, 0.034147899597883224, 0.12309737503528595, 0.10160388052463531, 0.06922874599695206, 0.06916222721338272, -0.12917466461658478, -0.1284215748310089, -0.054717566817998886, 0.007421799469739199, 0.010786352679133415, -0.04333985596895218, -0.02001972123980522, -0.0362105630338192, -0.011637370102107525, -0.04034910723567009, -0.00982046127319336, -0.15030576288700104, -0.14826753735542297, -0.07717049866914749, -0.01752489246428013, -0.01943664252758026, -0.05350102484226227, -0.031520865857601166, -0.09656775742769241, -0.17101599276065826, -0.09740478545427322, -0.017905782908201218, 0.033521879464387894, 0.0991414487361908, 0.0655631572008133, 0.10128878057003021, 0.05979612469673157, 0.00028079707408323884, -0.07698782533407211, -0.10319722443819046, 0.002333687152713537, 0.017467303201556206, 0.01690279133617878, -0.04161064326763153, -0.01638350635766983, -0.03828714042901993, 0.03957200422883034, -0.0015296607743948698, 0.001126624527387321, -0.11524450778961182, -0.06396535038948059, -0.09013598412275314, -0.047621652483940125, -0.06572806090116501, -0.08130684494972229, -0.08512506633996964, -0.0323488786816597, -0.09563275426626205, -0.07233260571956635, 0.027217192575335503, 0.047703228890895844, 0.06432641297578812, 0.04348454624414444, 0.02838560938835144, -0.02092653326690197, -0.04613688588142395, -0.10827980190515518, -0.07762189209461212, 0.02509148232638836, -0.046706557273864746, -0.043921805918216705, -0.012947820127010345, -0.03983483836054802, 0.020059065893292427, -0.015941910445690155, 0.05312414839863777, 0.005338195711374283, -0.010041587986052036, -0.024441702291369438, -0.0434868261218071, -0.13336490094661713, -0.060717351734638214, -0.047438643872737885, -0.030142033472657204, 0.01389638613909483, -0.04988710954785347, 0.006270101759582758, 0.07820484042167664, 0.08473096787929535, -0.0036606641951948404, 0.008083529770374298, 0.004452853929251432, -0.038849540054798126, -0.09042637795209885, -0.0950106605887413, -0.04203857108950615, 0.00736137805506587, -0.046336956322193146, -0.006775162182748318, 